<?xml version="1.0"?>
<opencv_storage>
<my_svm type_id="opencv-ml-svm">
  <svm_type>C_SVC</svm_type>
  <kernel><type>RBF</type>
    <gamma>1.</gamma></kernel>
  <C>1.</C>
  <term_criteria><epsilon>1.1920928955078125e-007</epsilon>
    <iterations>1000</iterations></term_criteria>
  <var_all>3780</var_all>
  <var_count>3780</var_count>
  <class_count>2</class_count>
  <class_labels type_id="opencv-matrix">
    <rows>1</rows>
    <cols>2</cols>
    <dt>i</dt>
    <data>
      0 1</data></class_labels>
  <sv_total>24</sv_total>
  <support_vectors>
    <_>
      7.12614506e-003 1.03248209e-002 2.29388252e-002 5.99567629e-002
      2.62011617e-001 1.33642122e-001 4.15132865e-002 1.36563936e-002
      7.74118723e-003 3.05840420e-003 7.41166994e-003 1.46970162e-002
      1.08009510e-001 4.08829302e-001 4.08829302e-001 1.56499267e-001
      6.40955791e-002 2.59621860e-003 1.08352918e-002 4.75529535e-003
      8.47321935e-003 5.31955585e-002 3.08535427e-001 1.58981338e-001
      6.38436005e-002 2.33474988e-002 1.23842582e-002 1.03068184e-002
      6.05920050e-003 7.82472920e-003 4.81964722e-002 2.37701610e-001
      3.62616926e-001 3.96802515e-001 2.27689251e-001 1.48765864e-002
      2.11920179e-002 1.21473391e-002 1.80980973e-002 3.39974165e-002
      2.60785073e-001 2.55977154e-001 1.30656153e-001 8.57541636e-002
      2.86177024e-002 1.25387371e-001 6.04880750e-002 2.19377220e-001
      2.60785073e-001 2.60785073e-001 2.11705551e-001 1.86576679e-001
      1.15191855e-001 1.84517622e-001 2.14709397e-002 1.05665047e-002
      8.94083828e-003 1.09173143e-002 6.95430413e-002 1.44538596e-001
      2.55140424e-001 2.19146162e-001 3.44988517e-002 1.68245718e-001
      9.64482725e-002 9.76263806e-002 2.38050461e-001 1.77120447e-001
      2.59076625e-001 2.60785073e-001 2.60785073e-001 1.64124399e-001
      1.35987848e-001 9.94611531e-002 2.63373286e-001 2.63373286e-001
      2.03206912e-001 7.62298331e-002 1.22606330e-001 5.75046875e-002
      1.02215081e-001 1.93714440e-001 1.72096565e-001 2.63373286e-001
      2.63373286e-001 2.38104567e-001 1.69568181e-001 1.14151664e-001
      1.32209599e-001 1.18084274e-001 2.20095187e-001 1.22537151e-001
      2.11434796e-001 2.63373286e-001 1.18409850e-001 1.36785537e-001
      1.34482309e-001 1.02291062e-001 1.02715641e-001 1.84634253e-001
      1.38630435e-001 2.04273716e-001 1.72945082e-001 9.47011709e-002
      6.06050864e-002 6.07313998e-002 1.31351724e-001 1.03438415e-001
      1.53653845e-001 1.46282405e-001 1.50328606e-001 2.49245033e-001
      2.49245033e-001 2.49245033e-001 6.33123741e-002 1.29885584e-001
      9.33149010e-002 2.11542621e-001 2.09389403e-001 1.66154459e-001
      2.49245033e-001 2.49245033e-001 1.92586049e-001 1.21772468e-001
      2.29011133e-001 1.18734241e-001 1.23204745e-001 1.45004690e-001
      1.79093674e-001 1.55059218e-001 1.42590880e-001 8.06569606e-002
      2.63257381e-002 1.02801405e-001 6.24364167e-002 1.48475468e-001
      1.56363174e-001 1.92980126e-001 1.91939667e-001 2.28601366e-001
      1.72075272e-001 9.98032019e-002 6.73848018e-002 6.13994710e-002
      7.94343725e-002 8.78176987e-002 9.21191424e-002 1.07622400e-001
      2.46566877e-001 1.69158429e-001 1.99311391e-001 1.90375790e-001
      1.07874900e-001 1.00419976e-001 1.12840347e-001 2.27714926e-001
      2.36080602e-001 2.48350784e-001 1.34576917e-001 1.81772441e-001
      1.08821943e-001 1.38544723e-001 5.12543730e-002 6.04831316e-002
      8.51531550e-002 1.61838844e-001 2.48350784e-001 2.48350784e-001
      1.94098592e-001 8.15998837e-002 7.59692639e-002 4.87023816e-002
      1.09225474e-001 1.68756381e-001 2.48350784e-001 2.48350784e-001
      2.24945068e-001 2.00218081e-001 1.72439948e-001 1.11319676e-001
      1.88814878e-001 1.88801467e-001 2.34237775e-001 1.35350451e-001
      1.60878763e-001 8.51745680e-002 1.20937824e-001 1.36889964e-001
      1.37905568e-001 1.70402393e-001 1.71977967e-001 2.12724179e-001
      1.25167176e-001 1.69648007e-001 1.42259210e-001 1.37254193e-001
      2.34237775e-001 1.98233247e-001 1.20399937e-001 1.70791134e-001
      1.49876490e-001 1.07902892e-001 1.35262892e-001 1.42607331e-001
      1.62117809e-001 2.34237775e-001 1.35114804e-001 1.44817427e-001
      2.00410187e-001 1.51630878e-001 1.40428960e-001 1.60554022e-001
      1.64080337e-001 1.40718013e-001 2.34237775e-001 1.97675347e-001
      6.81967735e-002 1.40843347e-001 1.97177574e-001 1.51821494e-001
      1.49942651e-001 1.09733261e-001 9.62850899e-002 1.80662572e-001
      1.74428612e-001 1.02274790e-001 1.41721606e-001 2.27020025e-001
      2.09608927e-001 2.04095408e-001 1.80572435e-001 1.23094097e-001
      1.15274057e-001 1.05620816e-001 9.19284523e-002 1.98890164e-001
      1.85180917e-001 1.86814576e-001 1.82767570e-001 1.20782346e-001
      1.05451651e-001 1.75977945e-001 1.52005047e-001 1.20759353e-001
      2.24375352e-001 2.15668231e-001 2.17169821e-001 2.27020025e-001
      1.99563771e-001 1.89796686e-001 1.78084657e-001 1.28411815e-001
      1.06814511e-001 1.06440380e-001 2.37045556e-001 1.87046885e-001
      1.62274659e-001 1.72112331e-001 9.98103768e-002 6.47898912e-002
      4.92442101e-002 1.05138741e-001 1.54500589e-001 1.81033805e-001
      1.93816394e-001 2.08614305e-001 1.50262460e-001 5.19345105e-002
      3.96803729e-002 7.67305046e-002 1.57705665e-001 1.90834880e-001
      1.56870529e-001 1.92108735e-001 2.37794384e-001 1.87232077e-001
      1.60268188e-001 1.84769839e-001 1.10704944e-001 2.02585503e-001
      2.37794384e-001 2.10214749e-001 2.37794384e-001 2.37794384e-001
      1.79336116e-001 1.30478948e-001 1.59511566e-001 1.16875425e-001
      1.44624799e-001 1.52171180e-001 1.31360859e-001 1.14948839e-001
      1.78074419e-001 1.07367545e-001 4.90571670e-002 4.23727669e-002
      9.82298627e-002 1.95166081e-001 2.06037626e-001 1.53269678e-001
      1.46048784e-001 2.44473577e-001 1.08487189e-001 6.74561262e-002
      8.94794911e-002 1.37618914e-001 1.71444178e-001 2.44473577e-001
      2.37670243e-001 1.68957397e-001 1.30048499e-001 1.31755233e-001
      1.03630319e-001 1.54958487e-001 1.17208920e-001 1.81648910e-001
      2.44473577e-001 2.44473577e-001 1.11736394e-001 1.91952124e-001
      2.28132814e-001 1.97209656e-001 2.44473577e-001 1.67360485e-001
      7.44523183e-002 8.44365433e-002 5.36860228e-002 1.21348277e-001
      4.33877289e-001 9.88476574e-002 3.30396406e-002 3.34517546e-002
      6.25167638e-002 1.17826089e-002 8.78224056e-003 7.68135674e-003
      9.44786221e-002 4.33877289e-001 1.58359453e-001 1.36541463e-002
      4.24144417e-003 1.06163826e-002 7.83504918e-002 6.77122176e-002
      1.10836677e-001 1.15299493e-001 4.33877289e-001 1.75988331e-001
      9.32640135e-002 1.23252280e-001 7.22130686e-002 1.58657879e-002
      6.16635941e-003 3.11108399e-002 1.37528539e-001 4.33877289e-001
      2.09990665e-001 2.46224497e-002 2.04832684e-002 1.51602579e-002
      7.01807253e-003 4.57447441e-003 2.54931450e-002 1.26351893e-001
      4.28038508e-001 2.48315081e-001 4.66206968e-002 2.37105098e-002
      4.17458192e-002 3.59101556e-002 1.59586053e-002 5.44724800e-002
      1.86043799e-001 4.28038508e-001 2.26642355e-001 6.43702745e-002
      3.35978530e-002 8.19640979e-002 5.61144808e-003 5.61382715e-003
      8.02567378e-002 1.72981471e-001 4.28038508e-001 2.55239725e-001
      5.29072732e-002 2.12674122e-002 1.74235348e-002 5.88839315e-002
      3.61677930e-002 1.33213744e-001 1.76149160e-001 2.44645715e-001
      1.60695106e-001 5.79628423e-002 6.94523379e-002 9.07301307e-002
      6.36831447e-002 1.01554142e-002 3.95907834e-002 1.60475537e-001
      2.89873600e-001 2.03695118e-001 1.10759407e-001 5.17436229e-002
      6.08963706e-002 5.19586764e-002 1.44781740e-002 9.38427895e-002
      2.27638051e-001 2.89873600e-001 2.89873600e-001 2.89873600e-001
      1.61540791e-001 5.63285053e-002 1.15549043e-001 4.98039164e-002
      6.95236623e-002 1.92634806e-001 2.26327255e-001 1.64470866e-001
      4.46985997e-002 5.95103651e-002 8.19731206e-002 8.08285698e-002
      3.50752547e-002 1.19273245e-001 2.89873600e-001 2.89873600e-001
      2.89873600e-001 1.66209936e-001 1.52639538e-001 5.71673103e-002
      2.54203659e-002 4.24613766e-002 8.49208534e-002 1.32985950e-001
      2.61952966e-001 2.66836971e-001 2.02261612e-001 1.60699397e-001
      4.93627004e-002 8.92263502e-002 1.61265805e-001 8.51076022e-002
      7.78332129e-002 1.82417288e-001 1.25102729e-001 1.53137788e-001
      1.35666311e-001 1.27643004e-001 1.84495468e-002 5.28742298e-002
      1.07216381e-001 2.66836971e-001 2.66836971e-001 2.66836971e-001
      1.61978588e-001 1.80860326e-001 7.68541694e-002 8.65261704e-002
      1.30697951e-001 1.17301390e-001 1.67983517e-001 2.66836971e-001
      2.60689914e-001 2.39029676e-001 1.61964521e-001 1.56470224e-001
      1.17209964e-001 1.18588448e-001 1.04229935e-001 1.26134738e-001
      1.93586767e-001 1.15135171e-001 1.35942802e-001 9.64870527e-002
      1.86669812e-001 1.10500619e-001 4.96700890e-002 1.09518565e-001
      1.82253644e-001 2.11142525e-001 1.43507630e-001 1.27630442e-001
      1.12969801e-001 1.67139858e-001 1.59745663e-001 8.22654441e-002
      8.89916047e-002 1.85653105e-001 2.41783366e-001 2.41783366e-001
      2.41783366e-001 1.50494143e-001 2.37005383e-001 1.55347109e-001
      6.12213500e-002 5.83414100e-002 1.61690503e-001 2.35011026e-001
      2.41783366e-001 2.41293952e-001 2.10768461e-001 2.12026283e-001
      1.73120499e-001 8.59824568e-002 1.04017451e-001 1.43745527e-001
      1.88346103e-001 1.54268056e-001 1.93052664e-001 1.83851674e-001
      1.98460385e-001 2.04989001e-001 9.18286219e-002 7.20290169e-002
      1.44101545e-001 1.21066630e-001 9.24188867e-002 1.84318632e-001
      1.35248572e-001 1.79686204e-001 2.03633040e-001 1.36430323e-001
      8.94653276e-002 1.57758668e-001 1.79142132e-001 2.10195288e-001
      2.49951825e-001 2.31704965e-001 1.42962947e-001 2.45930657e-001
      1.66952580e-001 1.16093598e-001 2.45393619e-001 1.67333096e-001
      9.30027217e-002 1.55702248e-001 1.87790513e-001 1.03499942e-001
      1.98045988e-002 3.14864772e-003 1.64988115e-002 7.73503110e-002
      4.06212449e-001 2.51699537e-001 1.34129927e-001 7.79010952e-002
      5.09844907e-002 8.29444975e-002 1.96480155e-002 1.90701615e-002
      6.18300550e-002 2.39596620e-001 1.57470539e-001 3.71445954e-001
      3.13729167e-001 1.20191388e-001 1.41139254e-002 3.09400982e-003
      1.06372908e-002 2.32076831e-002 2.07780868e-001 3.27735484e-001
      2.16386080e-001 8.78716409e-002 4.83305827e-002 8.13630670e-002
      3.02186981e-002 2.21612174e-002 2.20515858e-002 3.22685659e-001
      1.45911023e-001 1.53760135e-001 9.84225348e-002 1.16148770e-001
      7.43792579e-002 2.00426225e-002 2.37730946e-002 5.26222587e-003
      5.78878596e-002 7.98102468e-002 3.19844723e-001 3.17555368e-001
      8.56225565e-002 1.91975951e-001 1.12896360e-001 6.35336414e-002
      8.61317664e-002 7.63101056e-002 2.71720797e-001 3.74520361e-001
      3.74520361e-001 3.07826966e-001 5.37456647e-002 2.77614817e-002
      3.98797169e-002 2.09287386e-002 1.27958670e-001 6.63854629e-002
      6.56155497e-002 5.12489714e-002 4.32796068e-002 4.52286862e-002
      4.10863236e-002 5.39072417e-002 2.00368315e-002 5.74300252e-002
      1.00566149e-001 2.64466256e-001 3.28703463e-001 1.40796483e-001
      1.46494329e-001 8.37870315e-002 6.05667606e-002 9.95131060e-002
      4.44750115e-002 1.63300931e-001 3.00682068e-001 3.00799936e-001
      1.98092476e-001 1.40312791e-001 1.36731744e-001 1.02043144e-001
      1.23890497e-001 7.03689680e-002 9.89120454e-002 2.17645049e-001
      2.50311255e-001 2.15492725e-001 1.50811039e-002 1.00337556e-002
      7.28404056e-003 4.23049228e-003 8.65682308e-003 6.62093386e-002
      2.85582483e-001 3.00799936e-001 1.29069477e-001 6.82027414e-002
      3.25649045e-002 1.76905766e-002 2.73004267e-002 3.08476295e-002
      1.01589814e-001 3.00799936e-001 3.00799936e-001 2.79759914e-001
      1.43202573e-001 1.92629412e-001 1.77714333e-001 1.46496654e-001
      8.59474465e-002 8.18476826e-002 1.39809132e-001 1.79841369e-001
      1.70776129e-001 1.51077047e-001 1.61393180e-001 2.10997984e-001
      1.96241036e-001 1.55619532e-001 1.96990311e-001 1.26632839e-001
      1.38456881e-001 1.26736447e-001 1.16305195e-001 7.94636533e-002
      5.35597764e-002 7.47532472e-002 9.22083557e-002 1.18262053e-001
      2.93965191e-001 2.93965191e-001 2.93965191e-001 9.79742035e-002
      7.68622607e-002 1.12549044e-001 1.45185545e-001 1.16019778e-001
      1.57673791e-001 2.09958121e-001 2.47273415e-001 2.05519304e-001
      6.82320595e-002 7.62655661e-002 9.01011676e-002 1.77120924e-001
      2.71570891e-001 2.71570891e-001 1.95066258e-001 1.45724982e-001
      1.39119074e-001 1.07074499e-001 1.40351340e-001 1.26828939e-001
      2.17067122e-001 2.71570891e-001 2.71570891e-001 2.21310556e-001
      2.12696508e-001 1.69608653e-001 5.30066825e-002 1.03483260e-001
      1.09625317e-001 1.29840001e-001 9.50277522e-002 1.10200033e-001
      9.47692171e-002 1.18153796e-001 1.02512002e-001 1.11536004e-001
      1.58917353e-001 1.43246338e-001 1.28678665e-001 1.89292431e-001
      1.62466899e-001 1.32700443e-001 2.71570891e-001 1.75922692e-001
      1.22519612e-001 1.30583212e-001 8.09920132e-002 7.60010630e-002
      1.34479523e-001 1.88014582e-001 1.32336840e-001 2.06781209e-001
      1.34187222e-001 1.87183708e-001 1.61201403e-001 7.86041170e-002
      1.32865056e-001 1.84646651e-001 2.53892303e-001 2.36157224e-001
      2.53892303e-001 2.53892303e-001 1.18322790e-001 8.12264383e-002
      7.71069601e-002 6.30724430e-002 1.09704576e-001 1.29199192e-001
      1.03009455e-001 2.11945057e-001 1.56930074e-001 1.67773381e-001
      6.61701635e-002 6.45311028e-002 1.54336423e-001 1.93433180e-001
      1.73677519e-001 2.38383785e-001 2.53892303e-001 2.53892303e-001
      1.11070693e-001 1.26091868e-001 8.30805749e-002 1.23892255e-001
      1.70971453e-001 1.25159711e-001 1.62837103e-001 1.65757030e-001
      1.60147265e-001 1.31571800e-001 1.72476694e-001 1.35063186e-001
      1.85192421e-001 2.07766145e-001 1.41135767e-001 2.32598230e-001
      1.91408291e-001 1.02826677e-001 1.09402366e-001 1.27032116e-001
      8.29142258e-002 1.17009915e-001 1.91518351e-001 1.19438276e-001
      2.32598230e-001 2.10055813e-001 1.59761980e-001 1.29080474e-001
      1.92332253e-001 2.01656699e-001 1.89434066e-001 2.32598230e-001
      1.92971706e-001 2.32598230e-001 1.88603044e-001 1.55157328e-001
      1.02091067e-001 1.21799543e-001 1.02200761e-001 1.53127506e-001
      1.81220710e-001 1.20912597e-001 1.77642122e-001 1.79184869e-001
      1.08331300e-001 1.14251554e-001 1.60481229e-001 9.68679115e-002
      1.30101979e-001 2.21127585e-001 2.00273752e-001 2.42332026e-001
      2.16415018e-001 1.36857241e-001 7.80245215e-002 1.00712486e-001
      1.68867230e-001 1.61128685e-001 1.74530342e-001 1.79728985e-001
      2.42332026e-001 1.90717682e-001 1.69039756e-001 9.99742374e-002
      6.70820177e-002 1.01650812e-001 1.06755465e-001 2.04968646e-001
      1.91529810e-001 2.42332026e-001 2.42332026e-001 2.18259230e-001
      9.78742614e-002 1.83181167e-001 1.36982411e-001 1.09906577e-001
      1.17808923e-001 1.22602172e-001 1.78938672e-001 1.75801218e-001
      1.13449275e-001 1.18617430e-001 2.37351328e-001 2.52738446e-001
      1.34730235e-001 1.16456851e-001 1.33247435e-001 1.31775916e-001
      1.88361496e-001 1.47773221e-001 7.77533650e-002 6.80398196e-002
      8.68230388e-002 7.95091167e-002 1.39810264e-001 1.17458604e-001
      2.52738446e-001 2.52738446e-001 1.78117082e-001 1.00948051e-001
      1.39423206e-001 2.52738446e-001 2.12609529e-001 1.65109262e-001
      1.03405528e-001 1.99840054e-001 2.52738446e-001 2.50046670e-001
      5.56400344e-002 7.27537721e-002 1.57777518e-001 1.01016983e-001
      3.74648631e-001 1.92987606e-001 8.08676779e-002 8.44649151e-002
      7.35035464e-002 8.22238252e-003 6.39391225e-003 2.45636702e-002
      9.66589078e-002 4.11790520e-001 2.31854498e-001 2.21545119e-002
      2.00020988e-002 1.38139669e-002 6.43082038e-002 7.53727779e-002
      1.36207968e-001 1.98560983e-001 4.11790520e-001 1.68507412e-001
      5.76820001e-002 6.45489097e-002 1.16801284e-001 1.18519654e-002
      1.43852653e-002 1.63205490e-002 1.32427499e-001 4.11790520e-001
      2.14986712e-001 1.19519439e-002 4.68766456e-003 1.57337077e-002
      5.16509172e-003 9.82898474e-003 9.15010944e-002 1.61187097e-001
      4.56580400e-001 2.31911719e-001 2.38977764e-002 1.86890494e-002
      5.88809280e-003 5.51714227e-002 5.66863976e-002 1.24483861e-001
      1.39145389e-001 2.69240379e-001 1.37839675e-001 5.02069294e-002
      6.70687705e-002 4.23280187e-002 1.69778783e-002 8.90575349e-003
      7.01051950e-002 1.64960384e-001 4.56580400e-001 2.17009723e-001
      2.01206859e-002 2.46009361e-002 1.15590850e-002 1.02543853e-001
      6.00458719e-002 1.12817913e-001 1.52944878e-001 4.21054065e-001
      1.67494670e-001 5.16676791e-002 7.44953007e-002 5.78388162e-002
      1.06773518e-001 1.10623375e-001 7.34505206e-002 1.47262678e-001
      1.88193232e-001 1.18524663e-001 7.37222880e-002 6.37807474e-002
      4.21766639e-002 7.06841499e-002 9.78206471e-002 1.09526813e-001
      2.66376287e-001 2.66376287e-001 2.66376287e-001 2.12608412e-001
      1.40526280e-001 2.20792349e-002 1.04433969e-001 1.27334043e-001
      8.62659439e-002 1.08096518e-001 2.00945422e-001 1.80109173e-001
      1.28759682e-001 1.13656595e-001 9.48300213e-002 6.59815669e-002
      2.02087373e-001 2.06017554e-001 2.66376287e-001 2.66376287e-001
      2.66376287e-001 2.66376287e-001 1.97976947e-001 1.13105915e-001
      1.18157454e-002 6.10976368e-002 8.76212418e-002 2.51401275e-001
      2.51401275e-001 2.51401275e-001 2.00843111e-001 1.57526702e-001
      3.63384597e-002 6.55235425e-002 7.81228393e-002 9.73424464e-002
      1.00377180e-001 2.10652083e-001 2.51401275e-001 1.66409373e-001
      1.34794384e-001 1.01519585e-001 1.59882586e-002 1.10565148e-001
      1.84009060e-001 2.51401275e-001 2.51401275e-001 2.51401275e-001
      2.51401275e-001 1.89545125e-001 6.42236993e-002 2.35057995e-002
      6.11828640e-002 9.07462239e-002 1.27204791e-001 1.73874334e-001
      2.51401275e-001 2.18335092e-001 1.47698969e-001 7.30092898e-002
      1.26935691e-001 5.80519736e-002 7.49978200e-002 1.06531084e-001
      1.96220800e-001 2.20062375e-001 1.65700898e-001 1.13920487e-001
      1.31881014e-001 1.68210000e-001 7.56662190e-002 9.57012996e-002
      1.03341728e-001 2.28935778e-001 2.46915504e-001 1.88576147e-001
      1.94218099e-001 1.64155275e-001 8.15219805e-002 7.29714707e-002
      9.80548784e-002 6.08168356e-002 1.85108617e-001 2.46915504e-001
      1.44704342e-001 1.02999844e-001 1.61718741e-001 2.26293281e-001
      1.26802042e-001 2.43709475e-001 9.35676768e-002 2.46915504e-001
      2.46915504e-001 1.63596213e-001 1.59790903e-001 2.46915504e-001
      1.28108501e-001 1.08370245e-001 8.31466839e-002 1.46562472e-001
      1.91927135e-001 1.74839571e-001 1.78069144e-001 1.45445272e-001
      1.09313637e-001 9.42733288e-002 9.45048109e-002 6.09527379e-002
      1.81840956e-001 2.28741407e-001 1.16991997e-001 1.50539786e-001
      1.23852625e-001 7.29859024e-002 1.65678024e-001 1.27772525e-001
      1.49264410e-001 2.31478274e-001 2.46109754e-001 2.46109754e-001
      2.46109754e-001 1.57425538e-001 2.42737487e-001 6.46884143e-002
      6.41846731e-002 4.62093204e-002 2.46109754e-001 2.46109754e-001
      2.12799221e-001 1.75672695e-001 1.56435132e-001 1.66095302e-001
      1.13765718e-002 7.81862624e-003 7.51904119e-003 2.17316151e-002
      2.11709663e-001 3.32227260e-001 1.68123871e-001 3.58782671e-002
      1.05017386e-002 1.91039629e-002 2.17168108e-002 3.57183702e-002
      2.81182732e-002 2.81828940e-001 2.42844403e-001 1.26222461e-001
      6.59597740e-002 2.10170280e-002 1.26598682e-002 7.39347516e-003
      5.87884663e-003 2.05458794e-002 1.86841816e-001 4.57409889e-001
      3.09667319e-001 3.27482037e-002 7.09121302e-003 1.69597920e-002
      1.14392759e-002 2.34203823e-002 3.19263674e-002 1.73867196e-001
      4.76229876e-001 1.93287164e-001 9.32599604e-002 2.17607766e-002
      4.04142402e-002 3.59145030e-002 5.15754744e-002 3.65132280e-002
      2.71359742e-001 2.72993237e-001 9.75340828e-002 7.54755661e-002
      5.63595891e-002 1.39122888e-001 9.25522596e-002 7.40509778e-002
      3.59192528e-002 1.31597966e-001 1.92503780e-001 2.18317240e-001
      2.55790442e-001 1.72737584e-001 4.55912836e-002 2.44944040e-002
      2.75779851e-002 1.80661157e-002 1.73565358e-001 4.81145263e-001
      1.13664001e-001 1.37189493e-001 9.29150581e-002 1.72521800e-001
      6.17104359e-002 4.35761921e-002 1.13541530e-002 1.04716323e-001
      2.52564669e-001 1.75736308e-001 2.95768291e-001 2.34067425e-001
      6.90486804e-002 3.23052146e-002 3.50503512e-002 1.19153140e-002
      2.96356566e-002 8.35434645e-002 3.15740019e-001 2.85663635e-001
      7.66622797e-002 7.18673393e-002 1.88559070e-002 1.83162820e-002
      9.54373926e-003 5.51503114e-002 1.22456677e-001 4.49189395e-001
      4.49189395e-001 3.72853816e-001 9.02354643e-002 3.92723680e-002
      4.93716896e-002 1.15910694e-002 6.08486608e-002 5.49488477e-002
      1.15622550e-001 1.48681924e-001 7.52009898e-002 7.50448182e-002
      7.21395239e-002 4.54870388e-002 1.26620177e-002 9.21970010e-002
      7.92780519e-002 1.99188977e-001 2.85696924e-001 1.32274553e-001
      3.74635272e-002 1.14198104e-002 3.27465637e-003 1.71286352e-002
      1.00988925e-001 1.40322566e-001 2.79292256e-001 3.02893370e-001
      2.11954936e-001 6.38105199e-002 3.15830484e-002 3.89421433e-002
      5.78033775e-002 1.38171405e-001 1.95292339e-001 2.88280427e-001
      3.02893370e-001 2.10714072e-001 2.89004631e-002 1.84566099e-002
      6.19330537e-003 1.29709030e-002 8.61247182e-002 1.84686467e-001
      2.14490727e-001 1.62658021e-001 8.06795880e-002 6.09105602e-002
      1.20368265e-002 6.13724487e-003 3.67466696e-002 1.43203512e-001
      3.02893370e-001 3.02893370e-001 3.02893370e-001 2.03222379e-001
      6.68979436e-002 8.64321589e-002 8.21043104e-002 9.69498977e-002
      1.12371124e-001 8.00886825e-002 9.10678133e-002 1.39109612e-001
      1.23635329e-001 1.12787455e-001 1.35038495e-001 1.07212447e-001
      2.21381813e-001 2.19590530e-001 1.82686046e-001 2.53258795e-001
      2.63232857e-001 1.71244845e-001 8.87327641e-002 4.29652929e-002
      6.62354827e-002 8.71218145e-002 1.07167423e-001 1.53669611e-001
      2.12903574e-001 2.22868010e-001 1.70481384e-001 1.98186934e-001
      1.23489268e-001 1.28090203e-001 2.63232857e-001 1.95566714e-001
      2.50437140e-001 2.63232857e-001 2.36315072e-001 1.55929238e-001
      9.03346241e-002 3.35382819e-002 2.58884523e-002 6.26437813e-002
      8.23407546e-002 1.09771177e-001 1.75589591e-001 2.69248813e-001
      1.96994141e-001 1.41065791e-001 2.66838893e-002 2.38723606e-002
      5.31794950e-002 8.24739411e-002 6.36036918e-002 1.54990017e-001
      2.69248813e-001 2.69248813e-001 1.28707930e-001 4.40587215e-002
      2.60850750e-002 8.57848749e-002 1.21780291e-001 2.69248813e-001
      2.69248813e-001 2.62012362e-001 1.75758347e-001 2.21704543e-001
      7.01669753e-002 2.81753615e-002 5.05266711e-002 1.11090511e-001
      2.13168934e-001 2.69248813e-001 2.69248813e-001 2.69248813e-001
      7.99304321e-002 8.36015344e-002 8.24421272e-002 6.57819286e-002
      9.93950814e-002 6.29008114e-002 1.81024015e-001 2.40253359e-001
      2.18340978e-001 7.64466375e-002 1.70238331e-001 2.31986135e-001
      1.20157316e-001 1.33828625e-001 1.77743807e-001 2.40253359e-001
      1.89365596e-001 2.04750285e-001 1.28746167e-001 9.56058055e-002
      1.22243099e-001 5.50041609e-002 8.69059786e-002 1.14681691e-001
      2.40253359e-001 2.40253359e-001 2.22209305e-001 1.69648319e-001
      1.50143728e-001 2.26596117e-001 1.00816935e-001 1.03705168e-001
      2.10625902e-001 2.40253359e-001 2.11302787e-001 1.82969064e-001
      8.55457187e-002 1.26974747e-001 1.34933040e-001 1.01186499e-001
      9.79605541e-002 1.86248302e-001 2.35614061e-001 1.64241269e-001
      1.73249081e-001 1.62507698e-001 1.01660646e-001 1.06776789e-001
      7.67421797e-002 1.27769575e-001 1.35730848e-001 2.35614061e-001
      2.25810573e-001 2.06912667e-001 1.59824967e-001 1.24960601e-001
      9.35648009e-002 9.19640511e-002 6.76466897e-002 2.32752949e-001
      2.35614061e-001 1.62734851e-001 1.60547256e-001 2.35614061e-001
      2.35376358e-001 1.71865925e-001 6.72941357e-002 7.28546306e-002
      1.96530551e-001 2.06034362e-001 2.35614061e-001 1.97734386e-001
      1.46086946e-001 6.97826445e-002 7.91279748e-002 5.54785319e-002
      1.30662084e-001 9.18954015e-002 2.27645352e-001 2.47007370e-001
      2.00434327e-001 1.51518345e-001 1.15882300e-001 9.97589827e-002
      1.64399236e-001 1.61582619e-001 8.36102962e-002 2.07988217e-001
      2.47007370e-001 2.47007370e-001 2.38789469e-001 1.80647522e-001
      1.61380693e-001 5.50224334e-002 1.06554776e-001 1.29915163e-001
      1.41092464e-001 2.14595512e-001 1.82083324e-001 2.12796465e-001
      1.26782328e-001 8.70416909e-002 8.65526646e-002 2.47007370e-001
      1.06399417e-001 1.13863446e-001 2.19557405e-001 2.36026272e-001
      6.94991574e-002 6.28905147e-002 6.61044121e-002 1.58458382e-001
      4.49568123e-001 9.19918865e-002 4.34037112e-002 6.54652789e-002
      7.99358189e-002 1.12873334e-002 1.40795773e-002 1.86408758e-002
      1.48999557e-001 4.49568123e-001 1.08969867e-001 5.08688530e-003
      8.30301200e-004 6.35338202e-003 6.24134354e-002 6.07570186e-002
      5.58711030e-002 9.38613936e-002 4.49568123e-001 1.12297423e-001
      3.64922062e-002 5.41265570e-002 6.07980937e-002 3.37044476e-003
      1.32133979e-002 1.86393373e-002 1.80474699e-001 4.49568123e-001
      1.40450776e-001 5.88388881e-003 2.33389833e-003 2.03567441e-003
      2.22344175e-002 8.49217828e-003 3.89953032e-002 1.78834856e-001
      4.62858021e-001 1.02696009e-001 3.76405492e-002 2.40737293e-002
      8.40778183e-003 9.66634974e-002 3.45875807e-002 7.65244141e-002
      1.26234427e-001 3.13408464e-001 1.17454372e-001 8.21299627e-002
      8.28216076e-002 5.42561412e-002 2.90679540e-002 1.76920444e-002
      5.84099516e-002 2.82422632e-001 4.62858021e-001 1.32970840e-001
      5.43357171e-002 4.64526936e-002 1.80257671e-002 8.05188045e-002
      5.13370782e-002 1.22086465e-001 2.05313414e-001 3.57607961e-001
      1.24898568e-001 1.36235252e-001 1.30766109e-001 8.09320509e-002
      1.04990147e-001 8.13260749e-002 9.63178650e-002 8.54045823e-002
      1.60584375e-001 1.65683776e-001 9.87844914e-002 1.19304784e-001
      1.16256036e-001 1.00546189e-001 1.44412652e-001 1.86853066e-001
      1.88165650e-001 2.39807233e-001 2.39807233e-001 1.61997631e-001
      2.18754262e-001 2.12391838e-001 7.80681372e-002 7.34894574e-002
      1.36543542e-001 1.60253093e-001 1.66475058e-001 1.42469138e-001
      1.38170555e-001 1.68824524e-001 1.00464225e-001 1.75343066e-001
      1.60922870e-001 1.14319399e-001 2.17951462e-001 2.39807233e-001
      2.39807233e-001 2.39807233e-001 2.39807233e-001 1.68468431e-001
      3.13420296e-002 6.60332665e-002 1.19063981e-001 1.90689996e-001
      2.39985257e-001 2.39985257e-001 1.84408590e-001 1.59151286e-001
      1.19867153e-001 2.17458159e-002 5.68124764e-002 5.46031296e-002
      1.36306062e-001 2.04671308e-001 2.23015428e-001 1.66153833e-001
      9.85882580e-002 6.06779270e-002 1.16568901e-001 1.45029470e-001
      1.17492169e-001 2.19297230e-001 2.39985257e-001 2.39985257e-001
      2.39985257e-001 1.98580086e-001 1.26437739e-001 3.37496139e-002
      9.80963632e-002 1.46810770e-001 2.17580542e-001 2.36250132e-001
      2.39985257e-001 2.31220126e-001 1.37230083e-001 6.97049648e-002
      7.82918260e-002 9.88756567e-002 8.09270665e-002 8.16816464e-002
      1.80899546e-001 1.69690609e-001 1.02046415e-001 7.81075060e-002
      1.07161060e-001 1.84621826e-001 1.21064633e-001 1.78120941e-001
      1.14638478e-001 2.28803486e-001 2.25568399e-001 1.63191423e-001
      1.71774283e-001 2.11975470e-001 1.07871927e-001 1.14388384e-001
      1.16913557e-001 2.43433356e-001 1.72589496e-001 1.82515115e-001
      1.26094595e-001 1.06993772e-001 6.96458146e-002 1.72679156e-001
      1.18653461e-001 2.42679343e-001 2.43433356e-001 1.91905558e-001
      2.43433356e-001 1.80176839e-001 2.43433356e-001 1.95450112e-001
      1.54587373e-001 7.63377100e-002 1.19261861e-001 1.75712332e-001
      2.05566198e-001 2.41063997e-001 2.31719851e-001 2.05672011e-001
      2.02176020e-001 9.09061879e-002 4.78560515e-002 9.46197584e-002
      1.84112206e-001 1.67370036e-001 1.56104386e-001 1.43898025e-001
      1.63226441e-001 1.39463380e-001 1.48464665e-001 1.04589410e-001
      2.08577931e-001 2.27253258e-001 1.65555596e-001 2.41063997e-001
      1.58478990e-001 2.41063997e-001 1.94498152e-001 1.79852337e-001
      1.54030323e-001 1.60483435e-001 1.32821232e-001 1.20565556e-001
      1.32793561e-001 1.24912947e-001 1.24741368e-001 1.24231301e-001
      4.45524184e-003 5.55969018e-004 6.88227941e-004 1.42541656e-003
      6.48509189e-002 3.60477149e-001 2.92566836e-001 4.77482341e-002
      4.36737156e-003 3.94566357e-003 3.49246152e-003 8.24069232e-003
      1.49622709e-002 7.86273181e-002 3.42863649e-001 2.30259210e-001
      8.74246061e-002 1.19262692e-002 5.81718283e-003 1.12905365e-003
      3.42686102e-003 2.24641874e-004 4.89698201e-002 3.36850941e-001
      4.07383412e-001 1.00859843e-001 1.06405206e-002 0. 2.58771772e-003
      4.28459467e-003 4.74154763e-003 5.13023511e-002 2.95178860e-001
      4.17963475e-001 1.76093906e-001 3.14218812e-002 3.83427143e-002
      3.30694392e-002 1.50662530e-002 2.97271628e-002 1.54070556e-001
      3.36712718e-001 1.46253332e-001 1.42475829e-001 7.41410479e-002
      1.44771650e-001 5.65888770e-002 2.38626245e-002 2.40926351e-002
      1.10714845e-001 2.25198150e-001 1.98992759e-001 2.67163068e-001
      1.84565336e-001 2.27531381e-002 2.30098590e-002 6.04009489e-003
      1.13337850e-002 7.98634663e-002 2.21388832e-001 3.49095285e-001
      2.78337389e-001 8.84335563e-002 7.64694810e-002 3.61751802e-002
      1.60766765e-002 1.83742680e-002 6.48874491e-002 2.83538878e-001
      3.61767977e-001 2.66139865e-001 1.24764085e-001 1.16815798e-001
      5.11306562e-002 6.96282312e-002 3.97609286e-002 8.22375417e-002
      1.43592089e-001 2.52711415e-001 2.10104391e-001 1.22897960e-001
      8.99553820e-002 1.04481682e-001 7.24453256e-002 5.86809665e-002
      8.92299712e-002 1.26562148e-001 3.05283159e-001 2.53931344e-001
      1.25168562e-001 5.23271114e-002 2.97049228e-002 7.19127208e-002
      7.21500441e-002 8.84043127e-002 3.32447857e-001 3.51611346e-001
      1.25309095e-001 6.30112365e-002 3.94411683e-002 2.29523201e-002
      6.72361627e-002 8.68329927e-002 8.69215429e-002 2.25029409e-001
      4.64595050e-001 1.66958764e-001 6.80828467e-002 6.29589185e-002
      3.21615785e-002 1.63098983e-002 3.05902492e-002 8.11293200e-002
      1.67810604e-001 1.83851779e-001 1.42840862e-001 1.07294463e-001
      5.90420701e-002 1.73445344e-002 1.58962365e-002 4.63956743e-002
      1.48534387e-001 3.99528623e-001 3.99528623e-001 3.99528623e-001
      2.70966262e-001 4.34710644e-002 1.19301043e-002 1.22781694e-002
      1.75465941e-002 5.45934699e-002 7.71288648e-002 1.39314339e-001
      7.50069171e-002 6.44186065e-002 6.79561719e-002 1.29717924e-002
      1.66737810e-002 1.95331275e-002 7.21302554e-002 1.45971522e-001
      2.06536174e-001 3.56651813e-001 2.57651597e-001 4.16038558e-002
      2.42429767e-002 3.70466858e-002 3.37484367e-002 4.96778004e-002
      1.41570598e-001 2.38110185e-001 2.98370123e-001 1.85764983e-001
      1.11721329e-001 3.98819074e-002 7.20353201e-002 1.28835157e-001
      1.31913334e-001 1.95000052e-001 2.97034532e-001 2.98370123e-001
      1.68971330e-001 3.55809741e-002 6.33403054e-003 5.60674118e-003
      8.56921636e-003 1.58202425e-002 6.27787933e-002 1.81274191e-001
      2.98370123e-001 1.64631039e-001 8.31556842e-002 2.01362502e-002
      1.29156578e-002 6.98235780e-002 1.61160782e-001 2.98370123e-001
      2.98370123e-001 2.98370123e-001 1.79879561e-001 7.11417794e-002
      3.07029970e-002 2.20200680e-002 5.73807172e-002 1.04374558e-001
      2.16288984e-001 2.39446282e-001 1.75074965e-001 8.56686383e-002
      1.52967349e-001 1.20408371e-001 6.51140958e-002 8.12141001e-002
      1.46713302e-001 2.58402824e-001 2.58402824e-001 2.58402824e-001
      1.54684812e-001 6.89298809e-002 3.50660495e-002 1.64685417e-002
      5.37212677e-002 1.32498726e-001 2.58402824e-001 2.58402824e-001
      2.58402824e-001 1.06118552e-001 1.49946019e-001 1.35895282e-001
      8.24649110e-002 1.04395509e-001 1.70385793e-001 2.58402824e-001
      2.58402824e-001 2.58402824e-001 1.17755815e-001 1.61252528e-001
      1.45078316e-001 1.00548320e-001 1.11703575e-001 1.32742628e-001
      2.15558395e-001 2.41258651e-001 2.41258651e-001 1.65294215e-001
      2.08202317e-001 1.31458297e-001 1.13846667e-001 9.95244905e-002
      1.07398182e-001 1.77307770e-001 2.37816870e-001 2.21000895e-001
      1.80011526e-001 1.78434148e-001 1.63928941e-001 9.68361571e-002
      1.51993394e-001 1.36606306e-001 2.41258651e-001 2.21274734e-001
      1.61837444e-001 1.59024671e-001 1.05630197e-001 8.83346274e-002
      5.94045967e-002 1.19693853e-001 9.19224769e-002 1.70579672e-001
      1.93829834e-001 2.00575158e-001 1.87607735e-001 2.18057603e-001
      1.00411490e-001 5.57142086e-002 9.46028903e-002 1.29372641e-001
      1.71897471e-001 1.99488714e-001 2.18463108e-001 2.06552729e-001
      2.56075382e-001 2.27875933e-001 1.78833157e-001 8.80490839e-002
      1.29527867e-001 2.01835692e-001 2.09947497e-001 2.56075382e-001
      2.56075382e-001 7.33776987e-002 7.53702000e-002 6.16835803e-002
      7.53618628e-002 1.24800235e-001 1.45060793e-001 1.39788479e-001
      1.90274939e-001 1.47997811e-001 1.49625033e-001 1.36109665e-001
      2.07631633e-001 1.28858835e-001 1.52483717e-001 1.60101220e-001
      1.10584512e-001 1.74480245e-001 1.85215384e-001 1.90946490e-001
      2.05479726e-001 2.03943193e-001 1.00777648e-001 9.72934216e-002
      1.95427164e-001 1.81078732e-001 2.51072735e-001 1.89294666e-001
      1.70871899e-001 1.57487065e-001 1.28506377e-001 1.24382168e-001
      2.51072735e-001 1.37858823e-001 1.40343070e-001 1.83883891e-001
      1.99669734e-001 1.45553291e-001 1.83252171e-001 1.87878147e-001
      1.89582735e-001 1.37058154e-001 1.43754885e-001 1.11400343e-001
      1.02281019e-001 1.02968954e-001 1.25701845e-001 1.80686206e-001
      9.96094272e-002 1.56270474e-001 2.51072735e-001 1.91827849e-001
      1.62004158e-001 9.23519507e-002 1.00029163e-001 3.78477424e-002
      3.87487113e-002 3.37183140e-002 6.72837421e-002 4.60104138e-001
      8.83834884e-002 2.41227150e-002 2.63736770e-002 3.39698605e-002
      3.63671244e-003 7.99563248e-003 1.26241064e-002 1.55589581e-001
      4.60104138e-001 1.49838611e-001 3.55883036e-003 4.06965008e-003
      3.75821162e-003 2.24923100e-002 3.17818262e-002 2.25142725e-002
      6.24718778e-002 4.60104138e-001 1.33627921e-001 4.11252230e-002
      2.59875506e-002 3.51904631e-002 5.67231094e-003 8.24255589e-003
      1.29670566e-002 1.71238691e-001 4.60104138e-001 1.60261139e-001
      7.46422587e-003 4.96938732e-003 9.92124993e-003 1.37117039e-002
      2.38190368e-002 5.95208816e-002 2.38806427e-001 4.44718838e-001
      1.37885347e-001 2.15497483e-002 4.83036563e-002 2.84967143e-002
      6.24196045e-002 6.32625446e-002 9.44379792e-002 1.87840447e-001
      2.82514423e-001 9.40640569e-002 1.06020734e-001 1.26672626e-001
      7.45534748e-002 4.16576304e-002 4.77325469e-002 5.32691143e-002
      2.89522111e-001 4.44718838e-001 1.13585226e-001 1.29588703e-002
      2.44941059e-002 4.27897722e-002 1.50514930e-001 1.25366881e-001
      9.36158523e-002 2.20051840e-001 3.15896004e-001 8.33774731e-002
      1.30166933e-001 9.98616666e-002 8.40270668e-002 7.32045099e-002
      4.87997569e-002 7.46254474e-002 1.56940430e-001 1.12854533e-001
      7.97995180e-002 1.33567333e-001 1.88355580e-001 6.97299242e-002
      1.73258767e-001 1.10847235e-001 6.58852383e-002 2.17610970e-001
      2.19125822e-001 1.41888052e-001 2.37627968e-001 2.37627968e-001
      9.75196809e-002 1.61063597e-001 1.02959178e-001 1.30652696e-001
      2.31669560e-001 1.35401353e-001 9.78742838e-002 1.56283855e-001
      1.71067595e-001 1.08566128e-001 1.93364561e-001 1.81998655e-001
      2.25479364e-001 2.37627968e-001 2.37627968e-001 1.65314555e-001
      2.37627968e-001 2.37627968e-001 1.50282592e-001 1.14819609e-001
      1.14219002e-001 8.98110271e-002 1.81039885e-001 2.29280800e-001
      1.92043364e-001 2.44763777e-001 1.39848441e-001 6.32008612e-002
      2.67949291e-002 4.59401160e-002 1.03362799e-001 1.59178242e-001
      1.95728824e-001 2.43930712e-001 2.44763777e-001 1.66049466e-001
      4.22903560e-002 1.39088720e-001 1.50413379e-001 1.37855917e-001
      1.75437644e-001 2.14611635e-001 1.80255204e-001 2.44763777e-001
      1.47444949e-001 8.00672099e-002 8.28236341e-002 7.76347592e-002
      6.97986856e-002 2.10302040e-001 2.44763777e-001 2.44763777e-001
      2.44763777e-001 1.72834143e-001 4.11224514e-002 7.25236014e-002
      4.66304682e-002 8.57818574e-002 2.31353551e-001 1.44442633e-001
      1.46953791e-001 1.48602873e-001 1.11712337e-001 4.72285450e-002
      1.08098418e-001 1.12739772e-001 2.40724206e-001 2.40724206e-001
      1.44489273e-001 2.37406552e-001 1.78073809e-001 1.85309350e-001
      1.16023846e-001 5.01329787e-002 5.59237190e-002 7.47618377e-002
      2.25851029e-001 2.40724206e-001 2.00805664e-001 2.01088145e-001
      1.06236637e-001 6.46922812e-002 1.38098300e-001 1.73413247e-001
      1.61370829e-001 2.40724206e-001 1.63537547e-001 2.40724206e-001
      2.40724206e-001 1.92147076e-001 1.54505491e-001 9.65884104e-002
      1.31179050e-001 2.33800754e-001 1.98900416e-001 1.32350251e-001
      2.33800754e-001 1.50284141e-001 1.86527014e-001 1.13117158e-001
      1.64721861e-001 1.64742604e-001 1.38507158e-001 1.21999703e-001
      1.15824983e-001 1.46596640e-001 5.77700362e-002 1.11769222e-001
      1.09540403e-001 1.61204368e-001 1.90334171e-001 1.61352769e-001
      2.14364469e-001 1.43542573e-001 2.16297954e-001 2.27609262e-001
      2.33800754e-001 1.30858958e-001 2.01986015e-001 1.98990569e-001
      1.43920988e-001 2.13558272e-001 1.33854061e-001 1.59722269e-001
      7.07805827e-002 1.53236002e-001 1.99135214e-001 5.51145384e-003
      2.84994673e-003 8.37779138e-003 0. 2.01401934e-002 2.54944384e-001
      3.78432631e-001 1.13103300e-001 1.58130396e-002 0. 1.29543035e-003
      3.80808674e-003 0. 2.95093395e-002 1.84091598e-001 3.34639579e-001
      1.94321856e-001 3.38322930e-002 6.43904088e-003 1.34716998e-003
      3.80808674e-003 0. 2.45804247e-002 3.11984599e-001 4.31546748e-001
      1.66524187e-001 3.05867065e-002 4.50831093e-003 1.36492564e-003
      1.73094869e-003 0. 4.11181077e-002 2.00894564e-001 4.10256058e-001
      2.51708537e-001 4.02749255e-002 2.93820910e-003 1.14004186e-003 0.
      0. 1.88956428e-002 1.62697777e-001 3.13523024e-001 2.36770138e-001
      4.36730422e-002 7.97510799e-003 2.14817398e-003 3.76836839e-003
      2.70226249e-003 2.67349146e-002 2.70289570e-001 3.12089622e-001
      1.85535848e-001 2.98253279e-002 3.09743732e-003 6.83282502e-004 0.
      0. 2.92590074e-002 2.15203702e-001 4.16095167e-001 2.34714836e-001
      3.28054689e-002 2.09151045e-003 1.56869646e-003 1.29136257e-004
      2.10805750e-003 4.96740825e-002 3.85512650e-001 3.82138371e-001
      1.76081255e-001 3.07236835e-002 1.06432457e-002 4.84673213e-003
      2.79985983e-002 2.85500474e-002 7.59757757e-002 3.38954151e-001
      2.79052943e-001 9.10074860e-002 1.77337807e-002 2.01163366e-002
      4.13226616e-003 2.85888352e-002 4.08468917e-002 9.08504725e-002
      2.79886484e-001 3.08373481e-001 6.60625324e-002 2.45472714e-002
      8.49780813e-003 1.94234995e-003 5.29708574e-003 1.34738749e-002
      1.04945555e-001 4.46818799e-001 2.91040540e-001 1.53735682e-001
      3.40785421e-002 2.27026343e-002 3.86787299e-003 9.72715486e-003
      3.00862342e-002 1.03077069e-001 3.79905105e-001 3.12070042e-001
      1.40369236e-001 4.84126471e-002 3.14936228e-002 1.77356638e-002
      4.11016010e-002 4.42490391e-002 8.47352818e-002 1.97087049e-001
      2.01701805e-001 7.74954259e-002 6.57927692e-002 7.58169517e-002
      3.03156823e-002 5.26963957e-002 4.06411774e-002 6.58295378e-002
      9.11645070e-002 2.10341766e-001 3.72770071e-001 2.99128890e-001
      1.84899718e-002 2.81083621e-002 4.44923826e-002 8.75747576e-002
      1.49556234e-001 3.12783211e-001 2.15453833e-001 9.98538658e-002
      9.41962078e-002 7.64010325e-002 4.00387309e-002 6.18192777e-002
      8.59047249e-002 1.16890080e-001 1.37419134e-001 2.09750161e-001
      3.96474510e-001 3.85029972e-001 6.71757162e-002 1.42449392e-002
      1.42499842e-002 1.43513912e-002 2.93295532e-002 6.30580485e-002
      1.87615171e-001 2.59790093e-001 1.68616951e-001 1.54216170e-001
      6.12973794e-002 3.17882448e-002 6.77539334e-002 1.90032601e-001
      4.12086546e-001 4.12086546e-001 4.12086546e-001 1.79703504e-001
      6.27495199e-002 1.45743843e-002 1.29650999e-002 1.00479890e-002
      1.51019450e-002 2.13895366e-002 8.42625052e-002 2.09105089e-001
      1.84100658e-001 8.43913108e-002 6.83440343e-002 3.84746194e-002
      4.30106632e-002 7.62190148e-002 1.30108669e-001 2.65521526e-001
      1.76518738e-001 1.20265409e-001 4.87589277e-002 3.00697219e-002
      5.49606187e-003 2.17983816e-002 7.51352757e-002 2.57137150e-001
      3.27672839e-001 3.04850847e-001 5.20152450e-002 1.04701348e-001
      8.93464088e-002 3.00288573e-002 7.22058862e-002 1.09049030e-001
      3.27672839e-001 3.27672839e-001 2.95173466e-001 8.91596898e-002
      1.42524624e-002 1.45002995e-002 7.31760357e-003 1.48029430e-002
      4.63163741e-002 1.50994509e-001 3.27672839e-001 5.32263815e-002
      1.85725335e-002 4.22484949e-002 1.98311899e-002 6.72493223e-003
      1.95016209e-002 6.88971728e-002 3.17028642e-001 3.27672839e-001
      1.25992075e-001 6.41692430e-002 1.11305743e-001 1.06637329e-001
      8.32854509e-002 1.15965419e-001 9.77773294e-002 2.20225409e-001
      2.32554436e-001 1.56875461e-001 1.49018183e-001 7.29341507e-002
      6.32543638e-002 9.19037089e-002 1.04803309e-001 9.04607326e-002
      2.55939603e-001 2.92101353e-001 2.07597807e-001 1.95317805e-001
      4.92354445e-002 3.53940390e-002 3.20914835e-002 4.93394211e-002
      8.43440890e-002 2.92101353e-001 2.92101353e-001 1.80603400e-001
      1.05069853e-001 7.21267983e-002 5.12620136e-002 7.38493502e-002
      8.63188431e-002 1.41715854e-001 2.92101353e-001 2.92101353e-001
      2.59442240e-001 1.32805124e-001 4.28641289e-002 5.37526533e-002
      9.95955542e-002 8.68162736e-002 1.03606224e-001 2.29062468e-001
      2.95256555e-001 2.06020713e-001 1.54883161e-001 1.15691073e-001
      8.33608285e-002 1.58821598e-001 1.43757209e-001 1.20926768e-001
      1.28924638e-001 1.56048268e-001 1.30904779e-001 1.61903545e-001
      6.97995946e-002 3.90421599e-002 9.33321267e-002 8.53071213e-002
      1.73703417e-001 2.95256555e-001 2.95256555e-001 2.79132515e-001
      1.73738107e-001 8.37341323e-002 4.13802788e-002 1.10390291e-001
      1.26029238e-001 1.49322107e-001 2.12120786e-001 2.95256555e-001
      1.91285938e-001 1.73269555e-001 1.36286274e-001 8.86118785e-002
      8.62813443e-002 1.83526635e-001 1.33579701e-001 1.07085988e-001
      1.00321822e-001 6.92290962e-002 1.29318193e-001 1.84204847e-001
      1.88675717e-001 1.10438630e-001 2.25626782e-001 2.52615452e-001
      2.49161929e-001 1.69374079e-001 8.63294899e-002 1.43028691e-001
      1.06376059e-001 9.06410888e-002 8.85176584e-002 1.35385320e-001
      1.06359534e-001 1.44399315e-001 1.89653635e-001 1.00302376e-001
      1.32983029e-001 2.35607475e-001 2.52615452e-001 2.08853394e-001
      2.22463876e-001 2.15594605e-001 2.52615452e-001 1.91967785e-001
      1.52100608e-001 1.72085136e-001 4.13426422e-002 6.18153177e-002
      3.90401110e-002 1.05102643e-001 3.93891066e-001 1.44739389e-001
      5.20466268e-002 2.46463697e-002 3.52047160e-002 8.27823766e-003
      1.54459383e-002 1.17198350e-002 1.73796222e-001 3.93891066e-001
      1.54154450e-001 1.85395349e-002 6.86674099e-003 6.54050894e-003
      6.66960478e-002 1.00951687e-001 5.53336591e-002 1.35574088e-001
      3.93549204e-001 2.15325609e-001 5.06666861e-002 3.85032296e-002
      4.32125553e-002 1.32533638e-002 2.23822240e-002 1.03726843e-002
      1.79068282e-001 3.93891066e-001 3.93891066e-001 2.84977406e-002
      7.90992472e-003 6.48047542e-003 3.37191038e-002 5.03770597e-002
      2.61581652e-002 2.51743436e-001 3.96662295e-001 1.26096100e-001
      2.19648872e-002 1.54104885e-002 1.91815291e-002 9.88942161e-002
      1.52941078e-001 8.67595151e-002 1.39628798e-001 2.28466153e-001
      1.13550782e-001 8.86590406e-002 1.11811854e-001 4.64168191e-002
      2.97378916e-002 4.74795699e-002 3.35059725e-002 2.30729610e-001
      3.96662295e-001 3.96662295e-001 3.92326452e-002 2.26615686e-002
      6.57785451e-003 1.02106273e-001 1.42186791e-001 1.30562022e-001
      1.42876759e-001 2.58880109e-001 2.38467142e-001 8.70091394e-002
      1.71618417e-001 5.37142865e-002 1.14704713e-001 1.35697678e-001
      1.23476408e-001 1.53234065e-001 1.64861277e-001 1.28645688e-001
      1.09715804e-001 1.22407869e-001 6.08981065e-002 1.63430482e-001
      1.80337995e-001 1.87406108e-001 2.56063133e-001 2.56063133e-001
      2.21928656e-001 1.94076866e-001 1.00690663e-001 9.14005190e-002
      1.30851537e-001 1.31275311e-001 1.07299477e-001 1.25665903e-001
      2.08607629e-001 1.97160378e-001 1.05705030e-001 2.07230344e-001
      5.78248277e-002 1.55600145e-001 1.62992582e-001 1.03272937e-001
      2.56063133e-001 2.56063133e-001 2.56063133e-001 1.97363913e-001
      1.35134429e-001 7.00765997e-002 1.05253577e-001 1.33255646e-001
      1.21223353e-001 1.95568964e-001 1.92771032e-001 1.83972299e-001
      1.73364252e-001 7.14914277e-002 6.66162521e-002 5.76476231e-002
      7.38461614e-002 8.70216191e-002 2.56725430e-001 2.56725430e-001
      1.97748452e-001 2.28257433e-001 6.00849092e-002 2.92693079e-002
      8.59111398e-002 7.67911971e-002 5.69853447e-002 2.26552725e-001
      2.56725430e-001 2.56725430e-001 2.08796695e-001 1.14003144e-001
      8.39331150e-002 3.87751572e-002 2.39859633e-002 9.34375525e-002
      2.56725430e-001 2.56725430e-001 2.56725430e-001 2.56725430e-001
      1.32836491e-001 7.62700364e-002 4.18321751e-002 4.67750952e-002
      7.72276819e-002 2.43435964e-001 2.43435964e-001 1.72064617e-001
      1.92658514e-001 6.33869842e-002 3.13054323e-002 1.38550535e-001
      1.03944376e-001 7.94189125e-002 1.84815452e-001 1.64451659e-001
      2.09057584e-001 2.43435964e-001 1.42373383e-001 1.13432519e-001
      1.65058132e-002 1.29959919e-002 8.19807202e-002 2.43435964e-001
      2.43435964e-001 2.43081450e-001 2.43435964e-001 1.64800033e-001
      3.22889239e-002 9.88676101e-002 4.94920760e-002 5.92409298e-002
      1.95039809e-001 2.43435964e-001 2.43435964e-001 2.43435964e-001
      2.30715767e-001 8.23789090e-002 1.47600904e-001 9.86221954e-002
      5.26501425e-002 1.73615068e-001 1.00032888e-001 1.84827760e-001
      1.83751255e-001 1.20795876e-001 1.54395863e-001 1.68045714e-001
      1.24821626e-001 9.37986150e-002 1.86544657e-001 1.00913651e-001
      1.50387794e-001 1.71119109e-001 7.91610107e-002 1.88714877e-001
      1.76071003e-001 1.06596820e-001 5.09664193e-002 1.40646920e-001
      1.52816862e-001 2.38626882e-001 2.38626882e-001 1.75393626e-001
      2.02886149e-001 1.95754468e-001 1.91104695e-001 1.13674365e-001
      1.67159081e-001 1.57653540e-001 2.38180190e-001 2.38626882e-001
      2.00912699e-001 2.38626882e-001 8.59091245e-003 2.03761447e-004 0.
      0. 5.52217886e-002 2.98986286e-001 3.71262640e-001 9.22893584e-002
      1.83432549e-002 2.81851236e-002 3.05642164e-003 0. 0.
      6.13419116e-002 2.03379616e-001 2.80568630e-001 1.48958907e-001
      4.42274995e-002 1.00104595e-002 1.58481125e-004 0. 0.
      7.65781626e-002 4.04760391e-001 4.05969352e-001 1.18145004e-001
      2.19725333e-002 2.72197630e-002 2.37721694e-003 0. 0.
      6.66126832e-002 2.81328559e-001 3.67363364e-001 1.89155325e-001
      6.19062707e-002 3.37309018e-002 4.91178920e-003 0. 0.
      8.54046345e-002 2.05351755e-001 2.85061598e-001 1.64813280e-001
      4.93187122e-002 2.32771039e-002 9.05494206e-003 0. 1.99652892e-002
      8.76647085e-002 3.27046126e-001 2.96029896e-001 1.50173023e-001
      4.15839739e-002 3.67162786e-002 4.84774681e-003 0. 0.
      8.69164020e-002 2.61170596e-001 3.38853657e-001 2.31139362e-001
      7.67315179e-002 3.37303877e-002 8.36376194e-003 1.18929590e-003
      2.35596541e-002 7.90670291e-002 3.24847758e-001 4.09289449e-001
      2.58381009e-001 8.50663260e-002 2.63774451e-002 9.93619207e-003
      1.69641024e-003 3.28781083e-002 7.87702203e-002 3.21109951e-001
      2.55175769e-001 1.46380693e-001 4.80187871e-002 4.06890810e-002
      3.02820299e-002 1.64573677e-002 2.87386905e-002 6.13379329e-002
      2.47086436e-001 2.77537107e-001 1.47655174e-001 6.73812479e-002
      3.57557833e-002 9.42387246e-003 3.15773929e-003 3.37693878e-002
      3.98319773e-002 2.32426599e-001 4.57913101e-001 2.73083597e-001
      8.53484496e-002 6.83009028e-002 3.86874080e-002 4.14667539e-002
      2.54107621e-002 3.74455638e-002 1.74864829e-001 3.89612526e-001
      2.51473963e-001 1.33773446e-001 5.12617193e-002 7.73438662e-002
      2.97077913e-002 4.09695283e-002 1.11107774e-001 2.32378006e-001
      2.38571450e-001 1.35201707e-001 1.16648108e-001 1.64743096e-001
      8.72280672e-002 3.24789621e-002 3.17613780e-002 9.57688913e-002
      1.39009073e-001 1.71151727e-001 2.99266547e-001 4.01347786e-001
      7.20035732e-002 6.37857839e-002 5.40258214e-002 2.03279536e-002
      5.01818284e-002 1.17016986e-001 3.20098341e-001 2.20523462e-001
      1.57897964e-001 1.20394133e-001 6.40093237e-002 4.11839075e-002
      1.07242884e-002 5.87853864e-002 1.24338411e-001 2.63000727e-001
      3.10528070e-001 2.71230608e-001 1.63079888e-001 4.16901000e-002
      1.42077776e-002 3.34641663e-003 2.22021714e-002 7.33025894e-002
      1.54004499e-001 3.46390009e-001 3.24716896e-001 1.01833582e-001
      5.72776794e-002 2.98216119e-002 3.64772826e-002 3.88216972e-002
      9.86509398e-002 2.18731463e-001 3.10521185e-001 1.62069038e-001
      1.32325679e-001 4.28472795e-002 2.39754748e-002 2.44664005e-003
      3.79161723e-002 1.36511311e-001 1.41685158e-001 3.32982749e-001
      2.44722396e-001 8.69162157e-002 1.95179302e-002 1.74593870e-002
      1.59142222e-002 1.98880378e-002 1.12915412e-001 2.32074842e-001
      4.03885722e-001 2.09641978e-001 5.26668504e-003 1.00662550e-002
      1.39418114e-002 2.35855952e-002 3.78220081e-002 6.98705092e-002
      2.57366002e-001 6.86019659e-002 2.61856429e-002 9.90458019e-003
      9.44792666e-003 1.05072204e-002 2.93807499e-002 9.45381373e-002
      4.43462610e-001 4.43462610e-001 1.85259223e-001 3.94127555e-002
      1.00725442e-002 1.35964053e-002 2.22446527e-002 2.83102505e-002
      1.72295962e-002 3.13335396e-002 5.27499132e-002 7.04876408e-002
      3.59598994e-002 1.67684890e-002 2.41223909e-002 3.45391445e-002
      8.10857341e-002 2.36002102e-001 4.43462610e-001 4.43462610e-001
      8.64692256e-002 2.07267869e-002 3.92935351e-002 1.49710234e-002
      7.49532459e-003 3.48316953e-002 9.70206484e-002 3.06440055e-001
      3.06440055e-001 9.55080390e-002 3.19119468e-002 6.64621815e-002
      2.17993874e-002 3.53813916e-002 7.29356632e-002 1.27823159e-001
      2.81583548e-001 2.86538839e-001 1.44947335e-001 7.57343024e-002
      2.44130045e-002 7.91511871e-003 8.24421179e-003 4.96878996e-002
      3.06440055e-001 3.06440055e-001 3.06440055e-001 3.64675336e-002
      7.89132155e-003 3.14468592e-002 1.89984459e-002 2.62358803e-002
      8.17733929e-002 2.82689065e-001 3.06440055e-001 3.06440055e-001
      7.06622228e-002 5.33643439e-002 6.53801039e-002 1.37276826e-002
      8.02184567e-002 8.69963840e-002 1.50664479e-001 2.75363892e-001
      2.75363892e-001 2.75363892e-001 1.77972272e-001 6.53649047e-002
      2.45289858e-002 1.04132012e-001 1.09243840e-001 1.55893922e-001
      2.70743459e-001 2.75363892e-001 2.74810463e-001 1.49196684e-001
      6.27511218e-002 5.69450371e-002 5.29803857e-002 1.32672429e-001
      1.32681444e-001 1.32095501e-001 1.94384575e-001 1.73232883e-001
      1.51487261e-001 1.16723031e-001 6.05857708e-002 5.79752922e-002
      1.10932909e-001 1.63113475e-001 2.75363892e-001 2.16154799e-001
      1.99998766e-001 1.50225043e-001 6.62384480e-002 6.90028965e-002
      8.46726000e-002 7.54918903e-002 7.66919330e-002 1.88065693e-001
      2.01472178e-001 1.43325910e-001 8.80517885e-002 1.19200513e-001
      1.72745422e-001 1.29535437e-001 1.06708720e-001 1.65106669e-001
      2.44430006e-001 2.19655871e-001 2.14659557e-001 1.50920361e-001
      9.75880250e-002 5.65545447e-002 6.29203394e-002 8.72442052e-002
      1.40462488e-001 2.57972062e-001 2.57972062e-001 1.98711857e-001
      1.05069868e-001 1.70915276e-001 1.16448954e-001 9.86874700e-002
      1.63939729e-001 2.57972062e-001 2.57972062e-001 2.57972062e-001
      2.57972062e-001 1.25330597e-001 3.65411378e-002 4.32472900e-002
      3.51316147e-002 1.07727602e-001 3.49290550e-001 1.52060881e-001
      3.82174216e-002 6.33519441e-002 4.15783525e-002 9.92684811e-003
      1.02937566e-002 3.19195352e-002 2.26163864e-001 3.69798094e-001
      3.50041658e-001 2.67149750e-002 1.53828552e-002 1.05504496e-002
      3.82957980e-002 2.65766252e-002 3.83598581e-002 1.19855195e-001
      3.69798094e-001 1.18428849e-001 5.96753024e-002 7.38305300e-002
      3.44840400e-002 6.24958146e-003 1.38667813e-002 6.39859438e-002
      3.69798094e-001 3.69798094e-001 2.38290995e-001 3.09026055e-002
      2.24192739e-002 1.27384597e-002 3.06332447e-002 2.53516715e-002
      4.38066684e-002 2.06620023e-001 3.38091314e-001 3.38091314e-001
      4.61232997e-002 1.97595395e-002 6.83737034e-003 1.07026637e-001
      6.22020066e-002 9.91615802e-002 1.13716520e-001 2.26182356e-001
      2.08720684e-001 1.06797025e-001 8.30420479e-002 3.53270695e-002
      3.20321769e-002 4.13261987e-002 9.71563533e-002 3.38091314e-001
      3.38091314e-001 2.72172123e-001 7.31823072e-002 3.26547474e-002
      1.31026590e-002 1.71583384e-001 7.45451897e-002 1.33098528e-001
      2.03622699e-001 2.75667250e-001 1.89264491e-001 1.63151801e-001
      9.23774466e-002 6.55472577e-002 1.79928258e-001 9.21376497e-002
      8.94673988e-002 1.16027482e-001 1.42885506e-001 1.70878306e-001
      1.43711418e-001 1.50033310e-001 6.23389482e-002 1.69196770e-001
      1.45539910e-001 7.82753825e-002 2.47075558e-001 2.47075558e-001
      2.31691927e-001 1.54716030e-001 1.66947007e-001 1.15497775e-001
      1.95747823e-001 9.55368951e-002 8.93276259e-002 1.47356838e-001
      2.08165690e-001 1.65210888e-001 2.27184936e-001 1.86231941e-001
      9.01812539e-002 1.46212220e-001 1.39022425e-001 1.62619755e-001
      2.41504028e-001 2.47075558e-001 8.72642845e-002 1.74546838e-001
      2.14005440e-001 1.70536965e-001 6.94802180e-002 6.88219890e-002
      5.30684441e-002 1.90950736e-001 2.62535781e-001 2.30183363e-001
      1.13601558e-001 1.08079955e-001 1.12148374e-001 4.20184173e-002
      2.40802076e-002 9.70912352e-002 1.52253926e-001 2.62535781e-001
      2.62535781e-001 2.09796190e-001 1.48994386e-001 1.02283068e-001
      7.64776245e-002 7.53690451e-002 1.32731274e-001 2.33494520e-001
      2.62535781e-001 1.32254139e-001 7.37228319e-002 9.71118063e-002
      1.83132902e-001 5.69002517e-002 3.62790972e-002 1.72477007e-001
      2.53493935e-001 2.62535781e-001 2.62535781e-001 1.65430903e-001
      1.48597777e-001 1.88773468e-001 9.09629464e-003 5.13038831e-003
      8.57288018e-002 1.89729050e-001 2.49146685e-001 2.16556162e-001
      2.26868525e-001 1.55249253e-001 4.04339209e-002 6.84921294e-002
      4.03064787e-002 5.22146970e-002 1.27956167e-001 1.87863171e-001
      1.92367390e-001 2.34065861e-001 2.23698109e-001 4.71263416e-002
      1.68347824e-002 1.38149289e-002 1.45908475e-001 2.20681369e-001
      2.49146685e-001 2.49146685e-001 2.49146685e-001 1.56459868e-001
      7.55619630e-002 1.16775140e-001 8.69726241e-002 1.23657487e-001
      1.66766554e-001 1.84900641e-001 2.49146685e-001 2.49146685e-001
      2.12183982e-001 9.26248431e-002 1.31206766e-001 1.01781785e-001
      6.06057830e-002 7.80475587e-002 1.03893988e-001 1.47708952e-001
      1.82254717e-001 1.98085293e-001 1.08884327e-001 1.69152051e-001
      2.11792648e-001 9.83569473e-002 1.34503767e-001 1.26192108e-001
      1.13895372e-001 2.27919132e-001 2.27919132e-001 2.09407121e-001
      1.69543043e-001 1.74245581e-001 1.55765429e-001 1.47055745e-001
      9.15880948e-002 1.78347185e-001 1.96800157e-001 2.27919132e-001
      1.32459641e-001 2.11438209e-001 2.27919132e-001 2.06433684e-001
      1.82840437e-001 1.23041771e-001 1.47000596e-001 1.56206325e-001
      2.27919132e-001 1.62406877e-001 1.17965089e-002 1.30392518e-003
      3.99692683e-003 0. 7.61800557e-002 2.98510164e-001 3.60975176e-001
      1.30416587e-001 3.52004021e-002 8.93479027e-003 1.01416407e-003
      3.10872123e-003 0. 4.78635579e-002 2.14074150e-001 2.95369804e-001
      2.08245695e-001 5.33262566e-002 1.49325803e-002 1.67647528e-003
      5.13890618e-003 0. 7.93347135e-002 3.31536651e-001 3.77990097e-001
      1.56201199e-001 4.21360433e-002 9.60899424e-003 1.30392518e-003
      3.99692683e-003 0. 5.79343513e-002 2.79347241e-001 3.77990097e-001
      2.40165532e-001 5.80639057e-002 7.69844232e-003 2.93639780e-004 0.
      0. 2.24469043e-002 1.96856439e-001 3.28817189e-001 2.25123659e-001
      4.80619669e-002 1.80825498e-002 3.77536868e-004 2.69702799e-003
      7.08607910e-003 1.96326245e-002 1.86478391e-001 3.33852530e-001
      2.75164068e-001 8.68521556e-002 9.25757457e-003 0. 0. 0.
      4.08590697e-002 2.56635636e-001 4.21975136e-001 2.33107001e-001
      4.90467995e-002 1.77565608e-002 0. 1.22592167e-003 2.49167928e-003
      2.85109319e-002 1.51363134e-001 3.35230410e-001 3.38937014e-001
      1.06622890e-001 1.37612354e-002 5.16254222e-004 3.34190275e-003
      7.50848930e-003 8.83256085e-003 1.05407603e-001 3.20185751e-001
      3.15609008e-001 8.23451951e-002 4.20253687e-002 5.32959960e-003
      1.23112602e-002 2.78771902e-003 9.96731408e-003 9.05292109e-002
      3.01284164e-001 2.91546553e-001 1.36692822e-001 5.99234784e-003 0.
      1.28864800e-003 2.61916989e-003 1.82450432e-002 1.02050804e-001
      2.67473072e-001 4.00757998e-001 1.08214661e-001 1.97116621e-002 0.
      8.59098654e-005 1.74611341e-004 1.92882307e-002 1.10530332e-001
      3.19066167e-001 4.01279896e-001 2.00486213e-001 4.02398072e-002
      7.61314435e-003 1.56728402e-002 6.73128711e-003 5.65001415e-003
      4.65892777e-002 2.71298528e-001 2.47960582e-001 1.40574589e-001
      1.87150780e-002 6.21584803e-003 9.65170842e-003 6.69685053e-003
      7.82451127e-003 3.98319401e-002 2.37263381e-001 3.42061758e-001
      1.45038590e-001 2.33894382e-002 0. 2.31266371e-003 4.70047677e-003
      1.65913776e-002 5.33248186e-002 3.36997598e-001 3.83337915e-001
      1.87631086e-001 1.53014101e-002 1.16283644e-003 6.86049834e-003
      6.99969009e-003 2.18231473e-002 2.69269086e-002 3.62850487e-001
      4.36026543e-001 1.30867094e-001 4.59657982e-002 6.22002268e-003
      8.70399643e-003 3.50165321e-003 9.24909115e-003 6.14741221e-002
      1.64751545e-001 3.56799155e-001 1.76759914e-001 3.84569280e-002
      6.07442483e-003 1.57149993e-002 1.67076215e-002 8.18320457e-003
      8.15927014e-002 2.47689962e-001 3.54788542e-001 1.95567727e-001
      1.78884733e-002 1.06096165e-002 3.64380106e-002 9.06059891e-003
      1.79415885e-002 3.47273909e-002 2.80859053e-001 4.10414696e-001
      1.43942490e-001 2.29550619e-002 2.73020566e-002 7.97158256e-002
      2.01997757e-002 1.99755039e-002 6.75707087e-002 3.07790905e-001
      3.98359001e-001 1.75696865e-001 3.81423868e-002 3.62211727e-002
      5.94699420e-002 5.86466603e-002 3.98916975e-002 5.94546087e-002
      1.03793137e-001 1.17294453e-001 6.83364272e-002 8.51481482e-002
      7.76161179e-002 1.10128984e-001 1.61185980e-001 3.91147047e-001
      3.91147047e-001 3.91147047e-001 1.08796895e-001 7.22044632e-002
      4.78561223e-002 3.82430889e-002 6.74807876e-002 2.58395132e-002
      5.71126118e-002 4.25941125e-002 1.28248721e-001 1.35937795e-001
      7.20481575e-002 9.33195353e-002 6.01458028e-002 1.91612646e-001
      2.51528859e-001 3.91147047e-001 2.31085211e-001 1.83075577e-001
      1.06672876e-001 8.26551691e-002 6.63944520e-003 4.30328585e-003
      8.97225924e-003 4.27478850e-002 2.98868388e-001 2.98868388e-001
      2.43687496e-001 3.34236175e-002 1.64044946e-002 4.98640398e-003
      1.65247265e-002 3.08679976e-002 6.82269931e-002 2.98868388e-001
      2.98868388e-001 2.75444895e-001 5.91932535e-002 3.52867059e-002
      8.15417059e-003 6.79579237e-003 1.09531343e-001 2.17220098e-001
      2.98868388e-001 2.41027057e-001 7.89206401e-002 3.89612764e-002
      1.82656441e-002 1.68923996e-002 1.26790525e-002 1.21221513e-001
      2.17784628e-001 2.98868388e-001 2.98868388e-001 1.64076060e-001
      8.16555321e-002 2.94035543e-002 4.99239080e-002 1.01696022e-001
      8.39404091e-002 1.80464119e-001 2.60618538e-001 1.85305864e-001
      1.86256468e-001 1.00485168e-001 8.09357539e-002 9.57452506e-002
      1.38092175e-001 6.18460514e-002 1.50240093e-001 1.80916324e-001
      2.15184242e-001 1.69206113e-001 1.42269000e-001 1.05493292e-001
      3.36876549e-002 6.44696802e-002 1.27878502e-001 1.73337415e-001
      3.03213507e-001 3.03213507e-001 2.29369015e-001 1.33873835e-001
      5.46647981e-002 4.29787524e-002 1.56452596e-001 1.22582220e-001
      1.40844777e-001 3.03213507e-001 2.33891994e-001 2.05283850e-001
      1.77579805e-001 8.16001594e-002 5.50646335e-002 8.67951810e-002
      7.35839233e-002 1.19614169e-001 1.37460619e-001 2.48924255e-001
      2.28895381e-001 1.87571749e-001 8.18722472e-002 1.33239731e-001
      1.13469869e-001 1.60376355e-001 2.28352323e-001 2.56289750e-001
      2.56289750e-001 2.56289750e-001 2.16721371e-001 9.02367160e-002
      2.80096252e-002 9.28297937e-002 9.31457877e-002 1.11746304e-001
      1.39342055e-001 1.57896340e-001 1.70485631e-001 1.80184156e-001
      6.27134666e-002 7.30298758e-002 1.20203510e-001 1.46031857e-001
      1.94213197e-001 2.21901983e-001 2.20061719e-001 2.10849196e-001
      2.35222206e-001 1.21232159e-001 3.67517620e-002 1.78327933e-002
      4.09155078e-002 9.72283930e-002 4.08669233e-001 1.24858454e-001
      7.05799684e-002 3.95236090e-002 2.55499315e-002 6.50525792e-003
      6.22979598e-003 2.96641868e-002 2.70423770e-001 4.31728423e-001
      1.95308179e-001 3.13489363e-002 1.38120316e-002 6.95369439e-003
      3.16758677e-002 2.90319435e-002 3.29193734e-002 8.06780681e-002
      4.31728423e-001 1.43308640e-001 6.05752356e-002 4.59831096e-002
      3.41127403e-002 1.04823876e-002 4.70277295e-003 2.54468527e-002
      2.20136821e-001 4.31728423e-001 1.81902125e-001 2.59727351e-002
      2.07805000e-002 1.05297342e-002 1.41712083e-002 1.69519335e-002
      6.49068952e-002 2.69349039e-001 3.42352003e-001 1.73845634e-001
      3.90518904e-002 2.28477810e-002 6.76487712e-003 1.16121911e-001
      4.20283638e-002 9.15874019e-002 2.19196141e-001 3.25212449e-001
      1.51319608e-001 9.82205644e-002 7.91965425e-002 4.68806252e-002
      8.71562865e-003 2.18474586e-002 6.61855191e-002 2.92173296e-001
      3.42352003e-001 1.54203460e-001 2.02726703e-002 3.13778743e-002
      8.73868912e-003 7.29347765e-002 6.56093284e-002 9.88813266e-002
      3.42352003e-001 3.42352003e-001 2.10655525e-001 1.04502171e-001
      9.34453681e-002 2.74075624e-002 1.40982196e-001 6.95825815e-002
      6.90397769e-002 1.73762843e-001 2.46750101e-001 1.34644002e-001
      1.49274081e-001 1.17312923e-001 5.84031790e-002 9.42709744e-002
      9.47560444e-002 1.63547322e-001 2.15240449e-001 2.38096550e-001
      7.09942803e-002 1.48175329e-001 1.27962649e-001 1.43679798e-001
      1.44226953e-001 1.38370752e-001 1.83091551e-001 2.46750101e-001
      2.46750101e-001 1.41503602e-001 1.54615745e-001 1.13703609e-001
      7.65990391e-002 1.55479684e-001 1.49016887e-001 2.46348754e-001
      2.46750101e-001 2.46750101e-001 1.58293843e-001 1.89124212e-001
      1.15286008e-001 2.16374397e-001 9.24875140e-002 7.04959780e-002
      1.15539066e-001 2.09365591e-001 1.82523012e-001 9.35275108e-002
      6.73360080e-002 8.64766613e-002 1.93541035e-001 6.87208399e-002
      6.75955713e-002 1.22219846e-001 2.38964438e-001 2.38964438e-001
      2.38964438e-001 1.52140364e-001 1.47068143e-001 1.56679899e-001
      1.32263184e-001 1.31652519e-001 1.27017692e-001 2.38964438e-001
      2.20250502e-001 1.34167641e-001 1.24959230e-001 9.82600302e-002
      2.01235607e-001 8.66728276e-002 1.58323079e-001 1.47547543e-001
      2.38964438e-001 2.38964438e-001 2.38964438e-001 1.99024618e-001
      2.04807669e-001 1.51487648e-001 1.18502257e-002 1.82645824e-002
      8.91034603e-002 1.87961385e-001 2.54023522e-001 2.54023522e-001
      2.20272347e-001 1.25078559e-001 4.43292558e-002 6.15091659e-002
      4.98050414e-002 1.13608263e-001 1.88644633e-001 2.23265082e-001
      2.47300819e-001 2.05944687e-001 1.38324454e-001 5.95796183e-002
      1.33272419e-002 5.56402132e-002 1.25394151e-001 2.13152438e-001
      2.54023522e-001 2.54023522e-001 2.31317282e-001 1.48787245e-001
      4.44258600e-002 4.66239564e-002 1.16031460e-001 1.21231630e-001
      2.22191274e-001 2.54023522e-001 2.54023522e-001 1.66955784e-001
      1.25165895e-001 6.53301999e-002 1.14048645e-001 1.24309212e-001
      1.65880695e-001 2.37663552e-001 1.34953395e-001 1.58631846e-001
      1.54998153e-001 1.75164208e-001 1.09790303e-001 1.62507370e-001
      2.37663552e-001 2.17986539e-001 2.37663552e-001 1.25330389e-001
      1.76760986e-001 8.34922716e-002 1.22983031e-001 1.23831406e-001
      7.49019310e-002 1.58412918e-001 1.32752344e-001 2.37663552e-001
      2.37663552e-001 1.28609329e-001 1.26892030e-001 1.34579018e-001
      1.21088810e-001 1.75446823e-001 1.15382247e-001 1.38146713e-001
      2.37663552e-001 2.37663552e-001 1.79772004e-001 8.97644311e-002
      1.29405141e-001 2.09212899e-001</_>
    <_>
      0. 0. 0. 0. 4.62583393e-001 0. 0. 0. 0. 0. 0. 0. 0.
      4.64393735e-001 0. 0. 0. 0. 1.84297226e-002 2.63015903e-003
      7.87043758e-003 0. 5.22662282e-001 0. 0. 0. 1.84297226e-002
      3.09984782e-003 2.04567914e-003 6.12145197e-003 0. 5.26386797e-001
      0. 0. 0. 3.09984782e-003 0. 0. 0. 0. 4.15827930e-001 0. 0. 0. 0.
      0. 0. 0. 0. 1.49968415e-001 0. 0. 0. 0. 0. 0. 0. 0.
      4.76508826e-001 0. 0. 0. 0. 0. 0. 0. 0. 6.19838536e-001 0. 0. 0.
      0. 5.71994744e-002 1.04094623e-002 3.11490819e-002 0.
      1.14398941e-001 0. 0. 0. 5.71994744e-002 2.73159027e-001
      1.69904772e-002 5.08419909e-002 0. 1.57112986e-001 0. 0. 0.
      2.73159027e-001 5.32827787e-002 1.33835943e-002 4.00488190e-002 0.
      5.56500435e-001 0. 0. 0. 5.32827787e-002 2.70055801e-001
      2.00128350e-002 5.98860309e-002 0. 5.56533277e-001 0. 0. 0.
      2.70055801e-001 2.59651899e-001 2.12241877e-002 6.35108575e-002 0.
      5.32454908e-001 0. 0. 0. 2.59651899e-001 5.73587865e-002
      1.48443924e-002 4.44200821e-002 0. 5.60507774e-001 0. 0. 0.
      5.73587865e-002 2.65909463e-001 1.75939407e-002 5.26477769e-002 0.
      1.61310747e-001 0. 0. 0. 2.65909463e-001 6.23215213e-002
      1.15456395e-002 3.45489569e-002 0. 2.11136162e-001 0. 0. 0.
      6.23215213e-002 5.65751940e-002 1.02958521e-002 3.08091175e-002 0.
      1.50898561e-001 0. 0. 0. 5.65751940e-002 2.70177782e-001
      1.68050434e-002 5.02870977e-002 0. 1.55398250e-001 0. 0. 0.
      2.70177782e-001 5.27012497e-002 1.32375266e-002 3.96117270e-002 0.
      5.60634077e-001 0. 0. 0. 5.27012497e-002 2.67108411e-001
      1.97944120e-002 5.92324287e-002 0. 5.50459206e-001 0. 0. 0.
      2.67108411e-001 2.66792148e-001 2.18078345e-002 6.52573630e-002 0.
      5.47097027e-001 0. 0. 0. 2.66792148e-001 5.89361079e-002
      1.52526032e-002 4.56416048e-002 0. 5.54419100e-001 0. 0. 0.
      5.89361079e-002 2.73221791e-001 1.80777628e-002 5.40955588e-002 0.
      1.65746689e-001 0. 0. 0. 2.73221791e-001 6.40353188e-002
      1.18631367e-002 3.54990251e-002 0. 1.28070638e-001 0. 0. 0.
      6.40353188e-002 0. 0. 0. 0. 2.76512861e-001 0. 0. 0. 0. 0. 0. 0.
      0. 5.68977296e-001 0. 0. 0. 0. 0. 0. 0. 0. 7.47703463e-002 0. 0.
      0. 0. 0. 0. 0. 0. 6.52006984e-001 0. 0. 0. 0. 0. 0. 0. 0.
      4.47191268e-001 0. 0. 0. 0. 0. 0. 0. 0. 4.61436629e-001 0. 0. 0.
      0. 3.37957055e-003 1.98065536e-003 6.14838209e-003 0.
      5.06689012e-001 0. 0. 0. 3.37957055e-003 2.13372093e-002
      3.11153103e-003 9.59568098e-003 0. 5.57098031e-001 0. 0. 0.
      2.13372093e-002 2.72893608e-002 8.94675124e-003 2.67720912e-002 0.
      1.49576604e-001 0. 0. 0. 2.72893608e-002 7.66224042e-002
      2.23356225e-002 6.68366700e-002 0. 7.29444385e-001 0.
      1.92002840e-002 6.41639810e-003 7.66224042e-002 4.30414937e-002
      1.40827950e-002 4.23549972e-002 0. 3.57039779e-001 0. 0. 0.
      4.30414937e-002 1.00659899e-001 2.50929054e-002 7.62970671e-002
      1.97490188e-003 4.99895722e-001 0. 1.49335545e-002 4.99053206e-003
      1.00659899e-001 6.53203875e-002 1.45460935e-002 4.35837172e-002 0.
      6.28099918e-001 0. 2.56451741e-002 8.57016724e-003 6.53203875e-002
      8.78717378e-002 8.97164363e-003 2.69189589e-002 0. 2.58542418e-001
      0. 5.91811771e-003 1.97773101e-003 8.78717378e-002 1.30080685e-001
      2.58854404e-002 9.49625671e-002 3.42317261e-002 3.41756195e-001
      5.78942569e-003 2.27466654e-002 6.66568521e-003 1.30080685e-001
      3.71204466e-001 2.48557981e-002 9.50500593e-002 4.03701589e-002
      2.20159754e-001 7.44354678e-003 8.20351671e-003 1.53823511e-003
      3.71204466e-001 8.51455927e-002 4.51146596e-004 1.36073225e-003 0.
      1.96000617e-002 0. 0. 0. 8.51455927e-002 9.58225206e-002 0.
      1.52350415e-003 1.15401791e-002 1.06856845e-001 0. 0. 0.
      9.58225206e-002 4.55314964e-001 2.99859792e-003 1.16263991e-002
      5.15287323e-003 1.24605857e-002 1.10238779e-003 5.33238810e-004 0.
      4.55314964e-001 5.10445952e-001 1.97225902e-003 1.58919487e-002
      3.90729234e-002 4.86872979e-002 0. 0. 2.14511994e-003
      5.10912418e-001 2.06608269e-002 0. 2.55475496e-003 1.93516593e-002
      3.65540862e-001 0. 0. 0. 2.06608269e-002 3.47511494e-003 0.
      1.98703189e-003 1.50512913e-002 6.52411222e-001 0. 0. 0.
      3.47511494e-003 1.12722464e-001 4.46284516e-003 2.68268865e-002
      6.55211657e-002 2.44303107e-001 0. 0. 5.67422528e-003
      1.16161115e-001 2.41993163e-002 8.23289342e-003 2.33936161e-002
      5.09609058e-002 5.80538273e-001 0. 1.40956533e-003 5.93936583e-003
      2.75206529e-002 0. 0. 0. 0. 3.64390522e-001 0. 0. 0. 0. 0. 0. 0.
      0. 5.49087465e-001 0. 0. 0. 0. 2.12500594e-003 2.17140792e-003
      1.52585376e-003 0. 4.04930592e-001 0. 2.19253753e-003
      1.07368408e-003 2.25227349e-003 4.65052959e-004 0. 0. 0.
      6.28737330e-001 0. 5.05970151e-004 1.69086357e-004 4.65052959e-004
      0. 0. 0. 0. 6.64776266e-001 0. 0. 0. 0. 0. 0. 0. 0.
      2.17581391e-001 0. 0. 0. 0. 0. 0. 0. 0. 6.64776266e-001 0. 0. 0.
      0. 0. 0. 0. 0. 2.49332592e-001 0. 0. 0. 0. 0. 0. 0. 0. 0. 0. 0. 0.
      0. 0. 0. 0. 0. 0. 0. 0. 0. 0. 0. 0. 0. 0. 0. 0. 0. 0. 0. 0. 0. 0.
      0. 0. 0. 0. 0. 0. 2.59662181e-001 1.88670661e-002 5.64574525e-002
      0. 5.19324362e-001 0. 0. 0. 2.59662181e-001 5.67018613e-002
      1.46743841e-002 4.39113490e-002 0. 5.34425199e-001 0. 0. 0.
      5.67018613e-002 3.12332451e-001 1.46743841e-002 4.39113490e-002 0.
      1.13403745e-001 0. 0. 0. 3.12332451e-001 1.12578355e-001
      1.14134103e-002 3.61029208e-002 3.94456647e-003 1.76700592e-001 0.
      0. 0. 1.12578355e-001 1.34236058e-002 1.07840344e-003
      3.22699407e-003 0. 4.04616818e-002 0. 0. 0. 1.34236058e-002
      5.83312809e-002 2.43821903e-003 7.29608024e-003 0. 7.45796785e-002
      0. 0. 0. 5.83312809e-002 1.37193561e-001 2.87895761e-002
      1.12248071e-001 5.07035479e-002 2.52481878e-001 0. 0. 0.
      1.37193561e-001 6.12076342e-001 4.15725410e-002 1.54287428e-001
      5.77672720e-002 2.55208910e-001 0. 7.04513444e-003 2.35436601e-003
      6.12076342e-001 3.60985585e-002 5.10403654e-003 1.52732236e-002 0.
      4.49131221e-001 0. 0. 0. 3.60985585e-002 2.11893339e-002
      4.53693606e-003 1.35762431e-002 0. 4.52137500e-001 0. 0. 0.
      2.11893339e-002 3.98038685e-001 1.95473172e-002 6.10172264e-002
      4.82620811e-003 3.26952815e-001 0. 3.06341834e-002 1.02374312e-002
      3.98038685e-001 1.14726052e-001 1.22090271e-002 3.65340635e-002 0.
      3.35774899e-001 0. 2.70611495e-002 9.04338341e-003 1.14726052e-001
      1.08734556e-001 1.84671173e-003 5.52606536e-003 0. 2.79504627e-001
      0. 0. 0. 1.08734556e-001 3.01071797e-002 0. 0. 0. 4.58200216e-001
      0. 0. 0. 3.01071797e-002 2.24952206e-001 0. 0. 0. 2.34062105e-001
      0. 8.79337452e-003 2.93859863e-003 2.24952206e-001 2.55903929e-001
      4.69585322e-003 1.40517838e-002 0. 5.11807859e-001 0. 0. 0.
      2.55903929e-001 2.20492808e-003 1.32565526e-003 3.96686653e-003 0.
      4.60545152e-001 0. 0. 0. 2.20492808e-003 1.44412965e-002
      1.70441403e-003 5.10025676e-003 0. 4.61292863e-001 0. 0. 0.
      1.44412965e-002 1.84976161e-002 2.63984781e-003 7.89943151e-003 0.
      5.24587691e-001 0. 0. 0. 1.84976161e-002 3.11126723e-003
      2.05321517e-003 6.14400255e-003 0. 5.28325915e-001 0. 0. 0.
      3.11126723e-003 1.58357427e-001 2.68948986e-003 8.04797933e-003 0.
      4.11766708e-001 0. 0. 0. 1.58357427e-001 4.38471027e-002 0. 0. 0.
      7.48752663e-003 0. 0. 0. 4.38471027e-002 7.56276697e-002 0. 0. 0.
      4.80555534e-001 0. 0. 0. 7.56276697e-002 3.02925318e-001 0.
      1.42550142e-002 2.88445465e-002 3.91089290e-001 0. 0. 0.
      3.02925318e-001 1.30730476e-002 1.05024071e-003 3.14272079e-003 0.
      3.69469495e-003 0. 0. 0. 1.30730476e-002 5.63957505e-002
      1.64855679e-003 7.04071019e-003 4.31984058e-003 8.55158567e-002 0.
      0. 0. 5.63957505e-002 1.38097927e-001 2.80414242e-002
      1.09315693e-001 4.93798442e-002 2.20977068e-001 1.14937527e-002
      5.55833289e-003 0. 1.38097927e-001 6.17586970e-001 4.40320149e-002
      1.69693425e-001 7.49780983e-002 2.44312689e-001 1.47776809e-002
      7.14642787e-003 0. 6.17586970e-001 4.82707843e-002 8.30463879e-003
      4.40519229e-002 3.78967524e-002 3.75968844e-001 0. 0. 0.
      4.82707843e-002 1.47176564e-001 1.39243305e-002 6.32031783e-002
      4.25845459e-002 4.00911480e-001 0. 0. 0. 1.47176564e-001
      3.30001414e-001 3.10940575e-002 1.36470035e-001 8.93818960e-002
      3.42027277e-001 1.24869542e-003 6.03864202e-004 0. 3.30001414e-001
      2.03420103e-001 2.85633486e-002 1.25970885e-001 8.34042132e-002
      3.94567490e-001 0. 0. 0. 2.03420103e-001 1.61322340e-001
      3.79177704e-002 1.16272829e-001 5.19140670e-003 3.52358401e-001 0.
      0. 0. 1.61322340e-001 1.98509187e-001 3.68029885e-002
      1.15742430e-001 1.01892743e-002 3.76866609e-001 0. 0. 0.
      1.98509187e-001 1.79509953e-001 4.39784490e-002 1.12600133e-001
      6.67466642e-003 4.17297333e-001 0. 0. 0. 1.69699997e-001
      2.67232805e-001 4.49524187e-002 1.10212259e-001 7.92499166e-003
      3.93198550e-001 0. 0. 0. 2.54620016e-001 1.26158357e-001
      8.15848913e-003 4.93754111e-002 4.99298796e-002 2.43323788e-001
      2.18847431e-002 1.91232618e-002 2.85302848e-003 1.26158357e-001
      2.16399863e-001 2.80652717e-002 7.62413815e-002 5.04281074e-002
      3.36835951e-001 2.81375237e-002 3.23926136e-002 1.22131202e-002
      2.15356261e-001 1.40682817e-001 6.94125611e-003 1.73393209e-002
      2.26030853e-002 1.79278314e-001 1.70214660e-002 1.92100741e-002
      3.66817927e-003 1.38823107e-001 8.26560035e-002 3.64028364e-002
      4.85271178e-002 1.83530971e-002 7.62375236e-001 2.18847431e-002
      4.18448299e-002 1.80882290e-002 7.94518590e-002 2.24435553e-001
      3.73653062e-002 3.41835693e-002 3.53890867e-003 1.22239359e-001
      1.88202653e-002 3.69340889e-002 3.29538733e-002 2.23872200e-001
      2.37476438e-001 2.45150086e-002 4.11714353e-002 9.67400242e-003
      7.19973668e-002 1.98349357e-002 1.00866139e-001 5.54741584e-002
      2.40269914e-001 6.68987483e-002 4.91723455e-002 3.97918150e-002
      2.35927233e-004 5.62674761e-001 2.24740077e-002 1.41348287e-001
      7.40488023e-002 6.58041611e-002 6.71577007e-002 2.98680812e-002
      4.37821895e-002 0. 2.40986720e-001 2.55020596e-002 5.13459742e-001
      2.06117392e-001 7.55216256e-002 1.69007272e-001 3.23492214e-002
      8.67127702e-002 3.89284566e-002 1.66717127e-001 2.41024420e-003
      6.01020344e-002 8.01951662e-002 1.98070541e-001 9.70727950e-002
      7.15612993e-002 1.19292066e-001 3.02776899e-002 5.13450921e-001 0.
      4.04771008e-002 1.08847633e-001 1.32430211e-001 1.04489326e-001
      6.04996532e-002 1.39220804e-001 0. 9.34474990e-002 3.09888553e-003
      3.44682693e-001 1.86436296e-001 1.40855178e-001 1.09977916e-001
      1.88048720e-001 4.40956086e-001 0. 1.96592882e-001 0.
      1.05732627e-001 1.43312961e-001 1.47788748e-001 1.66850314e-002
      2.27996949e-002 4.31219339e-002 0. 3.37358713e-001 0.
      1.73128955e-002 1.80700868e-002 1.94092877e-002 3.31514771e-003
      2.88380147e-003 8.62943288e-003 0. 6.17671430e-001 0.
      2.55471468e-003 8.53740727e-004 3.31514771e-003 2.40932014e-002
      8.45055580e-002 2.28607878e-001 0. 1.91015393e-001 0.
      1.83843132e-002 2.10634898e-002 2.69465074e-002 1.09327044e-002
      1.82902757e-002 5.47314771e-002 2.49306136e-003 6.26343608e-001
      4.26278822e-003 6.27497071e-003 1.41505199e-003 1.09327044e-002 0.
      0. 0. 0. 6.65188253e-001 0. 0. 0. 0. 0. 0. 0. 0. 2.18617097e-001
      0. 0. 0. 0. 1.13821949e-003 0. 0. 6.06177608e-003 6.65188253e-001
      6.28656521e-003 3.28144897e-003 9.09162554e-005 1.13821949e-003 0.
      0. 0. 2.75535276e-003 2.45997742e-001 1.45074585e-003
      6.94475602e-004 0. 0. 0. 0. 0. 0. 0. 0. 0. 0. 0. 0. 0. 0. 0. 0. 0.
      0. 0. 0. 0. 0. 0. 0. 0. 0. 0. 0. 0. 0. 0. 0. 0. 0. 0. 0. 0. 0.
      3.39948773e-001 0. 0. 0. 0. 0. 0. 0. 3.39948773e-001
      3.63388568e-001 2.98915943e-003 1.62691604e-002 1.53781362e-002
      7.45067969e-002 0. 0. 0. 3.63388568e-001 3.21911126e-001 0. 0. 0.
      0. 0. 0. 0. 3.21911126e-001 3.59573513e-001 3.84320482e-003
      1.70567520e-002 1.19607728e-002 7.99243748e-002 0. 0. 0.
      3.59573513e-001 1.75783888e-001 2.24109087e-002 1.06197305e-001
      7.96827674e-002 3.35897714e-001 0. 0. 0. 1.75783888e-001
      3.19840074e-001 2.57605761e-002 1.17301457e-001 8.12419429e-002
      3.44811052e-001 0. 7.40458677e-003 2.47448916e-003 3.19840074e-001
      1.29857048e-001 1.09704277e-002 5.22065572e-002 4.12269905e-002
      4.35804456e-001 0. 0. 0. 1.29857048e-001 4.86715510e-002
      8.80483631e-003 4.36004847e-002 3.65115441e-002 4.58070666e-001 0.
      1.70875085e-003 5.71035955e-004 4.86715510e-002 4.49025601e-001
      1.12534296e-002 3.88540104e-002 1.02061555e-002 2.53061473e-001 0.
      8.79228413e-002 2.93823425e-002 4.49025601e-001 3.50593209e-001
      5.76096727e-003 1.72390081e-002 0. 2.23904610e-001 0.
      8.69781449e-002 2.90666409e-002 3.50593209e-001 9.02990848e-002
      1.44237900e-004 1.58676575e-003 2.35526660e-003 1.40551165e-001 0.
      4.03138921e-002 1.34722274e-002 9.02990848e-002 2.71128505e-001 0.
      0. 0. 7.69525915e-002 0. 4.58170250e-002 1.53112840e-002
      2.71128505e-001 3.12357366e-001 0. 0. 0. 1.98892318e-002 0.
      6.71891309e-003 2.24534841e-003 3.12357366e-001 3.56506318e-001
      3.58804618e-003 1.07368026e-002 0. 5.02834246e-002 0. 0. 0.
      3.56506318e-001 3.23112607e-001 0. 0. 0. 4.85188328e-003 0.
      5.22582186e-003 1.74638222e-003 3.23112607e-001 3.95484865e-001
      2.79070297e-003 8.35084729e-003 0. 8.45758710e-003 0. 0. 0.
      3.95484865e-001 2.55420059e-001 1.85588337e-002 5.55351079e-002 0.
      5.10840118e-001 0. 0. 0. 2.55420059e-001 5.57755269e-002
      1.44346477e-002 4.31939699e-002 0. 5.45036733e-001 0. 0. 0.
      5.57755269e-002 3.07233810e-001 1.44346477e-002 4.31939699e-002 0.
      1.11551054e-001 0. 0. 0. 3.07233810e-001 1.10743590e-001
      1.21470634e-002 3.63486446e-002 0. 2.02712715e-001 0. 0. 0.
      1.10743590e-001 5.58545552e-002 1.01647070e-002 3.04166768e-002 0.
      1.48975551e-001 0. 0. 0. 5.58545552e-002 2.66736299e-001
      1.30689088e-002 4.64484170e-002 1.48547934e-002 1.66665584e-001 0.
      0. 0. 2.66736299e-001 8.13908055e-002 1.93345938e-002
      5.81633039e-002 0. 5.35570681e-001 0. 0. 0. 8.13908055e-002
      2.98518121e-001 2.30697729e-002 7.51379207e-002 1.15537299e-002
      5.33034563e-001 0. 0. 0. 2.98518121e-001 2.23446697e-001
      1.57838017e-002 8.80840570e-002 8.16336721e-002 2.35089168e-001
      3.45425233e-002 1.67046264e-002 0. 2.23446697e-001 5.02744734e-001
      2.30023433e-002 1.12735100e-001 8.78481865e-002 2.17100576e-001
      4.44118120e-002 2.68888548e-002 1.80842041e-003 5.02744734e-001
      2.00740427e-001 2.31717667e-003 2.78081857e-002 4.22371663e-002
      9.27941948e-002 2.68664062e-002 1.29924873e-002 0. 2.00740427e-001
      2.53657818e-001 3.49548459e-003 2.10251343e-002 3.74059230e-002
      1.03372790e-001 3.45425233e-002 2.36622375e-002 2.32511177e-003
      2.53121406e-001 4.18911040e-001 2.24879980e-002 8.34354535e-002
      3.41817066e-002 1.86330363e-001 6.36444893e-003 2.87586320e-002
      8.58207513e-003 4.18911040e-001 1.03665814e-001 1.57318395e-002
      5.80299236e-002 2.36113686e-002 2.79738069e-001 0. 1.99739635e-002
      6.67494768e-003 1.03665814e-001 1.98655680e-001 1.33377081e-002
      3.33836628e-003 1.65221188e-003 3.61245483e-001 4.95012756e-003
      3.54120433e-002 1.10340975e-002 1.96109965e-001 7.36259967e-002
      1.23016108e-002 1.73068943e-003 0. 5.11212230e-001 0.
      2.56808102e-002 8.58207513e-003 6.89361244e-002 6.58213496e-002
      1.79082323e-002 1.86581872e-002 2.98540574e-002 2.64434069e-001
      2.27019079e-002 0. 0. 4.38212045e-002 2.79590666e-001
      2.26309337e-002 2.25648656e-002 3.78026180e-002 2.33966559e-001
      2.91881673e-002 0. 4.99293441e-003 2.52390265e-001 9.94889662e-002
      1.74274128e-002 1.84789989e-002 3.78026180e-002 4.26736981e-001
      1.16160363e-001 1.57444905e-002 9.42139770e-004 7.62003958e-002
      4.24105763e-001 2.06041746e-002 2.53739879e-002 4.86033708e-002
      3.64355296e-001 1.49349049e-001 2.54454128e-002 9.38433968e-003
      3.98696631e-001 2.27473825e-001 1.82391219e-002 6.97611831e-003
      4.60493751e-003 8.17759931e-002 3.55556491e-003 4.65214206e-003
      3.78587767e-002 2.29041919e-001 8.81851017e-002 3.98900695e-002
      2.27160081e-002 0. 5.14752388e-001 3.63856182e-003 5.58466241e-002
      5.53245321e-002 8.96372050e-002 3.38045388e-001 1.62131954e-002
      1.28639452e-002 5.92063414e-003 9.14258510e-002 2.18833778e-002
      3.00492328e-002 5.55058457e-002 3.43273997e-001 1.15830913e-001
      3.77142131e-002 2.36853044e-002 0. 5.49684525e-001 9.42292437e-003
      7.91413710e-002 7.18396828e-002 1.19890988e-001 2.45580878e-002
      1.29822670e-002 1.01674907e-002 0. 4.58599567e-001 1.65273193e-002
      1.29081756e-001 4.61463705e-002 2.37711426e-002 6.07751012e-002
      3.05075175e-003 4.45865095e-003 0. 2.02028751e-001 1.38867619e-002
      3.41944575e-001 1.50845930e-001 8.35980102e-002 2.44820975e-002
      1.45647787e-002 1.38518661e-002 0. 6.38184965e-001 2.24613938e-002
      8.05846527e-002 2.65388638e-002 2.31360514e-002 6.45956397e-002
      2.28587445e-003 5.82154747e-003 0. 3.55912447e-001 1.86787844e-002
      1.03353620e-001 6.12643287e-002 8.41574222e-002 1.26911983e-001
      7.15937018e-002 8.55882242e-002 0. 8.96683112e-002 4.98134526e-004
      3.43969345e-001 2.38139808e-001 2.20514104e-001 1.26874745e-001
      2.08686352e-001 4.10679817e-001 0. 1.32819712e-001 0.
      8.05782601e-002 1.09874271e-001 1.79897800e-001 1.61245465e-001
      4.23645712e-002 2.65537482e-002 0. 1.32431298e-001 7.97633838e-004
      9.23452750e-002 1.43042997e-001 2.48442888e-001 3.26004952e-001
      9.07019004e-002 1.05080098e-001 0. 1.28478512e-001 0.
      4.15388271e-002 8.98726285e-002 3.78290385e-001 4.35409918e-002
      7.86195323e-002 2.12194815e-001 0. 1.13774322e-001 0.
      1.85269900e-002 1.47192916e-002 4.37321588e-002 3.19206975e-002
      2.27958802e-002 6.79082796e-002 2.16280892e-002 5.21619618e-001
      4.76478748e-002 2.98030674e-002 2.52815299e-002 3.58872339e-002
      1.42309487e-001 3.00116632e-002 7.17964545e-002 0. 1.44147947e-001
      0. 2.86200102e-002 1.79805402e-002 1.42846003e-001 4.74289283e-002
      1.63199697e-002 4.85275239e-002 2.16828659e-002 7.46843457e-001
      5.51345162e-002 3.87911312e-002 3.43683213e-002 5.25287725e-002
      5.31231146e-003 1.01898261e-003 2.99031660e-003 5.07459827e-002
      6.30263150e-001 6.78078160e-002 1.88564379e-002 6.60095736e-003
      6.57183444e-003 0. 0. 0. 2.30663568e-002 1.95001632e-001
      1.56479590e-002 4.05846909e-003 0. 0. 4.13179770e-003
      1.99756236e-003 5.97511604e-003 5.08745015e-002 6.90890431e-001
      7.84620792e-002 1.83294602e-002 8.91032722e-003 5.75118465e-003 0.
      4.58294635e-005 1.42028177e-004 2.31247731e-002 2.48886004e-001
      1.81066338e-002 3.57167562e-003 0. 0. 0. 0. 0. 0. 0. 0. 0. 0. 0.
      0. 0. 0. 0. 0. 0. 0. 0. 0. 0. 0. 0. 0. 0. 0. 0. 0. 0. 0. 0. 0. 0.
      0. 0. 0. 0. 0. 3.60164456e-002 1.04607362e-003 3.13025108e-003 0.
      3.68003594e-003 0. 0. 0. 3.60164456e-002 8.22681859e-002
      2.84661376e-003 8.47363658e-003 0. 7.10188523e-002 0. 0. 0.
      8.22681859e-002 1.37549058e-001 2.79283114e-002 1.08882450e-001
      4.91837226e-002 2.20098883e-001 1.14482101e-002 5.53597230e-003 0.
      1.37549058e-001 6.21938765e-001 4.10754383e-002 1.51896372e-001
      5.60355335e-002 2.25911528e-001 1.47191267e-002 1.39517682e-002
      2.28383834e-003 6.21938765e-001 4.52336892e-002 5.43221040e-003
      1.60984434e-002 0. 4.44588065e-001 0. 0. 0. 4.52336892e-002
      8.52369796e-003 4.11379058e-003 1.21880742e-002 0. 4.49677140e-001
      0. 0. 0. 8.52369796e-003 4.09236491e-001 2.20205765e-002
      6.83970004e-002 4.78726812e-003 3.20772707e-001 1.56554603e-003
      2.48281024e-002 8.04414321e-003 4.09236491e-001 9.39064696e-002
      1.41566228e-002 4.23619933e-002 0. 3.34954858e-001 0.
      1.87219307e-002 6.25655567e-003 9.39064696e-002 4.37911786e-002 0.
      0. 0. 3.82069111e-001 0. 0. 0. 4.37911786e-002 1.80994511e-001 0.
      0. 0. 1.39369220e-001 0. 0. 0. 1.80994511e-001 6.96846098e-002 0.
      0. 0. 3.25226724e-001 0. 0. 0. 6.96846098e-002 2.79120505e-001
      6.30161492e-003 1.88568346e-002 0. 5.58241010e-001 0. 0. 0.
      2.79120505e-001 8.11025724e-002 1.03113679e-002 3.08555420e-002 0.
      1.13320902e-001 0. 0. 0. 8.11025724e-002 3.03636998e-001
      1.32574728e-002 3.96714099e-002 0. 1.05561338e-001 0. 0. 0.
      3.03636998e-001 7.78162107e-002 1.68303680e-002 5.03628738e-002 0.
      5.41169703e-001 0. 0. 0. 7.78162107e-002 2.75644302e-001
      1.98242385e-002 5.93216866e-002 0. 5.35021782e-001 0. 0. 0.
      2.75644302e-001 3.38911414e-001 1.83951284e-003 5.50452340e-003 0.
      6.11922704e-003 0. 0. 0. 3.38911414e-001 3.65056604e-001
      6.66528801e-003 1.96705759e-002 0. 6.10732399e-002 0. 0. 0.
      3.65056604e-001 3.20050806e-001 2.36508786e-003 7.07724411e-003 0.
      4.00782079e-002 0. 0. 0. 3.20050806e-001 3.61224473e-001
      6.70902431e-003 1.97230205e-002 0. 7.24122822e-002 0. 0. 0.
      3.61224473e-001 1.75992504e-001 3.87783386e-002 1.16180450e-001 0.
      3.44013155e-001 0. 0. 0. 1.75992504e-001 2.17321321e-001
      3.91653255e-002 1.17819116e-001 0. 3.51190478e-001 0.
      6.17292011e-003 2.06288695e-003 2.17321321e-001 1.74516678e-001
      3.77371535e-002 1.12593174e-001 0. 4.12222713e-001 0. 0. 0.
      1.74516678e-001 2.03174233e-001 3.77565026e-002 1.13122746e-001 0.
      4.58780736e-001 0. 7.93661177e-003 2.65228306e-003 2.03174233e-001
      1.13769822e-001 2.50630337e-003 7.61296274e-003 0. 7.90938884e-002
      0. 1.78490952e-002 5.96486917e-003 1.13769822e-001 9.71124917e-002
      4.39456888e-002 4.16020341e-002 0. 1.88367978e-001 0.
      1.45756248e-002 1.17933536e-002 9.23419744e-002 1.01764418e-001
      3.02476180e-003 9.13924258e-003 0. 3.24304014e-001 0.
      2.69315094e-002 9.00005922e-003 1.01764418e-001 7.88544416e-002
      5.46410382e-002 6.11184686e-002 0. 8.66447330e-001 0.
      2.63420232e-002 1.77033208e-002 7.36196637e-002 6.66829646e-002
      5.21938913e-002 2.35881191e-002 0. 2.15544418e-001 0.
      1.85918226e-003 1.91929303e-002 6.14472181e-002 8.54620859e-002
      7.35668018e-002 2.84081101e-002 0. 2.80709416e-001 0.
      2.90465797e-003 2.15074327e-002 6.44300058e-002 5.83354533e-002
      5.67431785e-002 3.47237252e-002 0. 5.35259485e-001 0.
      3.74319544e-003 2.51287129e-002 5.40149137e-002 7.69782513e-002
      8.42514932e-002 3.88259292e-002 0. 7.21065640e-001 0.
      2.64345971e-003 2.72877868e-002 5.43789305e-002 9.76504236e-002
      5.75056896e-002 1.45702073e-002 3.10858688e-003 2.48459533e-001
      4.70687337e-002 2.44199708e-002 2.44698245e-002 5.92775345e-002
      1.56357139e-001 5.50738275e-002 2.68249493e-002 3.99675453e-003
      2.44235769e-001 6.05169497e-002 3.46958786e-002 2.73214169e-002
      1.24921359e-001 7.99272805e-002 7.06417039e-002 1.67793948e-002 0.
      5.85336506e-001 6.45499583e-003 1.66601874e-002 3.49998549e-002
      3.67613323e-002 7.77272135e-002 7.97826350e-002 3.35136093e-002 0.
      6.54413581e-001 8.29928089e-003 2.08847132e-002 3.73816825e-002
      3.72344032e-002 1.29550844e-001 5.06815948e-002 3.51522751e-002
      9.45692882e-003 1.51154712e-001 1.94515623e-002 4.04594131e-002
      3.57086807e-002 1.08913399e-001 5.05459271e-002 6.11771867e-002
      4.76039276e-002 1.14599904e-002 3.70685577e-001 1.48559883e-002
      5.29955626e-002 3.85285616e-002 3.64009701e-002 6.38171583e-002
      7.21572563e-002 3.95462178e-002 1.14599904e-002 5.62280834e-001
      9.85591486e-003 2.53168680e-002 3.82609889e-002 3.17014605e-002
      3.93285304e-002 8.00552294e-002 5.22338115e-002 1.47342728e-002
      6.61556780e-001 1.12205828e-002 3.83868255e-002 4.10197377e-002
      1.52144060e-002 3.87742333e-002 8.30907002e-002 6.74927309e-002
      1.99134392e-003 5.02769470e-001 1.92688238e-002 2.55875289e-002
      2.33693924e-002 2.98987310e-002 5.26046976e-002 2.58418508e-002
      4.26042117e-002 0. 3.21057528e-001 2.02957317e-002 2.29873843e-002
      1.85057409e-002 5.37159666e-002 3.98622565e-002 9.81894359e-002
      7.28748366e-002 2.56029912e-003 5.80710232e-001 1.30644962e-002
      1.89526025e-002 3.16589847e-002 2.88586784e-002 5.18472418e-002
      3.63469832e-002 4.75371964e-002 0. 4.94185299e-001 1.42903961e-002
      2.36617327e-002 2.81494986e-002 5.22975065e-002 1.25243396e-001
      2.57130452e-002 7.69432187e-002 0. 3.00422221e-001 5.28137526e-003
      2.96489354e-002 1.88839994e-002 1.32827505e-001 3.09797078e-001
      2.16856413e-002 6.48917109e-002 0. 1.64497077e-001 0.
      2.07278095e-002 1.72046367e-002 3.16267908e-001 5.89692704e-002
      3.25390473e-002 7.31567517e-002 0. 7.40958393e-001 4.10773605e-003
      2.35628169e-002 8.65791738e-003 5.75999245e-002 4.05358113e-002
      1.29769519e-002 3.88462692e-002 0. 2.38210812e-001 0.
      1.53250969e-003 5.12139173e-004 4.05358113e-002 9.65894014e-002
      2.82606878e-003 8.43333639e-003 0. 1.09977506e-001 0.
      2.75335833e-002 2.16746740e-002 9.91456956e-002 4.48007658e-002
      1.05468854e-002 3.20787653e-002 1.60761515e-003 6.93589449e-001
      4.10083309e-002 4.69986461e-002 3.36426646e-002 4.84595560e-002
      3.52945514e-002 3.60968732e-003 1.01258168e-002 0. 1.25605062e-001
      0. 2.56813541e-002 2.31666714e-002 3.82139608e-002 1.12263106e-001
      2.16380116e-002 5.09242229e-002 4.16538399e-003 6.33455813e-001
      1.04589120e-001 7.59632662e-002 4.45416421e-002 1.15014680e-001
      8.35066661e-003 6.59377500e-003 2.01701783e-002 3.43653769e-003
      6.43504977e-001 5.40059470e-002 1.19662136e-002 6.41406653e-003
      8.86191335e-003 7.89920741e-005 4.29188338e-004 1.31416833e-003
      1.56206265e-003 2.23839760e-001 1.29385255e-002 1.25069346e-004 0.
      7.89920741e-005 4.03470472e-002 1.21798953e-002 2.99064759e-002
      5.40065998e-003 6.43504977e-001 1.58217117e-001 2.52413340e-002
      1.06360791e-002 4.02338058e-002 7.89582962e-004 5.92448690e-004
      1.81114441e-003 1.24630623e-003 2.80794114e-001 4.93712611e-002 0.
      0. 7.89582962e-004 0. 0. 0. 0. 0. 0. 0. 0. 0. 0. 0. 0. 0. 0. 0. 0.
      0. 0. 0. 0. 0. 0. 0. 0. 0. 0. 0. 0. 0. 0. 0. 0. 0. 0. 0. 0.
      2.30005249e-001 1.49686690e-002 8.65487754e-002 8.34303498e-002
      2.36400470e-001 3.53033990e-002 1.70715451e-002 0. 2.30005249e-001
      5.15468776e-001 2.26676054e-002 1.10542931e-001 8.50624666e-002
      2.20285743e-001 4.53900844e-002 2.97020487e-002 2.59089540e-003
      5.15468776e-001 1.88050821e-001 5.61343040e-004 2.29792763e-002
      4.31663468e-002 7.04437047e-002 2.74582002e-002 1.32778697e-002 0.
      1.88050821e-001 2.38961160e-001 2.51306710e-003 2.63694394e-002
      3.82289514e-002 7.01197237e-002 3.53033990e-002 1.88606810e-002
      5.97898907e-004 2.38961160e-001 5.75177073e-001 2.51796898e-002
      8.02678615e-002 9.69809294e-003 2.10965544e-001 8.62102397e-003
      5.29321991e-002 1.62958987e-002 5.75177073e-001 1.31501019e-001
      1.67411733e-002 5.00958525e-002 0. 2.39100277e-001 0.
      3.79270613e-002 1.26745887e-002 1.31501019e-001 2.44416848e-001
      1.14040365e-002 3.52227353e-002 2.23802170e-003 7.71183744e-002
      6.70524081e-003 1.44955153e-002 3.76059278e-003 2.44416848e-001
      8.59724656e-002 9.48440842e-003 2.83808671e-002 0. 1.45092443e-001
      0. 8.75239912e-003 2.92490539e-003 8.59724656e-002 5.68726286e-002
      1.03499806e-002 3.09710857e-002 0. 1.39960065e-001 0. 0. 0.
      5.68726286e-002 2.71598130e-001 1.68933906e-002 5.05514629e-002 0.
      1.56215206e-001 0. 0. 0. 2.71598130e-001 7.81076029e-002
      1.68933906e-002 5.05514629e-002 0. 5.52973390e-001 0. 0. 0.
      7.81076029e-002 2.72739291e-001 2.26877965e-002 6.78905398e-002 0.
      5.45478582e-001 0. 0. 0. 2.72739291e-001 2.70826191e-001
      2.40388550e-002 7.19334111e-002 0. 5.41652381e-001 0. 0. 0.
      2.70826191e-001 8.29895809e-002 1.81031190e-002 5.41714355e-002 0.
      5.47210038e-001 0. 0. 0. 8.29895809e-002 2.73605019e-001
      1.81031190e-002 5.41714355e-002 0. 1.65979162e-001 0. 0. 0.
      2.73605019e-001 6.41251281e-002 1.18797766e-002 3.55488211e-002 0.
      1.28250256e-001 0. 0. 0. 6.41251281e-002 1.55713052e-001
      2.03410699e-003 6.08682306e-003 0. 2.39536807e-001 0. 0. 0.
      1.55713052e-001 1.77137986e-001 3.31975450e-003 9.63042676e-003 0.
      4.95582223e-001 0. 0. 0. 1.77137986e-001 5.71998693e-002 0. 0. 0.
      6.63246214e-002 0. 0. 0. 5.71998693e-002 2.29113072e-001
      5.17261354e-003 1.54784312e-002 0. 5.63770592e-001 0. 0. 0.
      2.29113072e-001 1.35078076e-002 2.94977380e-003 8.67553055e-003 0.
      4.45296049e-001 0. 0. 0. 1.35078076e-002 1.55074950e-002
      2.95198243e-003 8.71576555e-003 0. 4.89437908e-001 0.
      1.07739517e-003 3.60047474e-004 1.55074950e-002 1.80681050e-002
      2.57855142e-003 7.71600846e-003 0. 5.12406826e-001 0. 0. 0.
      1.80681050e-002 3.03902454e-003 2.00554007e-003 6.00134069e-003 0.
      5.27798116e-001 0. 0. 0. 3.03902454e-003 3.32272798e-002
      3.07815243e-003 9.21100564e-003 0. 3.33920807e-001 0.
      2.58970484e-002 8.65436159e-003 3.32272798e-002 7.58471414e-002
      2.17057522e-002 5.12070432e-002 0. 8.85389984e-001 0.
      5.00249900e-002 1.82061009e-002 7.52017722e-002 2.78309882e-002
      2.16848659e-003 6.48893788e-003 0. 1.01392701e-001 0.
      1.71568189e-002 5.73352259e-003 2.78309882e-002 8.17040354e-002
      1.09844357e-002 3.28695998e-002 0. 2.00601310e-001 0.
      3.65864038e-002 1.22265518e-002 8.17040354e-002 2.78511010e-002
      1.00581786e-002 2.06198748e-002 0. 3.90722603e-001 0.
      1.45302704e-002 7.65471067e-003 2.77774315e-002 1.25267180e-002
      1.07780090e-002 1.32142445e-002 0. 6.47644281e-001 0.
      3.20135942e-003 4.16495232e-003 1.06749237e-002 2.89706718e-002
      4.43550479e-003 1.32726887e-002 0. 1.61463976e-001 0.
      1.13013219e-002 3.77670443e-003 2.89706718e-002 1.07573001e-002
      2.32182397e-003 6.94775581e-003 0. 6.23553276e-001 0.
      2.31896620e-003 7.74957822e-004 1.07573001e-002 3.26837637e-002
      2.78673284e-002 2.16117455e-003 0. 5.64262092e-001 0.
      5.54889115e-003 2.42788531e-002 8.60608090e-003 8.17572251e-002
      7.92234018e-002 1.94725692e-002 0. 5.29701114e-001 0.
      6.90455548e-003 3.01792901e-002 3.73108089e-002 3.50668877e-002
      1.96674839e-002 0. 0. 5.29125869e-001 0. 3.69036314e-003
      1.81399100e-002 1.67284887e-002 1.04471236e-001 6.08348474e-002
      1.25084762e-002 0. 2.71302938e-001 0. 4.74475278e-003
      2.38954667e-002 7.00184777e-002 7.99310133e-002 7.63540491e-002
      2.90851872e-002 1.88470935e-003 5.89369178e-001 0. 9.07637831e-003
      3.59511450e-002 3.59052122e-002 1.04619026e-001 1.00576423e-001
      2.89349277e-002 2.42319796e-003 6.39272273e-001 0. 1.06316591e-002
      3.88659164e-002 4.93027270e-002 1.06012702e-001 5.78004085e-002
      2.01426148e-002 0. 2.58823335e-001 0. 5.54008735e-003
      3.05290092e-002 7.63764828e-002 1.29431412e-001 7.87625387e-002
      1.90357529e-002 0. 2.70803571e-001 0. 6.06352184e-003
      3.23708504e-002 8.79755542e-002 8.77981335e-002 9.11987126e-002
      4.36735973e-002 4.70677885e-004 6.18946612e-001 0. 2.37164111e-003
      3.48669700e-002 6.81759417e-002 1.19583562e-001 7.82351196e-002
      3.90124917e-002 0. 5.37815750e-001 0. 3.07888119e-003
      3.49115357e-002 1.12998374e-001 1.05624393e-001 7.31437281e-002
      2.87929066e-002 0. 3.25281620e-001 0. 4.20747418e-003
      2.53514703e-002 8.83537158e-002 1.36143014e-001 7.03644529e-002
      2.72109844e-002 0. 2.90379494e-001 0. 3.89533560e-003
      2.51503978e-002 1.28269404e-001 1.29289225e-001 9.66992155e-002
      9.67461094e-002 0. 8.48573089e-001 0. 4.53578075e-003
      1.15949679e-002 1.18063919e-001 7.22559681e-003 5.46743069e-003
      1.64600555e-002 0. 2.79637426e-001 0. 0. 0. 7.22559681e-003
      1.72016948e-001 7.74241537e-002 6.96542710e-002 0. 2.02351063e-001
      0. 1.28044910e-003 8.26727226e-003 1.62426651e-001 4.37277220e-002
      4.17905580e-003 1.25826532e-002 0. 1.30372003e-001 0. 0. 0.
      4.37277220e-002 2.05503441e-002 6.58565946e-003 1.19382348e-002 0.
      1.41605467e-001 0. 2.55533569e-002 1.05489148e-002 2.03711856e-002
      9.04630348e-002 5.42379729e-002 4.06643935e-002 3.37214433e-002
      6.13750160e-001 5.79193719e-002 8.01709443e-002 2.96920314e-002
      8.22124779e-002 1.52589511e-002 4.18366585e-003 4.37877094e-003 0.
      1.42385527e-001 0. 1.94593854e-002 8.72006826e-003 1.51588572e-002
      4.13391739e-002 4.70704772e-002 1.79055557e-002 3.38584892e-002
      7.29091465e-001 1.14013301e-002 5.40091209e-002 2.19968259e-002
      3.36269997e-002 3.35235558e-002 2.33745743e-002 1.59236379e-002
      4.05698419e-002 6.31374836e-001 8.61101598e-002 2.24241037e-002
      7.88254384e-003 2.96926070e-002 8.32769787e-004 2.40348643e-004
      7.24049693e-004 9.36227199e-003 2.69252449e-001 2.92146634e-002 0.
      0. 8.32769787e-004 1.58375427e-002 2.13965010e-002 9.51770507e-003
      4.07347158e-002 6.31374836e-001 1.63365249e-002 1.54515551e-002
      4.76259505e-003 1.21255573e-002 4.88584279e-004 5.82028413e-004
      1.70101132e-003 9.40031931e-003 3.27570200e-001 5.25987661e-003
      8.51174351e-004 0. 4.88584279e-004 0. 0. 0. 0. 0. 0. 0. 0. 0. 0.
      0. 0. 0. 0. 0. 0. 0. 0. 0. 0. 0. 0. 0. 0. 0. 0. 0. 0. 0. 0. 0. 0.
      0. 0. 0. 0. 5.00073768e-002 0. 0. 0. 0. 0. 0. 0. 5.00073768e-002
      5.71627170e-002 0. 0. 0. 3.61078493e-002 0. 0. 0. 5.71627170e-002
