<?xml version="1.0"?>
<opencv_storage>
<opencv_ml_svm>
  <format>3</format>
  <svmType>C_SVC</svmType>
  <kernel>
    <type>LINEAR</type></kernel>
  <C>1.</C>
  <term_criteria><epsilon>1.1920928955078125e-007</epsilon>
    <iterations>1000</iterations></term_criteria>
  <var_count>3780</var_count>
  <class_count>2</class_count>
  <class_labels type_id="opencv-matrix">
    <rows>2</rows>
    <cols>1</cols>
    <dt>i</dt>
    <data>
      0 1</data></class_labels>
  <sv_total>1</sv_total>
  <support_vectors>
    <_>
      -2.51365509e-002 -1.48935504e-002 -1.07478547e-004 7.15992926e-003
      1.91989914e-002 9.79736331e-004 -1.06045064e-002 -2.23316671e-003
      -2.44204793e-002 -1.01693943e-002 -7.20548397e-003
      -1.40236632e-003 4.81543504e-003 2.46610492e-002 1.01978891e-002
      -5.65689197e-003 -1.20977568e-003 -1.53551288e-002
      -2.99737826e-002 -1.38134211e-002 -5.33145294e-003
      -2.63551483e-003 1.00994743e-002 -5.66565152e-003 -1.46170603e-002
      -4.85716714e-003 -2.16663927e-002 -1.37278242e-002
      -4.12544096e-003 -1.44532956e-002 -5.87000931e-003 2.29237098e-002
      1.71562918e-002 -3.02890176e-003 -9.30304173e-004 -1.63690355e-002
      -1.00933034e-002 -9.66328848e-003 -4.84897848e-003
      -1.89303223e-003 5.75314788e-003 1.14176972e-002 6.70350250e-003
      -3.33737466e-003 -1.15651200e-002 -1.17290132e-002
      -1.91284455e-002 -1.04665700e-002 -1.26312599e-002
      -1.00947414e-002 2.56712292e-003 1.07851513e-002 -4.48234234e-004
      -2.64943717e-003 -1.06786992e-002 -6.49155909e-003
      -8.41728505e-003 -8.50346591e-003 1.13927781e-004 6.41704723e-003
      1.43805915e-003 -9.72698152e-004 -7.34810298e-003 -2.24854564e-003
      -4.52299835e-003 -8.18072911e-003 -1.27826445e-002
      -8.77099391e-003 -2.76696729e-003 4.71346453e-003 7.38370232e-003
      7.96439033e-003 -6.99564908e-003 -1.41762681e-002 -8.21970589e-003
      -1.05242627e-002 -1.03412597e-002 -7.99153000e-003 5.09430189e-003
      1.69232604e-003 -1.02866685e-003 -1.44247385e-003 -7.42586795e-003
      5.66296652e-003 5.58220269e-003 -1.58723968e-003 -9.27699846e-004
      3.26892314e-003 7.89104588e-003 2.11259862e-003 3.60832503e-003
      -5.81892254e-003 -9.13903024e-003 -1.40325474e-002
      -7.31911650e-003 -1.23709859e-002 -2.29964009e-003 7.11422693e-003
      8.53566173e-003 -5.04834903e-003 -9.05302260e-003 -5.64754708e-003
      -9.61910095e-003 -9.20232199e-003 -1.17894039e-002 4.49052965e-003
      1.00296810e-002 2.19385698e-003 9.72687360e-003 -4.26185550e-004
      6.56958297e-003 -1.50123262e-004 2.10674084e-003 -3.40233441e-003
      1.84453209e-003 6.64238865e-003 1.04713216e-002 1.04378927e-002
      -2.93024140e-003 2.14739048e-004 -7.99133629e-003 -6.81711128e-003
      -1.02748880e-002 9.38402081e-004 7.96614587e-003 9.79113113e-003
      2.42068688e-003 -4.89077158e-003 -6.42018346e-003 -1.15850456e-002
      -1.20471027e-002 -8.43249261e-003 2.12445646e-003 6.45395089e-003
      5.05389320e-003 5.16882166e-003 -1.30456407e-003 -5.66778472e-003
      -1.35798361e-002 -1.93411373e-002 -1.19419163e-002 6.94331387e-003
      2.20016635e-004 2.80577457e-003 3.58786620e-003 -2.88454513e-003
      1.04682846e-003 -1.05690518e-002 -6.70205057e-003 -5.03281225e-003
      4.30511916e-003 7.86346383e-003 1.15595255e-002 1.70284640e-002
      6.51083468e-003 1.09312907e-002 1.56521361e-004 -6.29888196e-003
      -1.21830059e-002 1.70112133e-003 5.67569863e-003 1.39929187e-002
      5.01932530e-003 5.40574838e-004 -5.44410665e-004 -1.46496901e-002
      -1.55022433e-002 -5.58200851e-003 8.42730422e-003 4.88300994e-003
      4.56890836e-003 1.03844842e-002 8.64968542e-003 9.31993313e-003
      -5.32476138e-003 -9.58013721e-003 -1.94129851e-002
      -3.52229131e-003 1.41857588e-003 1.08775059e-002 1.36071844e-002
      8.56192410e-003 1.17317270e-002 1.21577922e-003 -8.02425668e-003
      -2.15906966e-002 1.44295907e-003 4.52583143e-003 9.94596817e-003
      1.06696608e-002 8.36049393e-003 1.92417167e-002 7.70251872e-003
      -2.20254925e-003 -7.78217893e-003 5.14807506e-003 5.44403912e-003
      6.54046005e-003 4.08048928e-003 8.54509417e-003 8.23547598e-003
      -7.43456883e-003 -1.09365070e-002 -2.70503387e-002
      -5.17281890e-003 5.66168455e-003 8.23780056e-003 -3.45169497e-003
      -4.29660082e-003 7.43627548e-003 6.37052488e-003 -5.60122496e-003
      -2.11148746e-002 -1.87874795e-003 7.15497136e-003 7.62253650e-004
      8.78691580e-003 2.93460762e-004 6.88593742e-003 -1.89816067e-003
      -8.66403338e-003 1.18127977e-003 9.41275526e-003 5.28849103e-003
      8.27753637e-003 1.25128580e-002 4.86969994e-003 8.31939280e-004
      -1.35659091e-002 -3.71718546e-003 5.97477658e-003 1.15863839e-002
      1.16585987e-002 2.10846756e-002 -8.74356180e-003 -9.23841260e-003
      9.20588616e-003 6.63169194e-003 -1.09662004e-002 -9.27441381e-003
      6.23507891e-003 9.09296982e-003 2.52814777e-003 -5.94472513e-003
      -6.19541248e-003 1.21342228e-003 -9.61987302e-003 -3.86691443e-003
      8.85287859e-003 8.65979772e-003 5.36141219e-003 1.74782949e-003
      1.81143787e-002 1.18334554e-002 5.51415281e-003 -9.92424227e-003
      -1.21607352e-002 -1.11050834e-003 4.99603222e-004 -3.51911690e-003
      1.08593358e-002 2.25191340e-002 1.55438641e-002 1.19748320e-002
      7.13671604e-003 -3.08182579e-003 -4.12816647e-003 -1.80714566e-003
      -3.92812816e-003 7.92260468e-003 -4.66540339e-004 -4.31317789e-003
      -6.26802957e-003 -1.14556858e-002 1.28886139e-003 1.39551051e-003
      1.44111470e-003 -3.90128721e-003 -5.44446474e-003 8.19203723e-003
      2.76059331e-003 7.19475676e-004 7.41827302e-003 1.13772890e-002
      -5.61573682e-003 -3.06875585e-003 -8.71822052e-003
      -4.49235504e-003 1.75596401e-002 6.02217158e-003 9.71897878e-003
      5.65772457e-003 -1.14324959e-002 -9.25303530e-003 -5.53001929e-003
      2.08568363e-003 9.15178191e-003 1.39658079e-002 1.30464844e-002
      1.98064782e-002 1.44337583e-002 4.40555206e-003 -5.17934607e-003
      -4.36925702e-003 7.22606573e-003 8.61314032e-003 6.79645315e-003
      -3.04766954e-003 -2.03953986e-003 -1.09197235e-005
      -2.58613401e-003 -2.38910355e-002 -1.38897393e-002
      -9.83936433e-003 -5.00326138e-003 3.98200285e-003 -3.81336635e-004
      1.58650242e-002 3.61352367e-003 8.83355737e-003 -4.76257084e-003
      -8.39578919e-004 3.29257012e-003 1.23575923e-003 1.03598861e-002
      1.18612843e-002 1.12451753e-002 9.08609945e-003 9.66484286e-003
      -5.49028954e-003 -2.69866036e-003 5.66490693e-003 6.05496066e-003
      1.51806315e-002 8.85513332e-003 9.79972165e-003 1.63986383e-003
      -1.07619762e-002 -1.23476097e-002 -1.76385941e-003 1.39336772e-002
      1.24112740e-002 -3.62779392e-004 3.31807998e-003 1.61388889e-002
      4.12174268e-003 4.14166506e-003 -4.79407143e-003 -7.97862958e-005
      -1.03089039e-003 -2.74532847e-003 1.21253552e-002 7.28875911e-003
      1.05358576e-002 -4.79744095e-003 -7.99623504e-003 -1.23079978e-002
      -1.17509824e-003 2.90280348e-003 9.90126189e-003 2.26100106e-002
      1.40823433e-002 1.49838412e-002 1.00247480e-003 -1.00039151e-002
      -9.64729954e-003 -1.13590504e-003 1.67134509e-003 6.10519061e-003
      2.47401129e-002 1.57897398e-002 1.24424696e-002 1.53034749e-002
      3.99161254e-005 -8.43172241e-003 3.61797749e-003 -1.21109386e-003
      7.14574056e-003 1.65714137e-002 6.06253138e-003 8.61232914e-003
      1.53434323e-003 -8.39951914e-003 -1.50947953e-002 -7.27010006e-003
      -2.57068872e-003 5.78810414e-003 1.86226610e-002 1.09508745e-002
      1.32581210e-002 1.32460585e-002 -6.57089893e-003 -7.69834127e-003
      -3.80480895e-003 -7.87198823e-003 7.54367153e-004 1.81867685e-002
      9.94450692e-003 9.88348480e-003 1.39752319e-002 -7.31482590e-003
      -3.87115288e-003 9.26383212e-003 8.01831298e-003 1.20993070e-002
      1.93296541e-002 1.26936790e-002 1.01229511e-002 -2.04343791e-003
      -5.29703544e-003 3.21899517e-003 1.52005740e-002 1.22293681e-002
      2.39880905e-002 9.14061349e-003 1.81055275e-005 1.05843293e-002
      9.07753129e-003 -1.41369207e-002 -1.00712394e-002 -9.29406285e-003
      -8.28520674e-003 -7.80804921e-003 6.43703435e-003 5.72813861e-003
      1.26421126e-002 4.74995794e-003 -3.89736798e-003 4.76486864e-004
      -5.74117713e-003 -4.28439816e-003 1.97902392e-003 1.48929115e-002
      5.51192975e-003 5.32177277e-003 -3.53439152e-003 -5.98498434e-003
      5.95784374e-003 1.66487675e-002 1.21448394e-002 2.21026186e-002
      2.11518276e-002 9.18202940e-003 3.81175801e-003 3.40695516e-003
      -8.59739631e-003 -3.27433780e-004 1.26570920e-002 9.99854412e-003
      1.49335563e-002 4.41808195e-004 4.92637698e-003 1.03296824e-002
      7.64018949e-003 -7.05040107e-003 -3.53058963e-003 -6.06303755e-003
      -9.37554054e-003 5.20995399e-003 7.15826685e-003 6.56788424e-003
      8.71869922e-003 8.97458009e-003 -1.15694385e-002 -6.34902343e-003
      2.11927877e-003 1.94833952e-003 4.91513778e-003 1.59148183e-002
      1.53967021e-002 8.79217125e-003 5.00786304e-003 -1.30818281e-002
      -9.38951969e-003 -1.18358363e-003 7.58379232e-003 8.94140359e-003
      1.37359817e-002 1.11774923e-002 1.07720289e-002 9.33568738e-003
      -4.14895918e-003 8.72865692e-003 3.96088883e-003 7.58601306e-003
      1.12991007e-002 5.24369767e-003 1.08917644e-002 6.73099700e-003
      4.91661113e-003 -2.29467582e-002 -1.86083149e-002 -1.05127459e-002
      -6.73716003e-003 1.53320353e-003 1.82135031e-002 8.08132067e-003
      1.19646750e-002 7.12482492e-003 -2.36685481e-002 -9.64153465e-003
      -1.36077532e-003 6.39886549e-003 2.00528633e-002 1.25190075e-002
      2.70758173e-003 3.51975230e-003 1.36250223e-003 -9.02010687e-003
      1.42600574e-002 1.06694680e-002 5.50456252e-003 7.86092784e-003
      7.85485469e-003 2.66896714e-005 5.67345321e-003 5.16399182e-003
      -2.81498693e-002 8.02219659e-003 1.44150183e-002 1.05474833e-002
      8.97054281e-003 1.39491241e-002 -4.00153501e-003 2.41129310e-003
      -4.26342525e-003 -2.97113545e-002 -9.25481692e-003 4.43133432e-003
      1.12196030e-002 1.65990647e-002 1.04800137e-002 -4.05639689e-003
      1.35687040e-003 1.65023410e-003 -2.85249837e-002 -1.90676446e-003
      1.14009753e-002 1.90059170e-002 9.43894591e-003 -2.06291769e-002
      -1.45206889e-002 -8.24987143e-003 -5.27278287e-003 1.44878486e-002
      -1.95185805e-003 -4.97263018e-003 -1.72083761e-004
      -1.48648191e-002 -1.29061341e-002 -1.47228092e-002
      -1.40103083e-002 -3.13884579e-003 2.42645424e-002 1.55082820e-002
      1.27366502e-002 4.26310161e-003 -1.79090276e-002 -2.04056073e-002
      -1.02957049e-002 -7.08353333e-003 -7.48586794e-003 5.00778947e-003
      -3.77974566e-003 1.14603620e-003 2.83037336e-003 -1.59225762e-002
      -1.73756592e-002 -1.25062559e-002 -9.25144181e-003 1.61591987e-003
      2.26730108e-002 1.35214319e-002 1.03695458e-002 -7.64124270e-004
      -1.12011619e-002 -2.72892416e-003 -5.51196327e-003
      -7.03883870e-003 -3.16950213e-003 4.98470617e-003 3.03621870e-003
      3.30079929e-003 3.02510895e-003 -7.61692459e-003 1.35352556e-002
      8.79889261e-003 -4.99246130e-003 -1.19572785e-002 -1.13829421e-002
      -4.52951854e-003 -4.99073416e-003 9.21763945e-003 1.17533142e-002
      -9.69496742e-003 -4.13904572e-003 -3.17510217e-003
      -3.05977557e-003 1.26440395e-002 -1.67568214e-003 -3.34849290e-004
      -3.83300264e-003 -9.54979938e-003 2.17567710e-003 -2.47840770e-003
      -6.70473184e-003 -1.44886533e-002 -8.81171785e-003
      -1.53106106e-002 -8.80601443e-003 -1.90681044e-003 3.24677490e-003
      1.78939700e-002 5.16614597e-003 -1.51265715e-003 -1.07409591e-002
      -4.55839233e-003 -2.17277161e-003 2.50581000e-003 9.77067370e-003
      2.51159314e-002 4.26357007e-003 -5.38726151e-003 -3.24214902e-003
      -9.30684526e-003 -4.48405091e-003 9.33424144e-006 5.00882603e-003
      1.23798456e-002 1.75248906e-002 -2.30360054e-003 -7.91391544e-003
      -9.96106304e-003 -1.22338906e-002 -1.29555650e-002
      -1.18382229e-002 -6.74879597e-003 4.39016288e-003 6.26400812e-003
      -7.73165887e-003 -2.28467379e-002 -1.96658187e-002
      -1.51688205e-002 -3.48116341e-003 -8.36535729e-003
      -7.62991980e-003 5.15258359e-003 -2.29333714e-003 -4.17186040e-003
      -5.33360383e-003 -2.99749011e-003 -7.39656575e-003
      -4.89343144e-003 7.56041612e-003 5.87636931e-003 1.23036774e-002
      8.77367239e-003 1.14431442e-003 1.65923079e-003 -2.54067034e-003
      8.90018418e-004 -7.51366466e-003 6.36199117e-003 1.24025326e-002
      1.44825280e-002 8.80875532e-003 -1.19777443e-002 -2.12158598e-002
      -2.02536490e-002 -1.50836455e-002 -5.35391923e-003 7.75777560e-004
      3.68035468e-003 3.46183940e-003 -6.20496518e-004 -1.97907053e-002
      -2.64985729e-002 -2.20338050e-002 -1.00522153e-002
      -3.41051025e-004 1.25511577e-002 1.38945868e-002 5.98525768e-003
      -1.73526281e-003 3.98980035e-003 5.75437024e-003 2.90415087e-003
      6.91485591e-003 -5.70318336e-003 -2.80817359e-004 9.12224595e-003
      3.48559278e-003 1.33732357e-003 3.07508931e-003 4.12937626e-003
      8.41508154e-003 1.12484889e-002 -3.21024447e-003 -7.86114670e-003
      4.64427844e-003 -4.19817679e-003 2.98340712e-003 -2.60341316e-002
      -2.05504764e-002 -1.12450309e-002 3.76889156e-003 8.86575319e-003
      1.10271070e-002 1.12395976e-002 3.92557448e-003 -4.93499404e-003
      -1.83188692e-002 -1.79018639e-002 1.79457385e-003 1.43187838e-002
      1.01456242e-002 8.23394023e-003 1.02946656e-002 -7.76774110e-003
      -1.78920347e-002 -5.68934623e-003 -2.80086324e-003 2.49332003e-003
      -2.72029109e-004 -2.02382449e-003 -1.02880960e-002 1.21272728e-003
      6.70988066e-003 -1.67146593e-003 -9.16584022e-003 -5.96026005e-003
      6.11070404e-003 8.96856748e-003 1.29669365e-002 8.44923139e-004
      7.61156529e-003 1.36988703e-002 7.98423600e-004 -1.53759569e-002
      -2.34305244e-002 -2.70407251e-003 8.29697680e-003 1.08720763e-002
      1.04594119e-002 2.87064561e-003 -4.62546805e-003 -1.84573121e-002
      -1.62804257e-002 -1.36405900e-002 2.81629036e-003 1.47384582e-002
      2.78448500e-002 1.43436529e-002 6.98573701e-003 2.99799349e-003
      -1.22332787e-002 -1.22790653e-002 1.08455005e-003 1.69542208e-002
      1.00252163e-002 5.31745516e-003 -3.73466616e-003 3.00637563e-003
      3.97122931e-003 -1.32702000e-003 -1.29424604e-002 -8.34056549e-003
      4.91472008e-003 -3.84430215e-003 8.49493593e-003 8.76284484e-003
      7.95331039e-003 1.20043242e-003 -5.97679010e-003 -1.63166709e-002
      -3.71576077e-003 1.85845513e-002 1.17006050e-002 1.74872559e-002
      3.21305101e-003 -1.09729051e-004 -6.68957829e-003 -1.00907069e-002
      -1.74525995e-002 -1.83832776e-002 1.11281117e-002 6.88924221e-003
      1.49333784e-002 1.38009489e-002 7.89124577e-004 -1.82459727e-002
      -1.81220695e-002 -4.98511922e-003 -4.60691657e-003
      -4.16662870e-003 -6.08971948e-003 1.05727529e-002 5.80493081e-003
      6.13229582e-003 6.52100705e-003 -4.11876012e-003 6.10078592e-003
      2.61962879e-003 8.54295585e-003 1.20482054e-002 2.26012431e-002
      1.84971665e-003 6.62479224e-003 5.34324162e-003 -2.35119509e-003
      -2.00313367e-002 -2.22901385e-002 -1.08724053e-003 3.17016430e-003
      1.09807681e-002 1.09936539e-002 6.54279115e-003 -8.47693626e-003
      -1.84904151e-002 -1.82898790e-002 -1.23901367e-002 2.18131609e-004
      4.46151569e-003 1.24275992e-002 3.50099010e-003 3.64406151e-004
      -8.48821737e-003 -2.07129605e-002 6.76878309e-003 7.57808145e-003
      1.67432632e-002 8.84537864e-003 1.92303490e-002 -9.75200534e-003
      -4.27531125e-003 -2.55600642e-003 -7.47203594e-003 1.23464465e-002
      1.22859478e-002 2.69198287e-002 1.44796185e-002 1.72432363e-002
      -6.77694392e-004 1.40997139e-003 -2.37819762e-003 2.89295241e-003
      -2.13347506e-002 -2.61314632e-003 1.49142276e-002 -3.98499053e-003
      7.28758099e-003 -1.02833705e-002 -1.49959922e-002 -1.69109870e-002
      -2.66207382e-002 -7.30169239e-003 7.10672792e-003 2.51447000e-002
      6.67985156e-003 5.31095592e-003 -1.96490972e-003 -9.02363844e-003
      -1.52453315e-002 -1.44468416e-002 7.21286284e-003 7.29478197e-003
      1.69445984e-002 4.42967890e-003 5.03752846e-003 -4.49678162e-003
      -3.41112004e-003 -2.49714428e-003 5.88452490e-003 1.10118911e-002
      7.24070985e-003 1.48896445e-002 6.74285693e-004 -7.76007146e-005
      -1.44944200e-003 -1.92528905e-003 9.90836695e-003 2.11847462e-002
      -1.24346530e-002 -1.65364728e-003 7.70959491e-003 -1.31199253e-003
      -2.51015695e-003 -2.08244775e-004 -5.64833172e-003
      -1.28211249e-002 -1.87090263e-002 -1.25224087e-002
      -2.23338627e-003 9.48986318e-003 4.91975632e-004 3.09665245e-003
      2.50485074e-003 -4.28296346e-003 3.96562601e-003 -6.85266498e-003
      1.18597001e-002 3.89181264e-003 1.35592036e-002 7.08278315e-003
      -8.40000156e-003 -1.56018557e-003 -7.17463577e-003 6.68336079e-003
      1.72688365e-002 9.92501061e-003 6.13928353e-003 1.89948287e-002
      1.42367035e-002 -9.22721066e-003 -3.44736874e-003 -2.89978459e-003
      -3.95297306e-003 1.16590681e-002 -1.46894716e-002 -6.06720429e-003
      1.55560197e-002 6.38768310e-003 -2.12937873e-003 -2.65461323e-003
      -4.58713062e-003 1.78635633e-003 -5.80064999e-003 -1.33439852e-002
      3.70313210e-004 1.55906063e-002 2.35938071e-003 -8.95931106e-003
      7.95668049e-004 7.15328753e-003 -2.52535404e-003 -1.23820864e-002
      8.67463648e-003 5.67409582e-003 1.21530145e-002 1.06039252e-002
      -3.22608394e-003 4.03092708e-003 6.97377650e-003 9.89953871e-004
      7.34882848e-003 9.56832618e-003 3.82553932e-004 2.14123074e-003
      6.05425658e-003 3.63219599e-003 1.04989763e-002 3.66711011e-003
      -1.46940828e-003 1.12774055e-002 -1.34097785e-002 5.65483794e-003
      6.43728720e-003 9.08796676e-004 -1.12643791e-003 1.29527505e-002
      1.23671005e-002 2.55833892e-003 -9.95781738e-003 -1.22784066e-003
      6.86015119e-004 -5.12767630e-003 -6.47103926e-003 -3.92434327e-003
      2.13804212e-003 9.69063304e-003 -6.14120625e-003 -7.38733495e-003
      8.93520005e-003 3.01020220e-003 1.12280576e-002 1.49293458e-002
      -2.51955120e-004 1.16647910e-002 8.97257030e-003 -2.35487893e-003
      1.10673876e-002 1.40634337e-002 1.05593055e-002 1.90264266e-002
      1.48420827e-002 -8.18994269e-003 2.37826630e-003 7.08305929e-003
      1.19553264e-002 1.75544433e-002 -1.44537911e-003 -5.35484869e-003
      -4.95140813e-003 -4.76090144e-003 -1.06647126e-002
      -6.39453297e-004 1.03229368e-002 -3.13628884e-003 -2.12655915e-003
      -5.36234537e-003 -6.26141112e-003 1.57031661e-003 5.61978202e-004
      -2.31871549e-002 -5.33081125e-003 -3.49774421e-003 6.26317109e-004
      -3.90859181e-003 1.01548266e-002 9.95063502e-003 1.69546772e-002
      1.52768288e-002 -9.14489571e-003 -1.08689545e-002 -6.99241087e-003
      1.39016355e-003 1.31965084e-002 2.17094477e-002 1.33601073e-002
      2.08099913e-002 1.61794536e-002 4.02181596e-003 1.08221616e-003
      1.63127214e-003 1.18938508e-002 2.19184775e-002 -1.23836519e-002
      -9.49796662e-003 -1.02838781e-003 -8.57055560e-003
      -1.16585344e-002 -1.73487402e-002 -2.08713301e-002
      -5.48091158e-003 -7.53680989e-003 -9.03418812e-004
      -4.13692906e-004 1.28041860e-002 9.13659096e-005 4.52147285e-003
      -3.98987439e-003 -8.75920709e-003 1.85406231e-003 -3.20692267e-003
      1.16690770e-002 2.36495771e-003 5.18030347e-003 -4.87669231e-003
      -1.72335990e-002 -1.19196977e-002 1.54677473e-004 1.44959493e-002
      1.96988694e-002 1.00901686e-002 2.87330849e-003 5.80230029e-003
      6.08255155e-003 -8.03636666e-003 1.83164421e-003 7.85645097e-003
      1.89808961e-002 1.13116261e-002 -4.67800070e-003 -7.00049661e-003
      2.91517610e-003 -5.23626758e-003 -8.80916789e-003 -1.50801111e-002
      -4.98507870e-003 3.97254247e-003 -6.66639348e-003 -1.98711315e-003
      -1.10192318e-003 1.95250206e-003 8.97736382e-003 -1.32521233e-002
      5.87071467e-004 2.81884708e-003 7.25172926e-003 -3.23315756e-003
      -2.73510627e-002 -6.80238195e-003 -4.32998594e-003
      -3.75486468e-003 5.12237241e-003 2.87698722e-003 1.73592777e-003
      -4.67522215e-004 -1.83463432e-002 -2.00244933e-002
      -3.69592151e-003 1.53592264e-003 7.55171105e-003 1.91370621e-002
      1.81103721e-002 6.73396280e-003 -1.42832310e-003 -6.36785664e-003
      -1.54745970e-002 -1.13474606e-002 -3.67066218e-003 3.08313780e-003
      6.10729260e-003 -6.60097878e-003 -2.49913987e-003 -1.04998304e-002
      -1.78349577e-002 -2.19294745e-002 -1.64990630e-002 5.36522549e-003
      1.13112200e-002 6.24987297e-003 1.13799619e-002 6.02748664e-003
      -1.01039493e-002 -1.45179406e-002 -5.93298953e-003 7.21773773e-004
      7.33254896e-003 4.39285999e-003 1.29821524e-002 1.17234569e-002
      8.24769121e-003 4.69585741e-003 4.40754491e-004 2.81164865e-003
      1.24339364e-004 1.46529870e-003 -1.09818941e-002 -8.22389964e-003
      -6.11348730e-003 1.21134578e-003 1.40214909e-003 7.08654989e-003
      -1.00801289e-002 -9.41004511e-003 1.35886006e-003 7.29357684e-003
      8.91448651e-003 7.53264735e-003 3.48033896e-003 -4.26152395e-003
      -4.88090189e-003 -8.77857860e-003 -1.36176972e-002
      -1.24136275e-002 -6.81419577e-003 -9.23757814e-003
      -1.42058888e-002 -7.26030953e-003 -7.91929942e-003
      -9.82279610e-003 6.78960641e-004 -4.17324528e-003 -1.99351832e-003
      -5.47967246e-003 -4.86845337e-003 -4.21145651e-003
      -1.36282493e-003 8.08542129e-003 1.19441319e-002 -2.28275778e-003
      -1.60781462e-002 -1.53511446e-002 -2.66147871e-003 4.41527134e-003
      3.28817987e-003 1.73178304e-003 9.76739451e-003 5.57243219e-003
      -5.97542012e-003 -1.05803227e-002 -1.22977085e-002
      -5.24058007e-003 -1.06279571e-002 -1.20920008e-002
      -8.85408185e-003 1.97175448e-003 -8.07523634e-003 -1.84222547e-004
      -8.13434180e-003 -1.52837485e-002 -1.39606576e-002
      -1.61838830e-002 -9.92454868e-003 -6.11294340e-003
      -1.36227885e-004 -1.83613296e-003 -1.38484189e-004
      -1.16400309e-002 -1.89616848e-002 -6.96016848e-003 1.54194131e-003
      5.82403410e-003 6.99308841e-003 9.30187851e-003 1.07557429e-002
      -1.04221413e-002 -2.56390851e-002 -1.82250105e-002
      -8.42926279e-003 4.97706141e-003 1.69618726e-002 1.83124449e-002
      1.13101946e-002 1.06006563e-002 7.22620776e-003 -1.20662032e-002
      -1.82290282e-002 -1.06751686e-002 -7.93259777e-003
      -5.94330020e-003 2.62539925e-005 -6.30322611e-004 1.03717465e-002
      -1.43970468e-003 -1.80476513e-002 -1.81978215e-002
      -1.18435109e-002 -4.26882599e-003 3.58073530e-003 1.01641957e-002
      3.60988546e-004 6.53238688e-003 -2.02668495e-002 -2.99826153e-002
      -1.71319451e-002 -3.03380354e-003 1.28744384e-002 8.79235845e-003
      1.71238761e-002 1.05016613e-002 5.87882008e-003 -1.54985320e-002
      -2.13882122e-002 -1.01416263e-004 6.58523152e-003 1.90506075e-002
      1.76825561e-002 1.78552773e-002 6.97567966e-003 -2.42605689e-003
      -6.34155795e-003 -2.13832296e-002 -1.38450814e-002 1.72980106e-003
      -3.66322376e-004 -8.07971344e-004 1.05619477e-002 -1.41034764e-003
      -6.41895784e-003 -5.81695279e-003 -7.85771757e-003 4.21389006e-003
      1.09526943e-002 1.60471387e-002 1.85511820e-002 9.28190351e-003
      6.49134954e-003 -3.57354898e-003 -2.28419211e-002 -3.17055061e-002
      -8.58705211e-003 -2.39332105e-004 8.21239036e-003 1.41300941e-002
      4.53221845e-003 -3.76630225e-003 -1.17985122e-002 -1.94662269e-002
      -1.64537299e-002 4.20153607e-003 1.50965368e-002 2.59707216e-002
      1.72254238e-002 2.72770179e-003 -2.86086532e-003 -1.15121212e-002
      -9.26917605e-003 -1.58225261e-002 -2.70983716e-003 7.02108780e-004
      1.99772753e-002 1.49729680e-002 -1.90819337e-004 -9.48466710e-004
      -1.13474447e-002 -2.72338954e-003 -1.27996914e-002 1.12647191e-002
      1.53785469e-002 2.42664404e-002 2.04554424e-002 5.75186685e-003
      -1.39387429e-003 -1.25571864e-003 -1.62998680e-002 5.14822255e-004
      1.77136473e-002 1.54656842e-002 1.93665382e-002 5.23426477e-003
      -5.81263751e-003 -1.18477959e-002 -9.41331685e-003
      -2.23760456e-002 -9.25370492e-003 7.77896633e-003 9.75123793e-003
      4.81747743e-003 -4.10407316e-003 -1.37561895e-002 -2.33053006e-002
      -1.87991820e-002 -1.70957309e-003 7.38763902e-003 1.94792673e-002
      1.76813938e-002 1.95710957e-002 7.91077688e-003 -2.61231471e-004
      -1.88612833e-003 -2.67481967e-003 -5.14110457e-003 9.19900741e-003
      1.00551611e-002 1.54437143e-002 1.31556122e-002 -3.22544575e-003
      -1.44701293e-002 -7.81492237e-003 -4.45177127e-003
      -1.93964653e-002 -1.82660948e-002 2.07237690e-003 9.99707822e-003
      1.69592798e-002 8.10781121e-003 -4.00762772e-003 -1.03270207e-002
      -2.03123167e-002 -2.24917810e-002 -1.23238266e-002 2.80124310e-004
      4.95783985e-003 1.93600878e-002 6.50068279e-003 -1.62366498e-003
      -1.17443902e-002 -1.74571555e-002 1.89865904e-003 1.09513768e-003
      6.97673112e-003 1.20206634e-002 1.44934682e-002 2.72174901e-003
      -7.04544503e-003 -1.33130909e-003 3.18593439e-003 -1.00403344e-002
      -6.28484180e-003 4.43771156e-003 7.83115253e-003 1.62194744e-002
      5.62225841e-003 -5.89471485e-004 -1.94604939e-003 -4.87755565e-003
      -2.28362475e-002 -8.64535104e-003 1.12924250e-002 5.05659264e-003
      1.68659203e-002 6.04293821e-003 -9.64397623e-004 -8.78859218e-003
      -1.98196825e-002 -9.73873213e-003 6.26588147e-003 1.57527905e-002
      1.63079724e-002 1.73685048e-002 1.19787538e-002 6.30576070e-003
      -4.70808055e-003 -1.94238257e-002 -2.06241719e-002
      -4.51665092e-003 1.10767521e-002 8.35482404e-003 2.00810023e-002
      6.86619384e-003 -3.45348753e-003 -3.10699921e-003 -1.29660545e-002
      -1.56825222e-002 4.04809276e-003 1.25163915e-002 1.33826155e-002
      1.92653239e-002 1.43794306e-002 3.96356161e-004 6.08728686e-003
      -1.61597766e-002 -1.16689149e-002 6.83393155e-004 8.50953162e-003
      7.15193665e-003 9.85831209e-003 8.05878546e-003 2.38647498e-003
      -7.25725200e-003 -2.22226102e-002 -1.78599022e-002
      -1.50904956e-003 1.14058321e-002 6.94777770e-003 2.00304724e-002
      8.77553783e-003 -5.72829554e-003 -8.43578205e-003 -1.58351697e-002
      -1.83388907e-002 -6.39624940e-003 9.20629222e-003 9.10786353e-003
      1.03199659e-002 9.67530720e-003 2.88121914e-003 1.51300267e-003
      -2.18476504e-002 -1.56248314e-002 -5.91227273e-003 1.50483176e-002
      2.13212371e-002 2.28290558e-002 1.36645241e-002 1.90669496e-004
      -6.34073513e-003 -1.60026159e-002 -1.62895676e-002
      -5.08780312e-003 1.43187027e-002 1.55268591e-002 2.28061359e-002
      8.55105370e-003 -1.65999169e-003 -4.84066922e-003 -1.58251468e-002
      -1.21906176e-002 -9.11934394e-003 9.47338715e-003 8.40929709e-003
      1.10397544e-002 2.02565361e-002 1.43003147e-002 3.09755257e-003
      -1.19209411e-002 -1.73003394e-002 -1.13946721e-002 9.51189455e-003
      2.01402269e-002 2.16504689e-002 1.22261522e-002 -3.98950465e-003
      -1.19899120e-002 -1.49208382e-002 -1.09518981e-002
      -2.10062210e-002 5.94724482e-003 1.17594944e-002 1.06221046e-002
      1.09094614e-002 -4.96379938e-003 -2.06684973e-002 -1.81507133e-002
      -9.68078058e-003 -2.34768796e-003 9.81411431e-003 6.46680361e-003
      9.41139273e-003 2.33500581e-002 1.49486577e-002 9.63953265e-004
      -1.22540928e-002 -6.84985984e-003 3.96609586e-003 9.53745469e-003
      7.90833219e-005 3.31892422e-003 1.59700271e-002 1.90209243e-002
      4.18193929e-004 -1.44482451e-002 -1.54105285e-002 -9.44634899e-003
      1.29944105e-002 1.01508768e-002 1.11931916e-002 1.66050475e-002
      -2.11052387e-003 -1.82624105e-002 -1.96251702e-002
      -9.89600364e-003 -3.93029681e-004 1.34857688e-002 8.99952184e-003
      7.20201246e-003 2.10903566e-002 1.44371400e-002 -1.18364422e-002
      -1.16346991e-002 -1.18296826e-002 -6.93189260e-003
      -1.65423728e-004 1.66156073e-003 4.58398688e-004 8.99208989e-003
      1.34807471e-002 2.15535911e-004 -1.33140041e-002 -1.38970111e-002
      -7.71900686e-003 -5.52686676e-003 1.02367811e-003 -2.56505708e-004
      1.28093769e-003 1.87002646e-003 2.43168836e-003 -1.01065682e-002
      -4.43711085e-003 3.23180784e-003 1.34531381e-002 2.05942262e-002
      1.13432072e-002 1.20482305e-002 1.26662431e-002 -4.71795909e-003
      -1.51901832e-002 -1.06511423e-002 -2.88362848e-003 7.49984197e-003
      1.38872899e-002 8.73711705e-003 -1.14639173e-003 -5.15687792e-003
      -3.42236995e-003 -1.49281761e-002 -7.02819973e-003
      -4.04166011e-003 -4.83119814e-003 -2.58885929e-003 2.23011128e-003
      1.78867299e-003 -5.54088224e-003 8.10970925e-003 -7.87031488e-004
      3.55778122e-003 3.40549997e-003 1.58144906e-002 7.61370733e-003
      1.35558760e-002 6.31306553e-003 4.80477419e-003 1.17597478e-002
      1.23277749e-003 -1.07365055e-002 -3.08712455e-003 -2.60554953e-003
      5.14234125e-004 -1.14300638e-003 -4.48312424e-003 -1.30162872e-002
      7.24529615e-004 -7.82918744e-003 -3.59021686e-003 -1.79916236e-003
      1.29935369e-002 9.81598347e-003 1.21208758e-003 -6.28109602e-003
      -2.55581411e-003 4.50179214e-003 3.83090740e-003 -5.37703803e-004
      -6.48080418e-003 3.87747819e-003 3.58894537e-003 -6.57114061e-003
      -5.80225978e-003 4.64670639e-003 9.74923314e-004 -7.02303369e-003
      1.33349304e-003 9.06427158e-004 8.35154578e-003 1.79914869e-002
      5.54599008e-003 2.00931337e-002 1.05183218e-002 -2.55632238e-003
      2.84095202e-003 -7.01380242e-003 -5.96824614e-003 -1.85804139e-003
      -6.30380912e-003 -1.75007861e-002 -1.63512528e-002
      -7.50647020e-003 -1.06383031e-002 -8.40354618e-003 1.07296919e-002
      5.23093389e-003 3.36343353e-003 2.52770889e-003 -4.66273353e-003
      1.29687395e-002 9.50262602e-003 -7.33828824e-003 4.58729127e-003
      -2.07386445e-002 -1.42914960e-002 -1.28002362e-002 3.77882738e-003
      1.37916859e-002 -5.70107810e-003 5.28454693e-005 -4.60610213e-003
      -1.26257269e-002 -1.19657163e-002 -1.45353153e-002
      -1.55531277e-003 6.90572895e-003 7.33963680e-003 5.55662392e-003
      1.11337928e-002 -3.29493755e-003 -4.36519226e-003 -2.24963818e-002
      -1.42539097e-002 -5.04243188e-003 1.31172279e-003 1.09732309e-002
      1.55288202e-003 2.46215932e-004 -3.51476041e-003 -1.30794635e-002
      -6.03686413e-003 -1.61850229e-002 -7.64551805e-003
      -7.77678750e-003 5.26717817e-003 -4.97746048e-003 6.41636876e-003
      7.14483380e-004 3.70865664e-003 3.39170336e-004 -3.71573633e-003
      8.15406325e-004 1.65260350e-003 -8.16012442e-004 3.31616821e-003
      9.88772791e-003 1.33191806e-003 3.23339342e-003 -7.59960664e-003
      -7.54807424e-003 -1.26153724e-002 -7.38984207e-003
      -6.02724170e-003 -6.13492075e-003 -1.44014950e-003
      -9.14012641e-003 -6.13617059e-003 1.14907036e-002 -4.36143513e-004
      -1.13205472e-002 -1.30554503e-002 -8.75382870e-003
      -2.70187855e-003 1.11757517e-002 8.95709544e-003 1.68939289e-002
      -3.75658576e-003 -9.27975588e-003 -1.67323370e-002
      -1.76366214e-002 -1.10529047e-002 -9.13257245e-003
      -1.04693538e-002 -1.19171627e-002 -1.13976409e-003 6.35779870e-004
      -3.08077200e-003 -7.82749616e-003 -6.73656771e-003 3.32056684e-003
      -2.01991037e-003 -9.65846819e-004 1.29345269e-003 -4.70058434e-003
      2.63880682e-003 6.93298702e-004 -8.87843408e-003 -7.75523717e-003
      -8.72569438e-003 -1.65598781e-003 -1.67490961e-003 8.69486132e-004
      -2.16648095e-006 -1.94547197e-003 -1.35433068e-002
      -9.75648034e-003 -1.51515612e-002 1.09832617e-004 1.51700049e-003
      -7.51590077e-003 -9.34795570e-003 -3.54442513e-003
      -6.43382734e-003 -1.96100678e-002 -1.61668826e-002
      -1.30455252e-002 1.64162600e-003 5.40559599e-003 -9.09076887e-004
      -1.03189088e-002 -1.14650838e-002 1.09450109e-002 -1.00839813e-003
      -8.73655919e-003 -1.10684671e-002 -1.17713735e-002
      -2.39523523e-003 3.02837836e-003 2.72367150e-003 7.43327057e-003
      6.75669778e-003 -1.29543161e-002 -1.15381004e-002 -5.66846179e-003
      -6.54950598e-003 3.59375286e-003 7.80621450e-003 6.99715549e-003
      1.00089833e-002 -7.08008697e-003 -1.44765135e-002 -1.21768508e-002
      -1.66733637e-002 -1.08518009e-003 2.13864353e-003 -6.28794916e-003
      -9.35218669e-003 -1.45012178e-002 7.20159058e-003 -5.82317868e-003
      -3.34389205e-003 -5.19771222e-003 1.73245056e-003 4.37312853e-003
      -2.09767115e-003 2.20100605e-003 5.99428359e-003 -2.02102470e-003
      -1.56764314e-002 -9.11049545e-003 -5.10588335e-003
      -1.25258677e-002 -8.22664890e-003 -4.20673197e-004
      -6.70362171e-003 -1.50717050e-002 -4.37455904e-003
      -1.00239087e-003 9.07393545e-003 7.58114830e-003 4.35564015e-003
      1.08018154e-002 6.54415088e-003 3.99270607e-003 -1.25521813e-002
      -8.67430819e-004 -3.13296146e-003 -4.42973478e-003
      -7.31352542e-004 -2.97310017e-003 -4.28818353e-003
      -9.93659440e-003 -5.95006905e-003 -1.01989729e-003
      -3.09562869e-003 1.33311108e-003 1.15856063e-002 1.84731372e-002
      1.46672213e-002 1.13597522e-002 1.25511950e-002 4.66057425e-003
      1.79742370e-003 -1.69341918e-002 -1.15600722e-002 -4.28344728e-003
      -2.88300071e-004 1.40233254e-002 8.45062174e-003 -2.07171240e-003
      -1.13265002e-002 -3.24099287e-002 -9.20054875e-003
      -4.78347624e-003 9.69443098e-003 1.48920631e-002 2.43560132e-002
      9.45661590e-003 3.59429396e-003 -7.49532972e-003 -8.29041842e-003
      -1.43956663e-002 -1.00568561e-002 1.29519310e-003 1.67374257e-002
      2.07755808e-002 1.63092352e-002 5.66163613e-003 -6.71410374e-003
      -1.55865271e-002 -9.71417688e-003 -6.67513523e-005 5.51973889e-003
      1.65962894e-002 2.72874217e-002 1.98277142e-002 1.19602568e-002
      -3.90315196e-003 -1.29189491e-002 -9.80412215e-003
      -5.38848690e-004 1.30989570e-002 1.11363176e-002 1.33639295e-002
      3.54973529e-003 5.83706331e-003 5.01975708e-004 -5.25735039e-003
      -5.40022133e-003 1.00334575e-002 8.66737496e-003 3.27058625e-003
      -1.01913204e-002 -1.28287356e-002 -1.18201850e-002
      -4.32750303e-003 -3.60849639e-003 -1.14643024e-002
      -4.99881105e-003 3.43891652e-003 3.25239729e-003 1.88298859e-002
      1.38699031e-002 1.55450935e-002 5.06452378e-003 -8.32764711e-003
      -6.36792742e-003 2.88290624e-003 2.48352042e-003 -1.17238052e-002
      1.33468281e-003 -5.20593766e-003 7.48304510e-003 7.16248807e-003
      -1.61458971e-003 7.34567689e-003 6.54291268e-003 1.13013452e-002
      4.28790413e-003 -2.10395898e-003 -6.86197402e-003 -9.33178794e-003
      2.86455709e-003 1.09382793e-002 4.32159565e-003 -2.12816452e-003
      3.11138434e-003 1.52042613e-003 -2.92497408e-003 -4.84653236e-003
      -1.80747325e-003 6.86059194e-003 5.95738040e-003 6.03750860e-003
      8.13256763e-003 1.03103975e-002 -9.53641627e-003 -1.71976304e-003
      -4.21730662e-003 3.54786729e-003 7.19862059e-003 8.23230390e-003
      8.07815883e-003 4.88123111e-003 9.33901523e-004 -1.95470289e-004
      -2.05960567e-003 -2.87962076e-003 -5.15116553e-004
      -9.65666084e-004 8.58658180e-003 -1.21658575e-002 -8.44916329e-003
      6.70346082e-004 3.95152345e-003 9.28437803e-003 3.67106963e-003
      -8.67426954e-003 5.68892923e-004 -6.02239603e-003 -1.82524305e-002
      -1.22710494e-002 5.76684158e-003 4.29848675e-003 1.33316079e-002
      1.58469900e-002 4.29843366e-003 3.30520677e-003 -1.26196332e-002
      3.71636194e-003 -4.14414704e-003 -4.27836506e-003 -1.16139487e-003
      9.30583384e-003 -1.63820907e-004 -4.93283430e-003 -4.32627043e-003
      2.00962299e-003 -3.63760599e-004 -7.70364841e-003 3.51229007e-003
      2.70175136e-004 1.68992411e-002 1.40015483e-002 1.33124972e-002
      -1.08074036e-003 5.82755194e-004 -1.71453096e-002 -1.16117978e-002
      4.78206389e-003 8.70142225e-003 1.61018092e-002 1.33791408e-002
      1.34325018e-002 3.23709589e-003 -1.19854007e-002 -1.29689602e-002
      -1.14354258e-002 2.30032601e-003 1.79584753e-002 2.26243883e-002
      1.23117948e-002 1.27234543e-002 2.33784274e-004 -1.15549248e-002
      -2.09755301e-002 -1.35051822e-002 4.10779146e-003 5.43817552e-003
      2.33179349e-002 1.19942930e-002 1.66890714e-002 3.19046201e-004
      -1.41797476e-002 -2.70424280e-002 -2.16195378e-002
      -8.65765475e-003 9.15611803e-004 1.74219050e-002 8.74752644e-003
      7.13411602e-004 1.54104456e-003 -1.40134990e-002 -1.58971585e-002
      -9.65377130e-003 1.05614541e-003 1.44542176e-002 2.23046858e-002
      9.37045459e-003 4.52637114e-003 -5.88484714e-003 -1.32982656e-002
      -6.36778958e-003 -7.27115292e-003 4.89024771e-003 1.64833087e-002
      1.58740506e-002 6.69680769e-003 -4.02656011e-003 -8.79187975e-003
      -1.06654800e-002 -2.27845833e-002 -1.61570050e-002
      -8.56381375e-003 8.53472156e-004 2.02876963e-002 8.05129204e-003
      -1.27680181e-003 1.31455611e-003 -8.49138759e-003 -1.04362564e-002
      -1.47926956e-002 3.64578189e-003 1.43223535e-002 2.50602867e-002
      6.39342377e-003 -1.92555832e-003 -4.58099227e-003 -4.33954736e-003
      -4.11910098e-003 -1.65748515e-003 1.28027108e-002 1.34645347e-002
      1.99887455e-002 5.47951506e-003 -5.17299119e-003 -1.21193649e-002
      -1.06183924e-002 1.95036840e-003 9.93746892e-003 1.26696108e-002
      1.86699182e-002 1.84846576e-002 9.98933427e-003 2.55360431e-003
      -1.45296277e-002 -6.79401774e-003 -7.30470289e-003
      -8.91785789e-003 1.04066189e-002 1.51707092e-002 2.40000524e-002
      -1.13568769e-003 -1.05016371e-002 -1.14823040e-002
      -7.26653030e-003 -4.89577558e-003 -7.06508942e-003 1.22192698e-002
      1.62648037e-002 2.19752751e-002 -6.46647066e-003 -1.70158651e-002
      -1.26776854e-002 -6.60380954e-003 1.79193006e-003 5.56241814e-003
      1.10859256e-002 1.40913315e-002 7.78565742e-003 8.82443506e-004
      3.75429331e-003 -5.75247919e-003 -1.21450117e-002 -5.07248938e-003
      -5.46045089e-003 4.40064631e-003 6.81018550e-003 -1.28637149e-003
      -1.33429666e-003 -6.50826783e-004 -7.60749332e-004
      -8.00220389e-003 5.74854668e-004 -3.74282966e-003 2.19321926e-003
      1.05372034e-002 5.34491241e-003 -1.53554406e-003 -7.25755701e-003
      -3.75736319e-003 -4.97939019e-003 2.25037569e-003 -1.06488597e-002
      -6.69484166e-003 -2.97314464e-003 -5.00012049e-003 4.55698743e-003
      5.71382744e-003 -2.02062191e-003 -3.11501534e-003 -5.46466699e-003
      -7.64473109e-004 2.21272651e-003 2.72298371e-003 -9.08358768e-003
      -8.78152903e-003 -4.31291014e-003 8.42649722e-004 1.31953228e-003
      1.81731384e-003 4.76591196e-003 1.26789231e-002 2.45942222e-003
      -1.71705019e-002 -8.78834631e-003 -2.64371233e-003 6.37420744e-004
      8.81686434e-003 2.01675342e-003 -1.52519660e-003 -2.48985062e-003
      3.84118874e-003 -7.60521134e-003 -7.37065263e-003 -1.92853832e-003
      -4.78806766e-003 3.99351958e-003 8.12756177e-003 6.18277583e-003
      4.83177183e-003 3.81128769e-003 -1.75524633e-002 -1.29281534e-002
      9.13786585e-004 4.06570081e-003 1.19367931e-002 -1.72735902e-003
      1.62415417e-005 4.95989388e-003 -1.12315072e-002 -3.07038072e-002
      -1.42364344e-002 -7.39851594e-003 -5.96202817e-003
      -4.29221988e-003 1.52927060e-002 8.94627534e-003 8.18245858e-003
      7.70047633e-003 -2.21690815e-003 1.34537397e-002 9.24617425e-003
      4.31924919e-003 8.12102016e-003 5.61007205e-003 -9.73764807e-004
      9.49569861e-004 -1.19437780e-002 -3.62237804e-002 -1.87656339e-002
      -6.94007054e-003 3.55642149e-003 6.18273765e-003 1.42168533e-002
      9.53147840e-003 1.71302035e-002 1.57977585e-002 -8.16528965e-003
      9.34781134e-003 4.13717190e-003 1.23449154e-002 1.06493030e-002
      -1.71214025e-002 -1.13037182e-002 1.27792321e-002 8.28324258e-003
      1.41042620e-002 1.10562309e-003 -2.30438588e-003 -6.62283646e-003
      -1.95505824e-002 -1.24504203e-002 -1.05136679e-002
      -2.50077993e-003 -5.96601050e-003 4.57244832e-003 -9.52633843e-003
      -1.66155311e-004 1.65701704e-003 -5.80774806e-003 -1.06091592e-002
      -3.18195525e-004 1.16475644e-002 1.41664026e-002 1.39689278e-002
      5.48603805e-003 3.57392523e-003 -1.50422668e-002 -2.44467556e-002
      -5.39771374e-003 4.17853473e-003 6.33721612e-003 3.25785694e-003
      1.31237437e-003 -7.62206642e-003 6.18067989e-003 -2.69372389e-003
      -1.80734973e-002 8.82651377e-003 3.43496981e-003 -8.75279587e-003
      -5.90457814e-003 1.35411182e-003 -4.77313250e-003 4.40681772e-003
      8.01767502e-003 1.47714447e-002 -2.54351398e-005 -7.38148857e-003
      -1.74032338e-002 -1.73751824e-002 -1.24632875e-002
      -3.38730752e-003 -1.55416997e-002 -1.50040304e-002
      -1.03998426e-002 2.95336265e-003 7.96220265e-003 5.22203464e-003
      5.76752890e-003 7.41688954e-003 -9.48126614e-003 4.42967750e-003
      5.89313591e-003 -6.06330624e-003 1.59771787e-003 1.53300632e-003
      -3.68004316e-003 -9.66866687e-003 -5.36325714e-003
      -4.99777356e-003 -6.86754799e-003 -6.34746673e-003
      -1.04054138e-002 -1.91587710e-003 -1.20572196e-002
      -9.65003297e-003 -7.40417885e-003 1.94054417e-004 6.73715118e-003
      -1.12877460e-002 -1.71591323e-002 -1.13762859e-002
      -9.55193862e-003 -1.89995691e-002 -1.62254293e-002
      -7.61714345e-003 4.47300728e-003 1.13569805e-002 -6.34352956e-003
      -1.88347790e-002 -1.55902645e-002 2.76773586e-003 2.49261339e-003
      -1.52179610e-003 -9.61462595e-003 4.82246792e-003 1.49205094e-002
      1.36510865e-003 -1.00926543e-002 -1.31515739e-002 1.86716020e-003
      -4.25389362e-003 -5.21121128e-003 -3.30943125e-003 6.75749220e-003
      7.10484851e-003 -5.95483556e-003 -1.90331135e-002 -6.11129310e-003
      -7.50150485e-003 -1.32814785e-002 -9.48137045e-003
      -8.33834615e-003 2.12241104e-003 -6.09777728e-003 -1.70799680e-002
      -1.66273825e-002 -1.70696452e-002 -2.92594009e-003
      -6.36730762e-003 -3.12502263e-003 1.51551201e-003 5.81478095e-003
      -4.03294776e-004 -1.25389174e-002 3.57205956e-003 -1.14745332e-003
      1.25974230e-002 3.74187506e-003 4.28335788e-003 -1.93424628e-003
      4.01199237e-003 -1.27203716e-002 -1.79738756e-002 -1.72499549e-002
      3.57062701e-004 1.54367210e-002 6.52855542e-003 7.11190701e-003
      2.88714236e-003 1.27795255e-002 -6.54807687e-003 -1.19854305e-002
      -1.12854363e-002 -1.54810341e-003 -1.00211175e-002
      -1.29378857e-002 -6.48297789e-003 3.26420134e-003 1.72870408e-003
      3.69324727e-004 -9.45336744e-003 -3.67988454e-004 4.93367203e-004
      -8.44208896e-003 -8.03869497e-003 3.02957860e-003 2.16530506e-002
      1.82240065e-002 1.24119725e-002 7.62497028e-003 5.94177935e-003
      4.26605297e-003 -9.89891682e-003 -3.41159804e-003 3.68445972e-003
      4.98014083e-003 2.24840362e-003 -6.16529863e-003 -2.09068302e-002
      -2.16829143e-002 -1.85626671e-002 -1.68617070e-002
      -3.39023978e-003 2.72479630e-003 1.13019636e-002 1.68195069e-002
      4.82078362e-003 -5.05915890e-003 -1.40889408e-002 -1.11969691e-002
      -7.73136970e-003 -9.63808317e-003 1.33782916e-003 1.53993852e-002
      2.06865482e-002 2.08260678e-002 8.30840506e-003 2.15512374e-003
      -4.13108943e-003 -8.62688478e-003 -6.76748529e-003
      -2.70847324e-003 9.45037883e-003 3.05410847e-002 3.24429795e-002
      2.11683363e-002 7.93953240e-003 -1.05870152e-002 -3.33488807e-002
      -1.70909557e-002 -3.94117692e-003 -1.74571376e-003 1.02840913e-002
      5.52826468e-003 2.00317241e-003 -1.69635750e-002 -2.01138277e-002
      -3.54692638e-002 -1.46093722e-002 -6.24971604e-003 9.93106980e-004
      1.94572043e-002 2.59405896e-002 1.12440046e-002 -1.05386591e-002
      -2.52370164e-002 -9.04418621e-003 -5.34070563e-003
      -1.23329263e-003 5.39780268e-003 2.82469392e-002 2.02139504e-002
      1.90124717e-002 4.37493436e-003 -7.34840054e-003 -7.80535210e-003
      -4.28547850e-003 -2.62250472e-003 -3.21639609e-003 1.58282239e-002
      9.47498530e-003 1.67734288e-002 1.00532221e-002 1.83638695e-004
      -2.84160078e-002 -3.24794813e-003 -6.25275867e-003 2.96604377e-003
      1.82714462e-002 2.09697895e-002 1.17469663e-002 -3.29530379e-003
      -2.19374318e-002 -2.18930319e-002 1.60221977e-003 -3.33531178e-003
      -2.08980078e-003 -5.10790444e-004 -3.24920868e-003 5.32229710e-003
      -6.92219520e-003 -2.05310658e-002 -1.45451503e-003 2.62678531e-003
      3.21378699e-003 -5.63800847e-003 7.79784168e-004 5.70713775e-003
      4.15898999e-003 6.19536126e-003 7.83179514e-003 1.74959132e-003
      3.94576788e-003 7.96903484e-003 1.62529515e-003 7.42219295e-003
      2.08684782e-004 1.57953496e-003 9.13788565e-004 1.11396583e-002
      -7.34465057e-003 3.01819597e-003 3.97210894e-003 -3.26215266e-003
      2.49455741e-004 -5.30481152e-003 -3.89978290e-003 -8.08159262e-003
      -1.67226791e-002 -1.70884933e-002 -1.27361668e-002 4.03515575e-003
      5.19031798e-003 1.29589802e-002 -1.22354121e-003 -3.94227868e-003
      -1.07228104e-002 -1.00465501e-002 8.04501306e-003 -1.93271681e-003
      4.31655860e-003 4.94541368e-004 1.50635522e-002 -3.65848350e-003
      -6.93960115e-004 -3.06935166e-003 7.66233774e-003 8.67305696e-003
      1.99227757e-003 2.71726074e-003 -2.34078499e-003 1.77996494e-002
      6.34664902e-003 2.39434419e-003 2.94867205e-003 8.51218216e-003
      -1.83615182e-002 -2.33901944e-002 -6.00431068e-003 3.69271450e-003
      1.45539436e-002 -8.49987613e-004 1.48781529e-003 -6.78888150e-003
      -1.20797101e-002 -1.29390201e-002 -1.31327454e-002
      -9.75864008e-003 1.10194355e-003 1.64452177e-002 2.51690438e-003
      3.91291804e-004 -2.00127004e-004 -1.64913926e-002 -6.71076821e-003
      -1.86302676e-003 1.79775350e-003 1.13284646e-003 2.14323290e-002
      1.14378631e-002 4.83317301e-003 4.68919380e-003 -2.36212672e-003
      -2.56153233e-002 -1.63245462e-002 -3.20863537e-003 6.38096221e-003
      2.34387536e-002 1.17076980e-002 -4.78773611e-003 8.70673638e-003
      -5.10968780e-003 -1.79282948e-002 -1.13428850e-002
      -1.03110373e-002 -1.82884192e-004 1.53363021e-002 2.41735950e-003
      -2.15495750e-003 3.13683483e-003 -1.44630801e-002 -2.25068685e-002
      -1.09941438e-002 4.28171270e-003 1.90206580e-002 1.89867541e-002
      8.92982539e-003 -3.72887193e-003 5.21270977e-003 -1.61257461e-002
      -2.80953217e-002 -2.26314850e-002 3.58775933e-003 1.07904365e-002
      2.42260769e-002 8.47809110e-003 -4.80370084e-003 5.87460585e-003
      -7.46868271e-003 -9.38783307e-003 -1.72888562e-002 1.71400153e-003
      1.84055492e-002 1.81593783e-002 8.85064155e-003 -1.16825814e-003
      -6.49692863e-003 -2.75473460e-003 -2.82688364e-002
      -1.43751083e-002 1.18460106e-002 2.01808121e-002 1.46606816e-002
      4.40359069e-003 -2.21727090e-003 -1.79165113e-003 -2.14201212e-002
      -9.36697796e-003 -2.30493560e-003 9.97566152e-003 1.68862659e-002
      9.37419385e-003 1.48730841e-003 1.14094221e-003 -1.99943548e-003
      -8.81305430e-003 -7.50335259e-003 -1.08195022e-002 8.55881069e-003
      1.69950835e-002 2.21572071e-002 -1.11603737e-003 -8.91161617e-003
      -1.70699041e-002 -7.14577548e-003 -2.62229983e-003
      -9.62386094e-003 1.45595064e-002 2.59885974e-002 1.89709049e-002
      -5.29965060e-003 -1.54356668e-002 -1.91796515e-002
      -1.30162975e-002 -5.24819363e-003 5.33498172e-003 1.09888325e-002
      1.84563976e-002 2.75965245e-003 -2.72310199e-003 -1.98656204e-003
      -5.91923809e-003 -8.59260559e-003 -1.95945567e-003
      -5.26874384e-004 1.41500412e-002 2.16293540e-002 1.45825883e-002
      -2.00124527e-003 -4.10004845e-003 -1.31980237e-002
      -7.62008177e-003 -2.67754961e-003 -7.87362549e-003 2.25079944e-003
      1.65230576e-002 1.13090929e-002 -6.65082969e-003 -6.11836789e-003
      -1.08020464e-002 -8.46272241e-003 -4.59838705e-003
      -1.27233006e-002 -2.13729683e-003 1.14264516e-002 7.30509544e-003
      1.74767617e-003 -3.78685934e-003 -1.78157277e-002 -8.36352166e-003
      1.94747699e-003 -6.25250104e-004 9.92652681e-003 1.71942990e-002
      1.29260290e-002 -6.14198437e-003 -6.40858663e-003 -1.26914652e-002
      -3.35712824e-003 -1.44021469e-003 1.11194411e-002 1.82895679e-002
      2.25036759e-002 1.74099803e-002 -6.63871178e-003 -1.16280643e-002
      -2.46889237e-002 -6.45635044e-003 -7.28112459e-003
      -5.46124205e-003 -2.79653445e-003 1.31040635e-002 -1.66964123e-003
      -1.40163498e-002 -1.18572777e-002 -2.10652426e-002
      -7.94990826e-003 1.52359798e-003 2.92322342e-003 -4.77799634e-003
      2.77201901e-003 -5.60675003e-003 -1.62172392e-002 -3.64736351e-003
      -1.77304167e-003 4.28264291e-004 -1.15499948e-003 1.36206560e-002
      1.46781569e-002 2.70178262e-002 1.54574728e-002 -1.07722394e-002
      -1.04247322e-002 -2.11082306e-002 -8.55941325e-003 5.29253623e-003
      1.78727191e-002 1.02010081e-002 1.89719424e-002 6.31145714e-003
      -1.34364897e-002 4.79138471e-005 3.76463938e-003 2.83861579e-003
      -2.27538683e-003 -4.40152781e-003 -6.91405404e-003
      -1.50941657e-002 -2.58432012e-002 -2.73376927e-002
      -1.48527641e-002 -1.07193424e-003 -4.09462769e-003 8.08970816e-003
      3.07263946e-003 1.43571934e-002 5.37306536e-003 -2.15879199e-003
      5.49598131e-003 3.19252280e-003 5.85480314e-003 5.26530435e-003
      5.42146014e-003 1.08191185e-002 4.70407633e-003 -2.94192415e-003
      -1.34158656e-002 -2.92383526e-002 -1.17398612e-002 2.74860999e-003
      -2.29015388e-003 1.72100663e-002 1.25677334e-002 1.65320020e-002
      6.60012709e-003 2.77872873e-003 -3.65240907e-004 8.74705892e-003
      1.76950432e-002 1.35768289e-002 -1.33226868e-002 1.36737223e-003
      1.54129625e-003 3.19326273e-003 2.96523143e-003 -2.43579107e-003
      -7.11990986e-003 -1.83750167e-002 -3.17027941e-002
      -6.43469114e-003 7.75749749e-003 1.22982040e-002 3.68265016e-003
      -1.16559342e-002 -1.01212347e-002 -1.29622815e-003
      -1.62142944e-002 -2.13174969e-002 -6.73911069e-003 4.81456099e-003
      5.48643852e-003 1.28649920e-002 1.22919155e-003 2.48890556e-003
      -1.12707522e-002 8.75316764e-005 -1.93778686e-002 1.50204159e-003
      1.28685683e-002 1.77214909e-002 9.63716023e-003 -5.36872214e-003
      -5.05834864e-003 -7.50834937e-004 -4.86597465e-003
      -9.84230638e-003 9.69187357e-004 8.40173196e-003 1.50454333e-002
      9.61689185e-003 -4.04949673e-003 -1.03049222e-002 1.59181911e-003
      -8.41413252e-003 -1.13608995e-002 -5.32516651e-003
      -4.67989186e-004 -5.20553556e-004 -8.68408848e-003
      -6.31480990e-003 -1.27519639e-002 -8.36883113e-003
      -1.39233638e-002 -1.55999158e-002 8.19483679e-003 1.38805881e-002
      1.52598964e-002 7.25470064e-003 5.18890750e-003 -6.42279396e-004
      6.66808849e-003 -5.84767258e-004 7.10434804e-004 3.41355545e-003
      -7.15964416e-004 -5.96552109e-003 -2.98164156e-003 1.87657541e-003
      -1.02152051e-002 -1.72862958e-003 -7.07318028e-003 2.92710238e-003
      -1.14546076e-003 -1.27628562e-003 -4.82408237e-003
      -1.26087414e-002 -5.55767072e-003 -9.32904019e-004
      -6.88154018e-003 -1.19924685e-002 -1.19355684e-002 3.49104195e-003
      -4.44096513e-003 -7.20839668e-003 -1.15189059e-002
      -4.09847172e-003 -1.73234078e-003 -1.58140785e-003
      -1.24285845e-002 -5.79623086e-003 5.41770691e-003 -9.74504743e-003
      -6.67309947e-003 -1.40148937e-003 -6.17003348e-003
      -7.47936778e-004 4.93780058e-003 1.51777361e-003 6.70271320e-003
      1.27379829e-002 -6.62859762e-003 -9.22746491e-003 -7.24229682e-003
      -3.66475596e-003 -4.74920636e-003 1.11936461e-002 7.99989514e-003
      6.41570846e-003 3.25217098e-003 -1.53092819e-003 -5.33079496e-003
      -6.33329386e-003 -3.10882833e-003 -9.81538743e-003
      -9.92994290e-003 -1.08962180e-002 -2.98081175e-003 4.98069101e-004
      1.62255683e-003 3.68457637e-004 -4.00044490e-003 5.84311842e-004
      -1.64933074e-002 -2.04900783e-002 -2.37870943e-002
      -1.25075849e-002 1.39491269e-002 1.36214192e-003 -9.04111890e-004
      7.77428388e-004 -2.01258226e-003 -8.77733715e-003 -6.17584493e-003
      2.96047330e-003 1.34195294e-002 9.94186848e-003 1.03087248e-002
      1.28708323e-002 4.53607179e-003 7.67348101e-003 1.61582627e-003
      -6.89192442e-003 -1.24112228e-002 6.52245991e-003 -2.79071508e-004
      3.74527881e-003 1.15988031e-002 1.75746554e-003 8.71912763e-003
      -3.81976902e-003 -1.88496150e-002 -2.02832706e-002
      -1.46055147e-002 -1.07167214e-002 2.52818177e-003 1.52126709e-002
      5.88561408e-003 1.25201428e-002 7.27521535e-003 -2.68657040e-003
      -1.99199654e-002 -1.79125816e-002 2.25525186e-003 4.88633942e-003
      1.31381731e-002 2.81752273e-003 1.23997396e-002 9.89243947e-003
      -1.34893286e-003 -1.23737575e-002 -2.93110614e-003
      -2.37147021e-003 -1.50759716e-003 8.17570556e-003 -5.74540347e-004
      1.01099890e-002 1.13687962e-002 1.16482796e-002 -1.25125721e-002
      -1.51525736e-002 -2.06586495e-002 2.24568830e-005 1.05876205e-002
      -5.24004048e-004 1.34218931e-002 9.81057156e-003 6.91081956e-003
      -2.16484927e-002 -2.22044792e-002 -2.25780308e-002
      -4.68055112e-003 1.74446846e-003 7.37888389e-004 2.71228496e-002
      2.87856366e-002 1.14055406e-002 -1.16425296e-002 -1.65655613e-002
      -5.29347546e-003 1.80883042e-003 8.50835722e-003 1.27414984e-004
      8.62731878e-003 5.17322589e-003 1.24088302e-003 -2.49282047e-002
      -1.56893115e-002 -1.22368718e-002 -2.11540540e-003 1.25548365e-002
      6.48675766e-003 2.50831619e-002 2.35332754e-002 1.01828612e-002
      -2.65988726e-002 -2.11598873e-002 -1.56621225e-002
      -9.50854854e-004 -5.31668635e-003 -4.10473644e-004 2.03739461e-002
      1.75434481e-002 6.42531039e-003 -8.48906673e-003 -1.75241921e-002
      -1.03020053e-002 6.53246278e-003 -2.25102110e-003 6.54283538e-003
      6.15020609e-003 4.23575053e-003 3.62263503e-003 -1.17418533e-002
      -2.26507895e-002 -1.41775301e-002 -6.59861183e-003 4.53686155e-003
      3.20088794e-003 2.55473424e-002 2.51326635e-002 1.19723277e-002
      -2.09285729e-002 -2.48398092e-002 -1.99643672e-002
      -4.83248010e-003 2.31887330e-003 1.26713254e-002 1.79842468e-002
      1.59684028e-002 1.42739145e-002 -1.62046682e-002 -2.94810254e-002
      -8.62482376e-003 4.76778066e-003 -1.14041218e-003 2.73753935e-003
      6.63268007e-003 3.41903046e-003 -4.02769510e-004 -1.27269374e-002
      -2.27741599e-002 -1.93704274e-002 -1.28687555e-002
      -1.89632387e-003 8.08912143e-003 1.98865756e-002 7.08022388e-003
      -2.17245403e-003 -1.37018086e-002 -1.76299941e-002
      -2.16737352e-002 -1.63465005e-003 1.35958847e-003 9.19450819e-003
      1.25976931e-002 1.44947115e-002 1.03132902e-002 -5.43039059e-003
      -1.93691254e-002 -1.13645280e-002 -1.21557759e-003 6.33640448e-004
      1.12199839e-002 2.35110074e-002 1.50654959e-002 1.39146904e-002
      4.02439479e-003 -7.70987244e-003 -2.92298906e-002 -2.82381978e-002
      -1.33420359e-002 2.68236222e-003 1.59721654e-002 6.56983641e-004
      4.37422481e-004 -9.22117382e-003 -2.03112755e-002 -2.28451770e-002
      -2.47377753e-002 -1.54202413e-002 2.50226981e-003 1.58210918e-002
      8.61985423e-003 5.00659226e-003 -1.61053860e-004 -1.27203427e-002
      -1.27860541e-002 -5.67557337e-003 -3.50458222e-003 7.15870736e-003
      1.80175304e-002 1.00196339e-002 1.81237012e-002 1.10559259e-002
      -5.67707233e-003 -6.03051390e-004 4.16135276e-003 3.12291947e-003
      1.17296362e-002 1.87315214e-002 1.46079669e-002 7.63247116e-003
      7.48335849e-003 8.51651374e-003 -2.83912532e-002 -2.81101223e-002
      -1.41590750e-002 -3.12129292e-003 1.52403228e-002 3.30012525e-003
      -2.02691159e-003 -6.53572427e-003 -2.30173692e-002
      -2.35884711e-002 -1.87734365e-002 -1.20127073e-003 1.30510442e-002
      1.22289667e-002 1.06660463e-002 -1.56711345e-003 -4.33662673e-003
      -1.64134260e-002 -5.29772835e-004 -3.58478981e-003
      -2.48064985e-004 5.77901211e-003 1.72277130e-002 1.16650267e-002
      -5.40194567e-003 2.07921932e-003 5.72796864e-003 1.34360185e-002
      4.24715690e-003 7.44747231e-003 1.87554080e-002 1.16877249e-002
      1.59483869e-002 6.30124798e-003 3.96409212e-003 9.62444302e-003
      -2.48188786e-002 -1.81157812e-002 -2.60238536e-003 3.40969861e-003
      -3.30897793e-003 -8.11220054e-003 -5.40335197e-003
      -1.03306863e-002 -2.36460175e-002 -1.58152580e-002
      -5.99471573e-003 1.68698560e-003 -1.12602851e-004 -1.17509756e-002
      -1.18049020e-002 -1.09658670e-003 -2.71813176e-003
      -1.29702101e-002 1.63755026e-002 1.02273226e-002 1.14476467e-002
      1.21519091e-002 -1.89666997e-003 7.43071036e-003 1.09459879e-002
      4.70260065e-003 1.12873008e-002 2.10785680e-002 1.34307258e-002
      1.14176488e-002 1.05495155e-002 -3.54149146e-003 -5.60044951e-004
      1.96029581e-002 1.68576036e-002 2.62516867e-002 -9.37420689e-003
      -3.62526858e-004 -5.16504340e-004 1.82404392e-003 -2.19229087e-002
      -1.40705490e-002 -3.48212477e-003 -3.02079087e-003
      -1.02443667e-002 4.43962496e-003 -1.54232990e-003 -4.07176849e-004
      7.74592208e-003 -1.48095703e-002 -1.69793740e-002 -1.09750880e-002
      -1.43158166e-002 -7.24847149e-003 2.22687572e-002 1.54676959e-002
      8.89031682e-003 1.08581735e-002 -1.76996794e-002 -5.28738322e-003
      1.31869866e-002 1.25777135e-002 2.32010223e-002 3.37195285e-002
      1.70441642e-002 1.63908750e-002 1.19223613e-002 -2.08882838e-002
      2.79393280e-003 3.40517214e-003 7.76822772e-003 2.46053357e-002
      4.01346572e-003 -1.05317777e-004 6.03499031e-003 6.37206156e-003
      -1.33557962e-002 -2.06720419e-002 -1.69194043e-002
      -1.24327410e-002 2.04501767e-003 1.62944736e-004 1.05967158e-002
      1.43982582e-002 7.00010732e-003 1.84576857e-004 -2.02937964e-002
      -2.34490279e-002 -2.12438796e-002 -1.38094113e-003 2.01802105e-002
      8.63905251e-003 1.41788889e-002 -8.66118702e-004 -1.59004536e-002
      -7.49484519e-004 -5.57434559e-003 9.14445799e-003 2.59585604e-002
      1.76725667e-002 1.02655804e-002 1.64488014e-002 4.05553589e-003
      -1.61033263e-003 -1.09478906e-002 -7.44333910e-003 7.39357341e-003
      2.74319109e-002 -2.51685292e-003 1.32238735e-002 1.24208322e-002
      7.31027871e-003 4.95909201e-003 -1.82523914e-002 -1.39005361e-002
      -1.75546017e-002 -7.87615869e-003 7.41421711e-004 4.72051324e-003
      9.25857387e-003 9.86504555e-003 -4.17571515e-003 -2.10811794e-002
      -4.21775598e-003 -4.58899746e-003 -4.45979321e-003 5.80786867e-003
      1.30700255e-002 1.85331460e-002 3.70806642e-003 -1.64537609e-003
      -1.27349943e-002 -7.84727279e-003 -2.78724852e-004 1.14031080e-002
      6.08102838e-003 1.29394941e-002 2.13035680e-002 1.27519602e-002
      -5.17835096e-003 -1.52214523e-002 -1.19942834e-003
      -7.47725461e-003 3.32192658e-003 3.02600791e-003 3.76653858e-003
      8.46745633e-003 6.32746471e-003 -1.13972453e-002 -3.07276882e-002
      -1.70400962e-002 -4.73983213e-003 -5.29347127e-003 1.10868653e-002
      9.85484291e-003 7.08898483e-003 5.81779703e-003 -1.12255628e-003
      -1.11702029e-002 -1.09631952e-003 1.11887977e-002 9.15792957e-003
      8.63788091e-003 1.73586141e-002 1.78206135e-002 1.20096942e-002
      -1.53220873e-002 -3.07781175e-002 -1.50627643e-002
      -1.11636873e-002 1.08134358e-004 1.74716022e-002 2.79124267e-002
      2.18550991e-002 1.11943055e-002 -6.85840985e-003 -1.67043786e-002
      -1.00430865e-002 6.59510912e-003 9.47783049e-003 -5.03513822e-003
      1.72557752e-003 6.16203062e-003 1.69173647e-002 7.66548980e-003
      5.85428672e-003 -6.72810618e-003 1.34559220e-003 -9.23059694e-003
      -2.71054287e-003 4.14482690e-003 1.00420369e-002 6.49183476e-003
      -1.08180232e-002 -9.64155700e-003 -3.14578135e-003 4.87024803e-003
      -4.21847263e-003 -1.67692453e-002 -8.28224141e-003
      -3.10413539e-003 -2.16511457e-004 1.84943201e-003 7.24731060e-003
      2.71911523e-003 -2.36253356e-004 -7.43210735e-003 -7.37860892e-003
      -6.17890339e-003 -4.25273599e-003 1.02630036e-003 -1.77809652e-002
      -1.35279028e-002 -2.41216202e-003 4.20998922e-003 2.39649601e-003
      1.06427434e-003 2.67125620e-003 9.20392759e-003 8.32880381e-003
      -5.08386083e-003 -8.98893340e-004 4.09471849e-003 2.87789432e-003
      -3.96846468e-003 -1.42847246e-003 3.26031214e-003 3.98364523e-003
      -2.06136215e-003 -5.26782405e-003 -6.18090387e-003
      -1.71703345e-003 -1.05531551e-002 -6.67197490e-003 5.75965096e-004
      -2.72152224e-003 6.97275950e-003 4.33072587e-003 -9.53441579e-003
      -5.45009179e-003 3.65472195e-004 4.87366598e-003 1.98404375e-003
      -5.12158778e-003 2.09340360e-003 1.69382449e-002 4.01237374e-003
      -1.02773765e-002 -1.30843939e-002 5.27738919e-003 -3.93862464e-003
      -6.85037905e-003 -5.30111790e-003 -5.88998338e-003
      -1.11225760e-003 -9.59609542e-003 -1.18326740e-002
      -6.80291466e-003 9.94136906e-004 -4.95522469e-003 -7.59509997e-003
      4.28197812e-003 -2.26028310e-003 -5.00673312e-004 -4.63332981e-003
      -1.52354212e-002 -4.74295579e-003 1.03644526e-003 1.31879142e-003
      2.53963808e-004 -4.98325331e-003 2.26674322e-003 1.19341025e-002
      -2.25894735e-003 -1.39239524e-002 -9.06397775e-003 1.59904337e-003
      -3.04199196e-003 -3.44447931e-003 -6.78789511e-004
      -7.49343075e-003 6.89083524e-003 -3.64862289e-003 -1.15574067e-002
      1.56933942e-003 2.64137564e-003 9.24426204e-005 6.58607576e-004
      3.48912366e-003 -5.92227094e-004 1.67672068e-003 -6.95518218e-004
      -1.83867496e-002 -1.41929537e-002 -1.63439531e-002
      -2.57275067e-003 2.31906632e-003 2.48755445e-003 5.03252540e-003
      5.80616714e-003 -3.10368557e-003 -1.25153363e-002 -4.57729725e-003
      -5.83418785e-003 -4.91764536e-003 -5.68409869e-003 3.89491394e-003
      -6.43355213e-003 5.44017833e-003 -2.03760434e-003 -1.56852901e-002
      -1.04718585e-003 -6.23447867e-003 -1.23016222e-003 2.41442118e-003
      7.25055393e-003 -8.34353850e-005 7.09522841e-003 3.19340295e-004
      -1.33297108e-002 -3.52991442e-003 7.00757559e-003 3.95543315e-003
      3.62284319e-003 -8.57587066e-003 -8.74276331e-004 6.98174583e-003
      -2.44120159e-003 -2.82371207e-003 5.27510699e-003 2.58668489e-003
      -1.88928947e-003 -9.31379944e-003 -1.24604413e-002
      -3.54020717e-003 2.71985936e-003 -5.29565057e-003 -4.26614936e-003
      -4.35665296e-003 1.27247500e-003 -7.94802792e-003 -1.93629377e-002
      2.69974163e-003 2.56740768e-003 4.20542015e-003 1.04777515e-003
      -7.29953125e-003 -2.32392311e-004 7.38505600e-003 2.46884860e-003
      -1.61919394e-003 1.14585012e-002 8.04462563e-003 4.73897951e-003
      4.63591045e-004 -1.02887899e-002 -2.09490769e-003 3.74389905e-003
      -4.24494036e-003 6.77875429e-003 -8.19447637e-003 6.37248217e-004
      4.98740980e-003 5.05182426e-003 7.59086479e-003 1.72952551e-003
      -4.93119704e-003 -2.02056486e-002 -1.88269746e-002
      -2.09840983e-002 -5.53766917e-003 9.51817911e-003 5.70589257e-003
      1.43313613e-002 1.75192077e-002 4.34188917e-003 -2.82972921e-002
      -2.59006452e-002 5.24893962e-003 6.76692417e-003 5.27380919e-003
      1.53636700e-003 -2.62945518e-003 3.11837322e-003 2.47797207e-003
      -2.71159317e-003 3.45310662e-003 1.45642739e-003 8.81155673e-003
      6.25954196e-003 5.55592915e-003 -4.23634518e-003 5.54537773e-003
      2.23563355e-003 -6.53394451e-003 -8.32250156e-003 -2.35769451e-002
      -1.03476737e-002 -1.34093000e-003 -7.19183311e-003 1.59796998e-002
      1.61074437e-002 4.52389289e-003 -1.97434388e-002 -2.56578829e-002
      -1.89744681e-002 -4.13337350e-003 -4.45136894e-003 3.14146141e-003
      1.34450840e-002 5.56637812e-003 1.16404649e-002 -1.12790801e-002
      -2.88646780e-002 1.53293116e-002 1.41384406e-002 4.69921576e-003
      -3.29532847e-003 -8.99071340e-003 -6.06444012e-003 2.21406622e-003
      1.16137066e-003 4.20223968e-003 2.22466141e-002 2.08094418e-002
      1.00608012e-002 4.30781208e-003 -1.43464329e-003 -6.25319267e-003
      1.23495115e-002 1.34161124e-002 1.09157022e-002 -2.86466796e-002
      -1.80806611e-002 -7.24474667e-003 -2.26853663e-004 7.73937616e-004
      -1.14214635e-002 1.88400422e-003 -9.54574719e-003 -2.44688056e-002
      -1.09172296e-002 -5.40737389e-003 -3.72136594e-003 2.84414901e-003
      8.70673265e-003 -1.66353129e-003 1.06680738e-002 8.07698630e-003
      -3.62413208e-004 1.76179912e-002 4.22550319e-003 1.88213331e-003
      6.81369100e-003 -4.74480214e-003 -6.70948811e-003 5.39702876e-003
      7.87105691e-003 1.14021841e-002 2.47204397e-002 1.08014233e-002
      1.30132250e-002 1.04913320e-002 -2.73533398e-003 -6.71881426e-004
      1.29594225e-002 1.79253686e-002 2.27532685e-002 -1.30301192e-002
      -8.59949179e-003 -1.23468107e-002 -6.82066334e-003
      -2.73801357e-004 -6.74777292e-003 9.73856635e-003 1.10284444e-002
      -1.61313894e-003 3.38551472e-003 -5.93103701e-004 -7.49478908e-003
      -1.35818217e-002 -1.22564919e-002 -1.09125841e-002
      -6.76069921e-003 8.04597232e-003 5.96763287e-003 2.28852052e-002
      1.15346480e-002 6.63412921e-003 -4.70334850e-003 -6.83789328e-003
      -1.79318944e-003 6.51874160e-003 2.01234315e-002 2.15772912e-002
      2.68974919e-002 1.78170297e-002 6.75731199e-003 -6.42417325e-003
      -1.95578672e-002 -7.08986493e-003 -5.40057709e-003 2.09496189e-002
      2.97335852e-002 2.10068701e-003 1.15726911e-003 -8.76103714e-003
      -7.20147695e-003 -6.17081998e-003 -1.00837685e-002
      -1.27842464e-002 2.89495755e-003 3.61553277e-003 7.68645247e-003
      1.47781316e-002 1.61044730e-003 3.97422211e-003 4.55681840e-003
      -1.86185294e-003 -9.31936316e-003 9.45812440e-004 1.05120754e-002
      1.64730251e-002 1.39731709e-002 -5.60620474e-003 -1.16274264e-002
      -1.44130168e-002 -9.32367891e-003 -8.88073631e-003 5.11863735e-003
      1.86638478e-002 1.15394956e-002 2.01158803e-002 -4.00932739e-003
      -4.03230032e-003 -3.37789161e-003 -3.26651242e-003
      -3.96256289e-003 6.31361315e-003 9.31098592e-003 7.98588526e-003
      1.76932123e-002 8.50911159e-003 5.49722742e-003 -1.22731766e-002
      -1.11896163e-002 -7.64743472e-003 -1.77375565e-004 9.69020650e-003
      2.03051548e-002 1.67141575e-002 1.90744568e-002 1.22797694e-002
      -2.44619213e-002 -1.00621367e-002 8.78993713e-004 4.27030586e-003
      1.96108650e-002 1.93409231e-002 2.55748816e-002 7.73157086e-003
      1.24530680e-003 -2.33877189e-002 -1.96564831e-002 -7.86370412e-003
      7.60860462e-003 1.62661262e-002 2.58714687e-002 2.28172429e-002
      1.87441260e-002 7.13182241e-003 -2.83300132e-002 -2.49941889e-002
      -1.85082073e-003 -4.83709620e-004 1.50660686e-002 2.16145385e-002
      1.91046204e-002 1.66487508e-002 1.63629502e-002 -1.84024256e-002
      -8.24483112e-003 -5.01601666e-004 5.94029110e-003 2.17594113e-002
      2.64080185e-002 1.62045956e-002 1.41390078e-002 4.63836314e-003
      -2.50315219e-002 -7.87106436e-003 -2.54904444e-004 7.44558638e-003
      2.76920795e-002 2.72331834e-002 2.43816264e-002 2.11145990e-002
      1.04954336e-002 -2.70467065e-002 -1.80382822e-002 -8.39955546e-003
      -4.58608987e-003 1.33116022e-002 2.99077835e-002 1.27029009e-002
      8.80420208e-003 -2.69277534e-003 -3.25462632e-002 -2.12448258e-002
      -1.15747461e-002 -1.70629902e-003 2.06384342e-002 2.59636585e-002
      1.49387978e-002 1.15039097e-002 -3.96506349e-003 -2.18805186e-002
      -1.49614352e-003 7.13100424e-003 1.01718409e-002 2.25100964e-002
      1.41996993e-002 8.33838247e-003 1.32432757e-002 5.16303536e-003
      -1.17275845e-002 -6.42028777e-003 1.36014749e-003 7.61799980e-003
      1.87991839e-002 2.73594223e-002 8.65797419e-003 2.75484659e-003
      -6.15082169e-003 -2.20782105e-002 -1.34227024e-002 1.35558075e-003
      2.46080523e-003 1.82217360e-002 1.83104370e-002 1.65225263e-003
      3.42145562e-003 -8.14321029e-005 -2.01442931e-002 -7.74032902e-003
      1.04897539e-003 1.11725647e-002 2.02153772e-002 8.14871583e-003
      7.52447685e-003 1.66666228e-002 1.04537783e-002 -1.56328585e-002
      -1.38528058e-002 1.81045081e-003 7.05935340e-003 1.24110254e-002
      1.65543135e-003 1.06994770e-002 2.03957371e-002 9.95908864e-003
      -1.71913505e-002 -1.16018383e-002 6.29407732e-005 -6.07995957e-004
      1.55495293e-003 5.38858911e-003 2.18378977e-004 7.06323981e-003
      1.54470559e-003 -2.34112311e-002 -3.65917035e-003 5.10125747e-003
      1.53155299e-002 1.26823224e-002 9.10083298e-003 6.20169239e-003
      9.94260516e-003 -4.32766881e-003 -2.11957898e-002 -8.95978976e-003
      -2.56947218e-003 6.30405871e-003 3.37123731e-003 4.47052717e-003
      8.16437323e-003 1.61561649e-002 1.35809770e-002 -1.28174247e-002
      -2.03461815e-002 -1.03986664e-002 -2.54780753e-003 3.19112162e-003
      1.19088227e-002 1.98579188e-002 1.66812725e-002 2.25034095e-002
      3.67580622e-004 -6.99031400e-003 -8.36617406e-003 9.85572813e-004
      5.72827831e-003 1.62236411e-002 7.39081483e-003 7.96439499e-003
      6.28231559e-003 -1.97747760e-002 -2.36430075e-002 -2.02743299e-002
      -8.18125997e-003 2.81177671e-003 1.66663397e-002 1.74677968e-002
      1.69491172e-002 2.20566411e-002 -9.08178184e-003 -1.97997130e-002
      -1.96761061e-002 -9.59411263e-003 2.72484799e-003</_></support_vectors>
  <decision_functions>
    <_>
      <sv_count>1</sv_count>
      <rho>-4.2294632879539923e-001</rho>
      <alpha>
        1.</alpha></_></decision_functions></opencv_ml_svm>
</opencv_storage>
